#include <math.h> 
 #include <string.h> 
 #include <stdio.h> 
#include "./include/k2c_include.h" 
#include "./include/k2c_tensor_include.h" 

 


void r10cnn_0323(k2c_tensor* INPUT_input, k2c_tensor* FC_END_output) { 

size_t CONV_0_stride[2] = {1,1}; 
size_t CONV_0_dilation[2] = {1,1}; 
float CONV_0_output_array[3600] = {0}; 
k2c_tensor CONV_0_output = {&CONV_0_output_array[0],3,3600,{30,30, 4, 1, 1}}; 
float CONV_0_kernel_array[108] = {
-2.74262518e-01f,+3.09141695e-01f,+2.19549000e-01f,+2.25659572e-02f,+3.78602624e-01f,
+2.06000775e-01f,+1.46135256e-01f,+2.81481713e-01f,-2.04692520e-02f,+1.85058340e-01f,
-5.39644897e-01f,-6.10933565e-02f,-3.15439850e-01f,-1.36070162e-01f,-3.10640549e-04f,
-1.85063258e-01f,-3.00744325e-01f,-4.22030389e-02f,-2.06183583e-01f,-1.05016127e-01f,
-2.16229528e-01f,-2.91164726e-01f,-1.19626382e-02f,+2.18530715e-01f,-1.43492013e-01f,
+1.79182470e-01f,+4.54320833e-02f,-3.43363374e-01f,+2.96821028e-01f,-2.80530483e-01f,
+2.16528941e-02f,+1.32927835e-01f,+2.81370401e-01f,+1.72399566e-01f,+2.52478302e-01f,
+1.15953617e-01f,-3.30248140e-02f,+1.60076380e-01f,+2.51740426e-01f,+1.80505842e-01f,
+8.14667940e-02f,+6.37344599e-01f,-1.85308859e-01f,+1.37680158e-01f,+9.22314078e-02f,
+4.69955891e-01f,-1.58400908e-01f,-1.86787724e-01f,+1.41434968e-01f,-3.90996002e-02f,
+1.76777542e-01f,+2.78089225e-01f,+1.61743030e-01f,-3.62760186e-01f,+2.27760360e-01f,
-1.69623852e-01f,+2.79507458e-01f,-1.72892753e-02f,+7.62434229e-02f,-2.60077566e-01f,
-2.87731111e-01f,-1.26853243e-01f,-4.64770198e-01f,-4.48940694e-01f,-2.05809191e-01f,
+3.30268562e-01f,-2.08174080e-01f,+3.12755167e-01f,+1.90938264e-01f,-1.32166624e-01f,
+1.53740138e-01f,+9.82623249e-02f,+2.13218257e-01f,-9.69890133e-02f,+1.02967344e-01f,
+4.00177479e-01f,-2.01671928e-01f,-1.42398611e-01f,+3.85189384e-01f,+3.68409902e-01f,
+2.65719742e-01f,+9.97213274e-02f,-1.61564305e-01f,-4.71965857e-02f,-5.77212721e-02f,
-6.85907975e-02f,+2.11161196e-01f,+8.33159015e-02f,-1.37274146e-01f,-1.84721828e-01f,
-1.09480590e-01f,-3.33312824e-02f,+3.21981430e-01f,-1.85504094e-01f,+2.11270511e-01f,
+1.58502623e-01f,+3.91855389e-01f,-3.16478908e-02f,-1.98373184e-01f,+3.11521560e-01f,
-2.38371655e-01f,+2.43308414e-02f,-2.42385268e-01f,+5.32349348e-01f,+2.07937196e-01f,
+2.49676913e-01f,-9.97230709e-02f,+3.44019569e-03f,}; 
k2c_tensor CONV_0_kernel = {&CONV_0_kernel_array[0],4,108,{3,3,3,4,1}}; 
float CONV_0_bias_array[4] = {0}; 
k2c_tensor CONV_0_bias = {&CONV_0_bias_array[0],1,4,{4,1,1,1,1}}; 

 
size_t CONV_1_stride[2] = {1,1}; 
size_t CONV_1_dilation[2] = {1,1}; 
float CONV_1_output_array[7200] = {0}; 
k2c_tensor CONV_1_output = {&CONV_1_output_array[0],3,7200,{30,30, 8, 1, 1}}; 
float CONV_1_kernel_array[32] = {
+3.46682337e-03f,-1.16954163e-01f,-1.02778554e-01f,+4.61921722e-01f,-1.76854029e-01f,
+7.41367996e-01f,+6.93460286e-01f,+5.62476993e-01f,+6.63675964e-01f,+8.57712269e-01f,
+5.21308720e-01f,-7.97981322e-01f,+1.00715470e+00f,-4.70421135e-01f,+4.89079565e-01f,
+1.00055218e-01f,+6.13948181e-02f,+1.59197286e-01f,+4.49226111e-01f,+7.38959908e-01f,
+4.47523594e-02f,-1.48091257e-01f,+7.75399923e-01f,-6.39510036e-01f,-3.83969724e-01f,
+5.91749661e-02f,-5.85879147e-01f,-1.28032759e-01f,-1.92688093e-01f,+3.63017827e-01f,
-2.67228007e-01f,-3.34886134e-01f,}; 
k2c_tensor CONV_1_kernel = {&CONV_1_kernel_array[0],4,32,{1,1,4,8,1}}; 
float CONV_1_bias_array[8] = {0}; 
k2c_tensor CONV_1_bias = {&CONV_1_bias_array[0],1,8,{8,1,1,1,1}}; 

 
size_t CONV_2_stride[2] = {1,1}; 
size_t CONV_2_dilation[2] = {1,1}; 
float CONV_2_output_array[3136] = {0}; 
k2c_tensor CONV_2_output = {&CONV_2_output_array[0],3,3136,{28,28, 4, 1, 1}}; 
float CONV_2_kernel_array[288] = {
-4.22333539e-01f,+2.85808481e-02f,-4.86444822e-03f,-1.40262365e-01f,-1.36334613e-01f,
-2.58302301e-01f,+1.38962820e-01f,-8.17359462e-02f,+8.50008950e-02f,+2.53186375e-01f,
-6.91661239e-02f,+4.72518981e-01f,+1.00650102e-01f,-1.92533627e-01f,+5.24320975e-02f,
+1.14738539e-01f,+1.42824769e-01f,-1.08270608e-01f,-3.92295457e-02f,-1.81416765e-01f,
+6.16133511e-02f,-4.08918262e-02f,-1.24678440e-01f,+1.85694501e-01f,+1.67898074e-01f,
+4.52298634e-02f,+2.82694362e-02f,+5.97127154e-02f,-1.99466899e-01f,+5.26550174e-01f,
-6.20416664e-02f,+4.04853791e-01f,+2.38483381e-02f,-1.53110370e-01f,+9.11436006e-02f,
-3.57201338e-01f,+2.01866284e-01f,+2.52499610e-01f,-2.98927408e-02f,-1.67312726e-01f,
+3.13823551e-01f,-1.12748198e-01f,-1.98276028e-01f,+8.66688937e-02f,-5.33137381e-01f,
-4.77354974e-01f,+2.14786917e-01f,-4.55746800e-02f,+2.63436645e-01f,+1.53367370e-01f,
+2.84252524e-01f,-3.15867923e-02f,-2.13505670e-01f,+1.93999931e-02f,-3.20562162e-02f,
-1.49560561e-02f,+2.49786898e-01f,-1.50289834e-01f,-2.02781782e-02f,-9.97890458e-02f,
+2.30024680e-01f,-6.33717235e-03f,+2.36353770e-01f,+1.45517111e-01f,-8.86843726e-03f,
+9.14393514e-02f,-1.54297993e-01f,-5.00964224e-01f,+2.40585893e-01f,+2.41268829e-01f,
+1.16324492e-01f,+5.55481017e-02f,-3.72365505e-01f,-2.89510250e-01f,+2.73982406e-01f,
+4.01873231e-01f,+4.04264361e-01f,-1.50685191e-01f,+3.40036899e-01f,+4.40384954e-01f,
-1.37286663e-01f,-2.93458719e-02f,-1.98049992e-01f,+3.03826243e-01f,-1.83742642e-01f,
+2.11365536e-01f,-1.45538181e-01f,+2.57628649e-01f,+2.04397500e-01f,-1.21720061e-01f,
-1.19244710e-01f,+1.44434020e-01f,-5.08289933e-02f,-3.52122188e-01f,+5.19580171e-02f,
-4.93756413e-01f,-1.64985403e-01f,-2.93283701e-01f,-3.48492205e-01f,+5.36585450e-01f,
-9.86440387e-03f,+1.35600343e-01f,+6.04753308e-02f,+3.29058975e-01f,+3.78135085e-01f,
+6.83690012e-02f,+4.12086964e-01f,-2.00537354e-01f,+1.34132225e-02f,+1.28328845e-01f,
-2.55321294e-01f,-4.59407151e-01f,-1.79309547e-01f,+1.04491793e-01f,-2.39037201e-01f,
-3.41965556e-02f,+8.99540856e-02f,-2.58345529e-02f,+2.38034308e-01f,+2.49128774e-01f,
+1.38951674e-01f,+9.45121497e-02f,-2.24424675e-01f,+1.24624595e-01f,+1.61247119e-01f,
+1.15549713e-01f,+1.61813758e-02f,-1.77862138e-01f,-2.38258183e-01f,+9.34387594e-02f,
-1.81028340e-02f,+1.87580183e-01f,+3.39708030e-01f,+3.34051728e-01f,+8.41909945e-02f,
+2.83020943e-01f,-9.73541439e-02f,+5.36841005e-02f,-2.93729246e-01f,-8.20110261e-01f,
-2.09836423e-01f,-1.33384660e-01f,-5.19533932e-01f,-7.05952793e-02f,+4.36268419e-01f,
+3.49655598e-01f,+7.25613981e-02f,+1.30465686e-01f,-1.33497596e-01f,-1.68130249e-01f,
+1.83185294e-01f,+2.97550391e-02f,+3.31303805e-01f,+2.48634622e-01f,+1.88466795e-02f,
-2.18423858e-01f,-3.83184642e-01f,-1.23856157e-01f,-6.26437692e-03f,+2.31509402e-01f,
+6.08053543e-02f,+5.03105968e-02f,-4.41982038e-03f,-2.62858737e-02f,-4.80835348e-01f,
-4.68221635e-01f,+1.02774203e-01f,-7.58474916e-02f,-5.59630036e-01f,+9.14158672e-02f,
+1.32102102e-01f,-5.96287489e-01f,+2.68045604e-01f,-1.60873875e-01f,-1.71277165e-01f,
+1.65361091e-01f,-5.06908536e-01f,-5.67776561e-01f,-1.49353191e-01f,+4.08953838e-02f,
+1.35757029e-01f,+2.07934499e-01f,-2.01988444e-01f,+2.23973006e-01f,-4.36141402e-01f,
-1.82933167e-01f,-3.20124090e-01f,-1.60558194e-01f,-6.58700526e-01f,-1.90141797e-01f,
-2.23195534e-02f,-2.59845823e-01f,+3.27375047e-02f,-1.77408189e-01f,-7.99480081e-02f,
+1.97034180e-02f,+3.67805809e-02f,+1.99277759e-01f,+3.89942862e-02f,-1.71223670e-01f,
-1.35187253e-01f,-4.71243337e-02f,-7.95163989e-01f,-2.81521469e-01f,+1.04203029e-02f,
+2.34755322e-01f,+2.49508336e-01f,-4.88813341e-01f,+7.08482265e-02f,-2.94536918e-01f,
+2.10832223e-01f,-6.87320456e-02f,+5.25945574e-02f,-7.72243217e-02f,+2.99440891e-01f,
-6.10574968e-02f,-2.47028708e-01f,+2.81447242e-03f,+3.06731574e-02f,-2.68620908e-01f,
-4.73824024e-01f,+9.38493609e-02f,+4.78269577e-01f,+3.43449920e-01f,-4.85584028e-02f,
-4.40015346e-02f,-2.29651436e-01f,-3.01496446e-01f,-1.41899198e-01f,-7.10570067e-02f,
+3.65746826e-01f,+9.78827477e-02f,+4.11962941e-02f,-2.24848747e-01f,-1.16228282e+00f,
-4.26715881e-01f,-3.60426992e-01f,-5.99323809e-02f,-2.10010588e-01f,+2.77681738e-01f,
+1.40128031e-01f,+5.12207568e-01f,+3.83565798e-02f,-1.44076794e-01f,+1.37076885e-01f,
+1.59816116e-01f,+8.61687213e-03f,+2.56545126e-01f,+1.66511700e-01f,+3.66482973e-01f,
-1.06400877e-01f,+2.27427930e-01f,-1.32627383e-01f,+2.52442002e-01f,+2.53126562e-01f,
+1.71544507e-01f,+5.93557656e-01f,+1.36151433e-01f,-3.94471735e-01f,-6.17474392e-02f,
+5.71065396e-02f,-4.28026944e-01f,+4.46945615e-02f,-2.38453746e-01f,+2.94679970e-01f,
-8.76808073e-03f,+1.15639463e-01f,-5.77856183e-01f,+1.08516887e-01f,-1.37511328e-01f,
+5.73974669e-01f,-1.54348716e-01f,+4.19209838e-01f,-1.76411822e-01f,+1.15925126e-01f,
-3.16975862e-01f,+2.64572892e-02f,-1.57909408e-01f,+2.57148333e-02f,+2.99314018e-02f,
+2.56552696e-01f,-3.78880143e-01f,-1.32864818e-01f,+1.04865260e-01f,-2.49896094e-01f,
-5.32603621e-01f,-1.40616506e-01f,+1.63722098e-01f,}; 
k2c_tensor CONV_2_kernel = {&CONV_2_kernel_array[0],4,288,{3,3,8,4,1}}; 
float CONV_2_bias_array[4] = {0}; 
k2c_tensor CONV_2_bias = {&CONV_2_bias_array[0],1,4,{4,1,1,1,1}}; 

 
size_t CONV_3_stride[2] = {1,1}; 
size_t CONV_3_dilation[2] = {1,1}; 
float CONV_3_output_array[2304] = {0}; 
k2c_tensor CONV_3_output = {&CONV_3_output_array[0],3,2304,{24,24, 4, 1, 1}}; 
float CONV_3_kernel_array[400] = {
-7.72295073e-02f,+1.00082211e-01f,+1.05350137e-01f,+6.73643919e-03f,+3.58593255e-01f,
+8.35452899e-02f,+1.41235247e-01f,+1.61753260e-02f,+1.82072427e-02f,+3.88378352e-02f,
-5.54435328e-02f,+3.30819458e-01f,-5.26220128e-02f,+1.71061084e-01f,-1.09725818e-01f,
-1.21866472e-01f,-1.15560919e-01f,-2.24597529e-02f,+1.58437893e-01f,-1.64557368e-01f,
+3.79278272e-01f,-3.55205119e-01f,+4.58855331e-02f,-2.35987052e-01f,-5.32292128e-02f,
-2.52531227e-02f,-2.21837568e-03f,+1.43015042e-01f,+6.40619621e-02f,-4.75797057e-02f,
+1.83733478e-01f,-3.68802458e-01f,+1.29323587e-01f,+5.49345873e-02f,-5.32111265e-02f,
+1.67542964e-01f,-2.55678855e-02f,-2.35795721e-01f,-1.14361390e-01f,+1.57550335e-01f,
-2.67721415e-01f,-1.06049083e-01f,+3.75395596e-01f,-1.08658038e-01f,-1.91464461e-02f,
-3.46014760e-02f,-1.13874905e-01f,-2.59457886e-01f,+3.30121696e-01f,-2.60911193e-02f,
-2.99357660e-02f,+2.14640573e-01f,-2.31523216e-02f,+5.02956398e-02f,+3.32704723e-01f,
+1.02945700e-01f,-1.76714674e-01f,+2.64671713e-01f,+1.18160918e-01f,+1.37197236e-02f,
-7.48875141e-02f,-7.25346245e-03f,-1.82419449e-01f,+6.57546520e-02f,+3.06729108e-01f,
-1.65082533e-02f,-1.08998485e-01f,+2.51947075e-01f,+1.30895823e-01f,-5.11298403e-02f,
+9.61258262e-02f,-5.93357123e-02f,-3.38580072e-01f,+1.54506549e-01f,+3.32001746e-01f,
+7.79520124e-02f,+2.80890167e-01f,-9.68848765e-02f,-6.28717467e-02f,+6.73025027e-02f,
+1.30275115e-01f,-7.85344839e-02f,-2.68251598e-02f,+3.67755406e-02f,-1.16429865e-01f,
-7.89176524e-02f,+1.84874281e-01f,-2.55046517e-01f,+3.56450379e-01f,+2.38862727e-02f,
-3.60008031e-02f,+2.08857030e-01f,-1.61518343e-02f,+2.37145096e-01f,-8.88370797e-02f,
-1.34984525e-02f,+1.65902764e-01f,+1.88246891e-01f,+6.40022606e-02f,+1.50937706e-01f,
+5.41551113e-02f,+2.04022452e-01f,-1.46398932e-01f,-2.65917212e-01f,+1.48098245e-01f,
-6.00393265e-02f,-7.23297521e-02f,+4.86029476e-01f,+1.81755945e-01f,+3.04497957e-01f,
-7.57176057e-02f,-1.00358441e-01f,+1.56021550e-01f,-5.71156666e-02f,+7.22797886e-02f,
-1.30948490e-02f,-1.22893006e-01f,-1.12923510e-01f,-1.52357295e-01f,-7.80342370e-02f,
+1.01952970e-01f,+2.65437186e-01f,+2.81416297e-01f,+1.33467019e-01f,-1.96865201e-02f,
+1.73186183e-01f,-7.54956752e-02f,-2.46725082e-01f,+2.72875726e-01f,+1.50478169e-01f,
+2.02747032e-01f,+1.95285425e-01f,+2.98701346e-01f,-3.92327607e-01f,-4.88372222e-02f,
-5.62518761e-02f,-1.20826751e-01f,+3.20985943e-01f,+1.72196269e-01f,+2.49185503e-01f,
+2.69753367e-01f,-6.90364465e-02f,-2.02729210e-01f,+1.97646290e-01f,-3.34887579e-02f,
+1.89261094e-01f,+7.56326020e-02f,+2.00329289e-01f,-6.76757842e-02f,+6.05018020e-01f,
+1.26455337e-01f,+1.75559625e-01f,-2.45298386e-01f,+9.55943987e-02f,+2.48357758e-01f,
-5.67890191e-03f,+2.01898172e-01f,+8.08134377e-02f,-2.56573081e-01f,+2.78721988e-01f,
+4.53558838e-04f,-2.48280630e-01f,-2.36577436e-01f,+1.36112392e-01f,-1.24123305e-01f,
+4.33817416e-01f,+1.22525245e-01f,-3.49363014e-02f,+1.28338143e-01f,-9.87977460e-02f,
+5.62252961e-02f,-4.61159013e-02f,+2.67894566e-01f,-2.09034681e-02f,-1.57220304e-01f,
+1.68737546e-01f,+2.72954702e-02f,+3.75236273e-02f,-9.87473503e-02f,+3.59341651e-01f,
+1.00168787e-01f,+1.49813354e-01f,+7.05649629e-02f,-4.47252877e-02f,-3.14445570e-02f,
+5.54480962e-02f,-1.02307513e-01f,+2.01824099e-01f,+4.35482562e-02f,+1.98821768e-01f,
+1.01392373e-01f,+1.06530167e-01f,+1.03109166e-01f,+1.73451394e-01f,+1.15149662e-01f,
-7.78030530e-02f,-2.47255322e-02f,+7.64921680e-03f,+1.14470594e-01f,-1.08993232e-01f,
+1.85571685e-02f,+3.52396041e-01f,-7.50333667e-02f,+3.39864254e-01f,+1.61688533e-02f,
+2.28073239e-01f,+1.86441913e-01f,-7.80993402e-02f,+1.90961257e-01f,+1.24133907e-01f,
+1.02399528e-01f,-1.38168102e-02f,-4.62633073e-02f,-4.96939942e-02f,+1.14921130e-01f,
-3.36173713e-01f,+2.46987849e-01f,+1.69964224e-01f,-1.44143075e-01f,+3.24224591e-01f,
+2.06137925e-01f,+2.18557194e-01f,+3.25014181e-02f,+2.30847269e-01f,-2.11771086e-01f,
+2.17424259e-01f,+1.77843317e-01f,-2.20834851e-01f,-8.26398075e-01f,-2.06117615e-01f,
+7.60082066e-01f,-1.01834500e+00f,+1.25301167e-01f,+2.81392455e-01f,+1.33358210e-01f,
+5.89116335e-01f,-1.20615691e-01f,-2.93371212e-02f,+2.48945460e-01f,+2.51589995e-02f,
-2.89645612e-01f,-2.28159338e-01f,-2.26135060e-01f,-3.98523547e-02f,-3.58857661e-01f,
+2.96955764e-01f,+1.15695205e-02f,-5.59648573e-02f,+1.64364934e-01f,+7.43209124e-02f,
+2.23802418e-01f,-3.17293592e-02f,-7.11077265e-03f,-2.72588478e-03f,-1.14326730e-01f,
-7.65011311e-02f,-2.44482160e-01f,-3.26750457e-01f,-1.53434560e-01f,-2.83388436e-01f,
-1.03006594e-01f,+2.10338265e-01f,+2.84039676e-01f,-4.15672183e-01f,-5.54565750e-02f,
+5.07856086e-02f,+2.18428031e-01f,+4.72866595e-02f,+8.89128372e-02f,-6.62246272e-02f,
-5.00016548e-02f,-1.65337026e-01f,-9.55585539e-02f,-4.80024964e-02f,+7.10267350e-02f,
-5.92302345e-02f,-9.54545960e-02f,+1.41148135e-01f,+2.03044623e-01f,-1.74690276e-01f,
-3.47793519e-01f,+1.58504307e-01f,+9.43515636e-03f,+9.85387638e-02f,+5.44212013e-02f,
-3.88147831e-02f,+5.01903482e-02f,-1.26570947e-02f,-3.66084240e-02f,-1.38222069e-01f,
-9.88193527e-02f,-2.59361237e-01f,+2.49833137e-01f,+3.58482659e-01f,+7.16251060e-02f,
+1.54251829e-01f,-2.11205825e-01f,+1.19483575e-01f,+2.28242129e-01f,-5.71313016e-02f,
-2.01552249e-02f,+2.66615182e-01f,-1.05497569e-01f,+2.34857619e-01f,-1.32230729e-01f,
-5.07543802e-01f,+4.30309564e-01f,-8.05494428e-01f,-5.58508933e-01f,-1.54146507e-01f,
+5.45610726e-01f,-7.58199871e-01f,-2.64795780e-01f,-4.17004935e-02f,-7.53249452e-02f,
+2.01954916e-01f,+6.19491488e-02f,-8.65700021e-02f,+2.14863867e-02f,-1.51889533e-01f,
-2.35219486e-02f,-2.36602053e-01f,-4.14480455e-02f,-1.02492105e-02f,-1.53323457e-01f,
+1.53422937e-01f,+3.19462031e-01f,-1.39585882e-01f,+2.81260461e-01f,-2.46006679e-02f,
+4.54071350e-02f,+3.17899048e-01f,-9.17043164e-02f,-1.84936263e-02f,+9.76012498e-02f,
+1.32396728e-01f,-2.17897996e-01f,-4.97154258e-02f,-1.65360644e-01f,+8.93082321e-02f,
-3.69058043e-01f,+5.36710978e-01f,+5.06505370e-01f,-1.98581845e-01f,+1.44439653e-01f,
+1.40955657e-01f,+1.93854526e-01f,+8.72679055e-02f,+1.78564191e-02f,+1.24108069e-01f,
+8.44689086e-02f,+2.18856007e-01f,-2.00883076e-01f,-2.09513038e-01f,-4.08541821e-02f,
-2.83814501e-03f,-2.17014432e-01f,+3.81429255e-01f,+4.64480609e-01f,-1.45352855e-01f,
-1.39939710e-01f,-1.80660218e-01f,+1.55166090e-01f,+1.59297600e-01f,-3.69194783e-02f,
-1.27358153e-01f,+1.73126280e-01f,+1.36886895e-01f,-1.27580002e-01f,-1.47706479e-01f,
-1.98102430e-01f,-9.16587189e-02f,-2.93218791e-02f,+1.78285554e-01f,+4.34980005e-01f,
-3.55686486e-01f,+1.28408268e-01f,+1.20973259e-01f,+7.00711384e-02f,+3.93708408e-01f,
-4.47591301e-03f,-1.90666378e-01f,+4.46126387e-02f,+2.33415142e-01f,-5.41973636e-02f,
-3.19865108e-01f,-9.32813680e-04f,-2.16082826e-01f,-6.90387189e-01f,+2.25491181e-01f,
+8.78242478e-02f,+1.24579169e-01f,-1.39968321e-01f,-2.90730763e-02f,+1.46964476e-01f,
+2.33897671e-01f,-3.75242271e-02f,+1.87512234e-01f,-4.63399254e-02f,+4.39468712e-01f,
}; 
k2c_tensor CONV_3_kernel = {&CONV_3_kernel_array[0],4,400,{5,5,4,4,1}}; 
float CONV_3_bias_array[4] = {0}; 
k2c_tensor CONV_3_bias = {&CONV_3_bias_array[0],1,4,{4,1,1,1,1}}; 

 
size_t CONV_4_stride[2] = {1,1}; 
size_t CONV_4_dilation[2] = {1,1}; 
float CONV_4_output_array[2304] = {0}; 
k2c_tensor CONV_4_output = {&CONV_4_output_array[0],3,2304,{24,24, 4, 1, 1}}; 
float CONV_4_kernel_array[16] = {
-5.40982544e-01f,+3.98192942e-01f,+9.32392836e-01f,-6.66454256e-01f,-5.83989263e-01f,
+1.21090734e+00f,-4.50145960e-01f,-9.81899559e-01f,+9.06950116e-01f,-8.32321644e-01f,
-7.92895854e-01f,-2.83753703e-04f,+2.27419615e-01f,+1.23716772e+00f,+5.28625011e-01f,
+6.61465049e-01f,}; 
k2c_tensor CONV_4_kernel = {&CONV_4_kernel_array[0],4,16,{1,1,4,4,1}}; 
float CONV_4_bias_array[4] = {0}; 
k2c_tensor CONV_4_bias = {&CONV_4_bias_array[0],1,4,{4,1,1,1,1}}; 

 
size_t CONV_5_stride[2] = {1,1}; 
size_t CONV_5_dilation[2] = {1,1}; 
float CONV_5_output_array[2304] = {0}; 
k2c_tensor CONV_5_output = {&CONV_5_output_array[0],3,2304,{24,24, 4, 1, 1}}; 
float CONV_5_kernel_array[16] = {
+1.86204031e-01f,-3.82715702e-01f,-5.02295256e-01f,+5.99979341e-01f,-3.09605211e-01f,
+9.57345366e-01f,-7.58298934e-01f,+4.91118759e-01f,+1.10987806e+00f,+1.13384891e+00f,
-6.59180045e-01f,-5.55240989e-01f,-2.40734778e-02f,+2.15757966e-01f,+8.05886209e-01f,
-1.27663565e+00f,}; 
k2c_tensor CONV_5_kernel = {&CONV_5_kernel_array[0],4,16,{1,1,4,4,1}}; 
float CONV_5_bias_array[4] = {0}; 
k2c_tensor CONV_5_bias = {&CONV_5_bias_array[0],1,4,{4,1,1,1,1}}; 

 
size_t CONV_6_stride[2] = {1,1}; 
size_t CONV_6_dilation[2] = {1,1}; 
float CONV_6_output_array[3872] = {0}; 
k2c_tensor CONV_6_output = {&CONV_6_output_array[0],3,3872,{22,22, 8, 1, 1}}; 
float CONV_6_kernel_array[288] = {
-5.20050190e-02f,-7.08751008e-02f,+7.17322052e-01f,-7.51398504e-01f,+6.61118090e-01f,
-9.01641250e-02f,+6.58697844e-01f,+4.28950876e-01f,-1.04817785e-01f,+1.73638076e-01f,
-4.15522873e-01f,-1.13029303e-02f,-2.83980370e-01f,+3.83206760e-03f,+3.66894193e-02f,
-2.68520236e-01f,-8.58965069e-02f,-9.91788357e-02f,+1.32138625e-01f,+3.75894159e-02f,
-1.35869354e-01f,+1.03606895e-01f,+1.67605594e-01f,+1.88101456e-01f,+7.23885819e-02f,
-2.34695271e-01f,+2.40336224e-01f,-2.43454456e-01f,+3.64227593e-02f,-4.03902270e-02f,
+4.25165705e-02f,-4.48345095e-02f,-4.63656247e-01f,-2.75944650e-01f,+7.40483642e-01f,
+2.30667979e-01f,+2.59341985e-01f,+2.08781920e-02f,-5.22255063e-01f,+1.58018649e-01f,
+4.02155459e-01f,+1.94398507e-01f,-2.71029860e-01f,-1.06222101e-01f,-2.29344279e-01f,
-2.75071356e-02f,+1.12269245e-01f,-2.89295584e-01f,-1.97466969e-01f,-1.24579959e-01f,
+8.57727230e-03f,+1.75700769e-01f,+1.53413251e-01f,-1.07389718e-01f,+1.97189823e-01f,
-1.51135504e-01f,-6.59602955e-02f,-1.48856416e-01f,-9.35328007e-02f,-2.45171204e-01f,
-4.30037566e-02f,+8.98595527e-02f,-1.54421911e-01f,-7.08573535e-02f,+3.30407947e-01f,
-1.05045848e-01f,+2.32981548e-01f,+3.96531820e-01f,-1.67775415e-02f,-5.43218374e-01f,
+9.59345326e-02f,+4.98540252e-01f,-1.84557959e-01f,+5.71998730e-02f,+3.36991400e-02f,
-4.00058776e-02f,+4.38090950e-01f,-2.11093694e-01f,+3.48998487e-01f,-5.57697602e-02f,
+9.88234133e-02f,+1.47751853e-01f,+2.24693343e-01f,-6.05005622e-02f,+1.89813271e-01f,
+9.12680477e-02f,-2.32002497e-01f,-1.02347210e-01f,+1.54133335e-01f,-1.39828071e-01f,
+7.41186887e-02f,+5.23217618e-02f,+3.31807807e-02f,+8.62888023e-02f,+1.44210085e-01f,
+2.21711010e-01f,+3.27853501e-01f,+3.93419236e-01f,+7.18959033e-01f,-7.07805276e-01f,
+1.79095358e-01f,+9.00176689e-02f,+4.46981549e-01f,-2.46559396e-01f,-3.06129724e-01f,
+2.02434614e-01f,-1.79368556e-01f,+3.42047572e-01f,-7.44806826e-02f,-5.73609099e-02f,
-7.58567154e-02f,-2.87013706e-02f,-1.61117792e-01f,+4.19848412e-02f,-1.69934928e-02f,
-2.32507885e-02f,-1.79243803e-01f,+7.91396350e-02f,+9.29724127e-02f,+1.12398788e-01f,
+5.73094040e-02f,-1.44185022e-01f,+3.66395861e-01f,+1.87820435e-01f,+2.82539308e-01f,
+1.10515445e-01f,-3.46271962e-01f,-4.21142578e-03f,-3.58305961e-01f,+4.03954744e-01f,
+4.08234656e-01f,-3.32938582e-01f,-6.49220049e-02f,-3.05528432e-01f,-6.13241971e-01f,
+3.04213632e-02f,+2.00522244e-01f,+1.15078159e-01f,-1.60922796e-01f,-1.54744521e-01f,
-6.85374215e-02f,-1.69037618e-02f,-2.29647115e-01f,-1.05184654e-03f,+6.49395734e-02f,
-3.80223542e-02f,+1.89165071e-01f,-9.98352617e-02f,+4.53417450e-02f,+1.23551741e-01f,
-2.10238993e-03f,-2.20617503e-01f,-8.16059411e-02f,-2.13404432e-01f,+1.03509068e-01f,
-1.58933159e-02f,-4.67159636e-02f,+1.73920449e-02f,-1.25945508e-01f,-1.31662458e-01f,
+3.95633548e-01f,+2.64068320e-02f,-4.38068122e-01f,+7.19026804e-01f,+6.84332848e-02f,
-6.50165200e-01f,+2.87064850e-01f,-3.99563136e-03f,-2.82976717e-01f,-6.73523098e-02f,
+1.19162545e-01f,-2.27750808e-01f,+1.79169491e-01f,+3.12642567e-03f,+1.38351098e-01f,
-2.42609337e-01f,+2.13293508e-01f,-1.58555150e-01f,+3.70586067e-02f,-1.06614828e-03f,
-1.06203318e-01f,-7.95380771e-02f,+3.96055728e-02f,+2.30609640e-01f,-1.74220782e-02f,
-1.26190975e-01f,+8.76226276e-02f,-4.40889224e-02f,-2.26424754e-01f,+3.23967218e-01f,
+8.50918591e-02f,-1.21188574e-01f,+1.28423169e-01f,+5.32815516e-01f,+2.27365851e-01f,
-6.87868476e-01f,-7.34686375e-01f,-8.11017156e-01f,+1.86723158e-01f,-3.68001908e-01f,
-1.72763467e-01f,+7.14638829e-02f,-1.97440282e-01f,+2.62374461e-01f,+1.47059530e-01f,
+1.28190532e-01f,-2.08264574e-01f,+3.60318154e-01f,+1.94326594e-01f,+6.39564246e-02f,
-1.74392760e-03f,-1.10240370e-01f,-4.00482118e-02f,-5.83995134e-02f,-1.11067735e-01f,
+4.18445021e-02f,+5.80383390e-02f,-3.55679193e-03f,+2.46041045e-01f,+2.21806958e-01f,
+9.06710923e-02f,+3.26534808e-01f,-9.59299803e-02f,-1.68085963e-01f,-2.76917368e-01f,
+8.21444988e-01f,+7.42777705e-01f,-6.90261185e-01f,-3.36797863e-01f,-7.85706341e-01f,
-1.99473634e-01f,+2.09841371e-01f,+4.51776296e-01f,+9.54865590e-02f,-2.24267915e-02f,
+2.69090652e-01f,+1.35739878e-01f,-3.66845340e-01f,+1.48952946e-01f,+2.80621797e-01f,
-1.69286966e-01f,-1.03095233e-01f,-3.36107612e-02f,+1.37116015e-02f,-8.21557343e-02f,
+5.59993237e-02f,+1.51996657e-01f,-1.64187104e-01f,-2.11132228e-01f,-1.49816915e-01f,
+4.28627998e-01f,+2.84525812e-01f,+1.00557141e-01f,+4.85992692e-02f,-3.48711498e-02f,
+5.16427681e-02f,-1.21610261e-01f,+1.01270787e-01f,-3.62162709e-01f,+9.18065310e-02f,
+2.86413103e-01f,-5.32969177e-01f,-4.31190133e-01f,+7.43249357e-01f,-1.05609380e-01f,
-5.36425859e-02f,-8.19829628e-02f,-1.04493834e-02f,-2.39534095e-01f,+6.45472668e-03f,
+2.14472070e-01f,+3.72566849e-01f,-4.84020561e-02f,-1.03661746e-01f,-1.29281521e-01f,
-6.21935725e-02f,+9.26015228e-02f,+6.18761927e-02f,+1.53860301e-02f,+2.10745707e-01f,
+1.54691577e-01f,-6.50907457e-02f,+2.96223283e-01f,-9.69762430e-02f,-2.67928004e-01f,
+4.52235788e-01f,-6.17558435e-02f,+3.68540958e-02f,}; 
k2c_tensor CONV_6_kernel = {&CONV_6_kernel_array[0],4,288,{3,3,4,8,1}}; 
float CONV_6_bias_array[8] = {0}; 
k2c_tensor CONV_6_bias = {&CONV_6_bias_array[0],1,8,{8,1,1,1,1}}; 

 
size_t CONV_7_stride[2] = {1,1}; 
size_t CONV_7_dilation[2] = {1,1}; 
float CONV_7_output_array[2048] = {0}; 
k2c_tensor CONV_7_output = {&CONV_7_output_array[0],3,2048,{16,16, 8, 1, 1}}; 
float CONV_7_kernel_array[3136] = {
+2.49517202e-01f,-2.28798151e-01f,-1.06520601e-01f,+1.02310151e-01f,+2.20616117e-01f,
-3.36760491e-01f,-7.55194481e-03f,+2.72880286e-01f,-2.14525759e-02f,+1.14176549e-01f,
+7.59050548e-02f,-1.90699428e-01f,-6.09423555e-02f,-2.13309715e-04f,+2.03631893e-01f,
+3.05151343e-01f,+1.25955209e-01f,+3.54311079e-01f,-3.23178232e-01f,-1.14253402e-01f,
-1.57209814e-01f,-3.88107240e-01f,-4.05931741e-01f,-3.75871658e-01f,+8.33742768e-02f,
+1.26518697e-01f,+2.49231100e-01f,-3.84168439e-02f,+2.29814664e-01f,+1.15288191e-01f,
-1.47373885e-01f,-7.17629939e-02f,+3.98325101e-02f,+2.56746978e-01f,-7.98900366e-01f,
+5.51769743e-03f,-4.39929590e-02f,+7.15423644e-01f,+1.59911253e-03f,-1.54192284e-01f,
+5.24556711e-02f,+9.14584473e-02f,+1.96819201e-01f,+1.00375012e-01f,-5.63302152e-02f,
-6.64394498e-02f,-3.01762223e-01f,-1.50087580e-01f,-2.50564124e-02f,+4.18469757e-02f,
+7.35447705e-02f,-1.86389595e-01f,-5.38441315e-02f,-1.47773296e-01f,+1.41949534e-01f,
+2.90993214e-01f,+1.82189673e-01f,-1.18107215e-01f,-6.54780328e-01f,-4.86558199e-01f,
-4.37454991e-02f,+3.20644051e-01f,+1.51214421e-01f,-3.33583765e-02f,+9.54897925e-02f,
-4.35023867e-02f,+4.54168357e-02f,-4.41003852e-02f,+2.68945187e-01f,-2.99598932e-01f,
-3.39827058e-03f,+2.26584703e-01f,-2.14709528e-02f,+1.20336629e-01f,+5.36703765e-02f,
+9.83306989e-02f,-4.13593799e-02f,-4.99272384e-02f,+9.20136794e-02f,+1.44409612e-01f,
-4.18631956e-02f,+1.46205187e-01f,+4.43334728e-02f,-6.82928562e-02f,-1.34198159e-01f,
-2.42922664e-01f,-9.27578509e-02f,-1.38619423e-01f,+6.87766522e-02f,-8.01122785e-02f,
+3.62318337e-01f,+1.60717741e-02f,+1.84977293e-01f,+1.43672973e-01f,+5.99558651e-02f,
-1.42735869e-01f,-8.61786157e-02f,+1.08382896e-01f,+1.72008678e-01f,-3.01487982e-01f,
+9.73791406e-02f,+7.96275079e-01f,-2.88669337e-02f,-1.38969049e-02f,+6.90279081e-02f,
+9.09030437e-02f,+5.10275252e-02f,+4.19815108e-02f,+1.69349298e-01f,-1.14086010e-01f,
-3.06325912e-01f,-3.35222006e-01f,+1.06694832e-01f,-7.05735087e-02f,-1.92760751e-02f,
-9.76955369e-02f,-2.00080108e-02f,-8.23512450e-02f,+7.59317577e-02f,+2.14444876e-01f,
+1.71853438e-01f,-1.39136583e-01f,-1.89363480e-01f,-7.54544660e-02f,-2.16948852e-01f,
+1.54626325e-01f,-3.75350229e-02f,+1.13983117e-01f,+1.38843805e-01f,-3.11136693e-01f,
+2.30551869e-01f,-7.86535889e-02f,+1.48235738e-01f,-6.50283173e-02f,-1.00624196e-01f,
+3.09492499e-01f,-7.05963150e-02f,+1.58995062e-01f,+1.13011755e-01f,-7.16042966e-02f,
-3.52407470e-02f,-5.64686246e-02f,+6.03970587e-02f,+1.43012656e-02f,+5.45274615e-02f,
+5.47612347e-02f,-2.93199211e-01f,-5.12199514e-02f,+3.43324393e-02f,-3.96279633e-01f,
-1.77569054e-02f,-2.20563412e-01f,+1.15112282e-01f,-5.35517819e-02f,+1.66176409e-01f,
-1.95762515e-02f,+1.39292702e-01f,+4.29231487e-02f,+2.02227235e-01f,+6.76265638e-03f,
-1.23376213e-01f,-1.08528189e-01f,+5.27003140e-04f,-6.48452295e-03f,+6.85537085e-02f,
+6.42032683e-01f,-2.44186427e-02f,-5.95565327e-02f,+3.94961759e-02f,+6.32539913e-02f,
+2.61306926e-03f,-4.48839664e-02f,+1.88459784e-01f,-7.17773139e-02f,+2.08430603e-01f,
-2.34130770e-01f,+1.69330552e-01f,+5.57810329e-02f,-3.97511609e-02f,-2.75442600e-01f,
-1.24374002e-01f,-6.72645420e-02f,-2.57594824e-01f,+1.69036999e-01f,+6.06091097e-02f,
-5.14359633e-03f,-9.01896134e-02f,+1.22685790e-01f,-1.18556313e-01f,+1.79108813e-01f,
-1.04956269e-01f,-3.84909473e-02f,+1.38570637e-01f,-1.39034927e-01f,+1.56953946e-01f,
-6.85343891e-02f,+2.24437609e-01f,-3.14493895e-01f,-5.62944055e-01f,-5.28271422e-02f,
+4.80056182e-02f,+1.17456708e-02f,+2.15226933e-01f,-7.48632252e-02f,-6.51817545e-02f,
-1.74300283e-01f,-3.86913642e-02f,+4.65910397e-02f,+7.95741528e-02f,+4.59948294e-02f,
-1.37394994e-01f,+9.75689963e-02f,+5.74599439e-03f,-2.15877473e-01f,-8.12441017e-03f,
-1.96905851e-01f,+1.93193987e-01f,+4.21926100e-03f,+1.32230148e-01f,+4.06509861e-02f,
+8.83394480e-02f,+5.90434857e-02f,+4.56908010e-02f,+2.05305107e-02f,-3.40512171e-02f,
-7.74129704e-02f,+2.23890454e-01f,+2.63294857e-02f,+5.29983379e-02f,+6.58812165e-01f,
+2.52025276e-01f,+1.89766794e-01f,+2.43800864e-01f,-1.16373643e-01f,-2.32697353e-01f,
+4.28615399e-02f,-1.05849467e-01f,-7.67166764e-02f,+1.44571006e-01f,-2.05956802e-01f,
+2.17209868e-02f,+2.89530959e-02f,-9.23595130e-02f,-1.10773355e-01f,-1.11520283e-01f,
+6.34311438e-02f,+5.57400472e-02f,+1.77803367e-01f,+6.23053350e-02f,-6.44608736e-02f,
-7.45045207e-03f,+1.00966252e-01f,-2.01108426e-01f,+2.09416553e-01f,-1.11006312e-01f,
+1.83038637e-01f,+7.88193867e-02f,-3.67157489e-01f,+1.00599438e-01f,-2.00521320e-01f,
+1.48377359e-01f,-1.60274208e-01f,+1.22922651e-01f,+1.33477762e-01f,+3.61978472e-03f,
-1.36690680e-02f,+1.48399353e-01f,-3.90410013e-02f,-6.37561753e-02f,-9.49435011e-02f,
+8.95541906e-03f,+1.94169492e-01f,+6.74634427e-02f,+5.86346351e-02f,+3.11647475e-01f,
+1.50682077e-01f,-1.02651343e-01f,-5.56644797e-02f,+1.17462568e-01f,+4.51838598e-03f,
+2.47262791e-01f,-2.22458020e-01f,+1.68431133e-01f,-8.03440809e-02f,+1.58720657e-01f,
+9.75838825e-02f,+1.90143753e-02f,-9.93132778e-03f,+2.06521019e-01f,+3.62032294e-01f,
+4.43669893e-02f,+5.06097749e-02f,+1.97257206e-01f,+6.19161427e-01f,+3.18269342e-01f,
+1.87964842e-01f,+1.58269331e-01f,-4.49717164e-01f,+8.39794055e-02f,-1.71273381e-01f,
-1.07010156e-01f,+4.90432903e-02f,-1.13341413e-01f,-1.84469685e-01f,-1.31150847e-02f,
+3.32963169e-02f,+5.43014407e-02f,-1.86748281e-01f,+1.61252711e-02f,-7.03846440e-02f,
-5.82884252e-03f,+6.37168959e-02f,-1.64378304e-02f,+2.67450325e-03f,+6.49351701e-02f,
+4.08077314e-02f,-1.06659651e-01f,+1.57635242e-01f,-1.89107791e-01f,+6.24450520e-02f,
-4.14425856e-04f,-1.17199324e-01f,+4.69968989e-02f,-1.43834695e-01f,+1.32423282e-01f,
-7.35201687e-02f,+5.20146526e-02f,+2.55542278e-01f,+1.07219771e-01f,-4.97345300e-03f,
-8.30740109e-03f,+7.70981312e-02f,-4.90666851e-02f,-1.22629805e-03f,+2.02769116e-01f,
+1.56633064e-01f,+3.10407896e-02f,-4.47965972e-03f,+2.89583486e-02f,-1.31997898e-01f,
-8.99423808e-02f,+9.78569686e-03f,-5.94198219e-02f,-2.44199678e-01f,+9.17570218e-02f,
-2.96896428e-01f,-4.66104075e-02f,-6.07671328e-02f,-6.73832148e-02f,+1.27050012e-01f,
+1.42728031e-01f,-1.18858464e-01f,+4.34355855e-01f,+9.81856734e-02f,+1.32435933e-01f,
-1.16793580e-01f,+2.48151317e-01f,+5.92912674e-01f,-2.15696812e-01f,+3.72416973e-01f,
-4.21960242e-02f,-4.58136797e-01f,-2.91772783e-02f,-8.62437561e-02f,-3.40087414e-02f,
+1.96750462e-02f,-1.91829205e-01f,-1.87527880e-01f,-7.47007802e-02f,+7.59229586e-02f,
+1.54381409e-01f,-1.75129294e-01f,+7.52556473e-02f,-1.29517809e-01f,+8.49188343e-02f,
+1.97126195e-02f,-9.55648348e-03f,+1.48209974e-01f,-4.08756137e-02f,+1.23232655e-01f,
-3.85689759e-03f,+8.52547362e-02f,-1.37098357e-01f,+1.71372518e-01f,+9.18828398e-02f,
-3.77103597e-01f,+4.27781269e-02f,-2.94218212e-01f,+3.28696042e-01f,-8.13749507e-02f,
-3.67263943e-01f,+3.32769960e-01f,+2.53971014e-02f,+1.41945332e-01f,+9.08851773e-02f,
+1.64519668e-01f,-6.41668737e-02f,-3.28705549e-01f,+1.07739307e-01f,+1.12417698e-01f,
+1.30588174e-01f,+7.34771937e-02f,-2.20019355e-01f,-1.07896321e-01f,-1.23454288e-01f,
+3.06303501e-01f,-2.14500010e-01f,-4.60553318e-01f,+1.24361821e-01f,-1.58294097e-01f,
-2.08985865e-01f,-1.78125441e-01f,+9.16862413e-02f,+2.56040506e-02f,+8.01484734e-02f,
-1.08281873e-01f,+4.40036118e-01f,-2.71757040e-03f,+2.10963115e-02f,-4.10746872e-01f,
+1.29266411e-01f,+6.36161923e-01f,-4.96753305e-02f,+3.62630039e-01f,+8.03013705e-03f,
-4.15505320e-01f,-2.38347445e-02f,-2.47327998e-01f,+3.03405970e-02f,+1.08937651e-01f,
-2.85628617e-01f,-2.61688620e-01f,-1.41275421e-01f,+2.39664823e-01f,+6.05901740e-02f,
-4.97201115e-01f,+5.42168431e-02f,-1.38382033e-01f,+1.16997331e-01f,+9.13100764e-02f,
-3.84457670e-02f,+1.77993357e-01f,+1.07380105e-02f,-2.08267480e-01f,+1.06044747e-01f,
-1.53494552e-01f,-2.06346512e-01f,+2.02368185e-01f,+1.58203930e-01f,-1.83438182e-01f,
-1.10529266e-01f,+1.69486925e-01f,+1.68557480e-01f,+1.30277220e-02f,+9.76372976e-04f,
+1.90297604e-01f,-1.73123889e-02f,-7.26629347e-02f,+5.24917170e-02f,-2.52283871e-01f,
-8.16829577e-02f,-1.03396907e-01f,+1.51354317e-02f,+5.01943082e-02f,+1.34423384e-02f,
+1.95709661e-01f,-3.22334230e-01f,+6.67900592e-02f,-5.21572344e-02f,+3.59682404e-02f,
-1.59990788e-01f,+3.05778850e-02f,+1.46073233e-02f,+5.85542843e-02f,+3.35446268e-01f,
+1.64720580e-01f,+1.84320569e-01f,+6.38449416e-02f,+3.49042155e-02f,-8.78906623e-03f,
-1.57458603e-01f,+3.02218109e-01f,-2.79276252e-01f,+1.62303269e-01f,+3.91849726e-02f,
+4.65758890e-01f,+2.63735324e-01f,-2.35620230e-01f,+9.60728377e-02f,+1.09174065e-01f,
+2.48747647e-01f,+5.94024956e-02f,-6.96136206e-02f,+2.37754676e-02f,-1.16847418e-01f,
+1.79557316e-02f,-4.97254543e-02f,-2.02697814e-01f,+1.38955936e-01f,-1.03983283e-01f,
+1.16269276e-01f,-3.78031135e-02f,+8.18245262e-02f,+2.16257423e-01f,+3.84346582e-02f,
-2.40551442e-01f,-3.66513729e-01f,-1.67590633e-01f,+8.82481858e-02f,+7.51497522e-02f,
+2.49932155e-01f,+1.29123524e-01f,+5.70984147e-02f,+2.73851994e-02f,+2.20073819e-01f,
+3.06910705e-02f,+6.98935762e-02f,+1.16649002e-01f,-1.83462322e-01f,+4.89499234e-02f,
-2.70902440e-02f,-1.45631641e-01f,+5.27580753e-02f,+2.37261906e-01f,+5.15406393e-02f,
-1.42538950e-01f,-3.52793410e-02f,-1.28019243e-01f,+3.29096206e-02f,-2.36763805e-02f,
-5.34750707e-02f,-2.79824939e-02f,+2.14874316e-02f,-2.40432695e-02f,+7.11847655e-03f,
+9.44365561e-02f,-1.06867194e-01f,-3.35833691e-02f,+2.38874748e-01f,+5.44294678e-02f,
+2.82222003e-01f,+5.81881963e-02f,-8.24759156e-02f,-1.02629058e-01f,-1.27989545e-01f,
-5.29241450e-02f,+7.68311024e-02f,-1.04692057e-01f,+9.16563794e-02f,+4.48685080e-01f,
+8.66478682e-02f,+2.00487580e-02f,-7.63389617e-02f,+1.36077940e-01f,+7.88930953e-02f,
-7.17370585e-02f,+1.32101640e-01f,-4.47958708e-02f,-7.13376999e-02f,+9.56374966e-03f,
+8.93485695e-02f,-2.56475121e-01f,+1.36570901e-01f,-1.23448474e-02f,-8.25749561e-02f,
+9.30581242e-03f,+4.55644988e-02f,+1.36312261e-01f,-3.73477116e-02f,-1.93256572e-01f,
-2.06585348e-01f,+6.39421046e-02f,-1.03018746e-01f,+5.40074799e-03f,+7.48679787e-02f,
+5.68332113e-02f,+1.27412036e-01f,-4.92052920e-02f,+6.56285584e-02f,+1.68371156e-01f,
+2.78101992e-02f,+3.01651028e-03f,-3.08593996e-02f,+1.73527747e-01f,+1.57907754e-02f,
-7.50457048e-02f,+1.34775370e-01f,+8.02457631e-02f,+3.98843549e-02f,-3.11522800e-02f,
+1.02915294e-01f,+3.67320925e-02f,+5.27299978e-02f,+1.42896771e-01f,-6.84076026e-02f,
+1.21850586e-02f,+8.08417574e-02f,-8.54144245e-02f,-1.19440585e-01f,-6.21474683e-02f,
+1.13366889e-02f,+8.43999535e-02f,+2.86425471e-01f,+9.32490155e-02f,+1.56556606e-01f,
+2.37439312e-02f,+1.76485136e-01f,+1.33995507e-02f,-1.40528753e-01f,-6.33765608e-02f,
+2.33430788e-01f,-1.02690399e-01f,+1.57727912e-01f,+3.35960925e-01f,-2.27539420e-01f,
-1.70663670e-01f,-8.82974565e-02f,+1.47919521e-01f,+1.63209423e-01f,-1.11843925e-02f,
+6.23386150e-05f,-4.88509871e-02f,+6.15746491e-02f,-2.07300678e-01f,+1.44743204e-01f,
-1.30364284e-01f,-3.38951088e-02f,-3.30524184e-02f,-6.66833669e-02f,-2.78269649e-02f,
-1.50122121e-01f,+5.88589013e-02f,-1.06804140e-01f,-1.28681213e-01f,-1.07939683e-01f,
+2.05385387e-01f,-9.62481126e-02f,+1.91560015e-02f,+5.84062599e-02f,-6.05432130e-02f,
+1.72384441e-01f,-3.53794149e-03f,+1.46426693e-01f,+1.03313774e-01f,+1.01109482e-01f,
-1.54388756e-01f,-2.58362859e-01f,-1.72498614e-01f,-1.23682134e-02f,-1.16525583e-01f,
+2.04596609e-01f,+5.85565753e-02f,-4.36551087e-02f,-2.09634930e-01f,-4.46640402e-02f,
+2.84053385e-05f,+3.23791578e-02f,+1.92529246e-01f,-9.55536440e-02f,+1.98648125e-01f,
-3.19356471e-02f,-2.36534718e-02f,-7.34605566e-02f,-4.00952101e-02f,-5.92479073e-02f,
+4.36388999e-02f,+3.72441076e-02f,+5.66963181e-02f,+1.02221601e-01f,-1.52594019e-02f,
+3.19787890e-01f,-4.23391014e-02f,-2.23580062e-01f,+9.14610457e-04f,-7.83400759e-02f,
+1.00166559e-01f,+1.23877577e-01f,+4.15675133e-01f,+1.82801664e-01f,+1.32276386e-01f,
+8.99538770e-02f,-5.49387224e-02f,-3.45437676e-02f,-6.96541788e-03f,+5.25977537e-02f,
-4.55469601e-02f,+3.08830768e-01f,-1.54218957e-01f,+9.11270380e-02f,-5.47136599e-03f,
+1.44170998e-02f,-8.66342485e-02f,+7.63072819e-02f,-5.76734394e-02f,-7.89524689e-02f,
+1.04742490e-01f,-3.32299911e-04f,+7.90868402e-02f,+7.85447210e-02f,+1.66325212e-01f,
-4.07007374e-02f,+1.64310113e-01f,-6.09581470e-02f,-9.25109386e-02f,-1.24959014e-02f,
-6.22202121e-02f,+4.47860770e-02f,+1.32041171e-01f,+1.00139529e-01f,-3.86202671e-02f,
+4.74714004e-02f,-1.56174064e-01f,+1.48032522e-02f,-1.27374992e-01f,-6.63455725e-02f,
-6.30978793e-02f,+1.35989431e-02f,-2.03450754e-01f,-1.53236151e-01f,+4.93163504e-02f,
-2.45865854e-03f,-2.63034254e-02f,+2.28423029e-01f,-1.22746475e-01f,-6.26215935e-02f,
+1.51027918e-01f,+1.71418175e-01f,+1.66142374e-01f,-6.96016476e-02f,-1.59309015e-01f,
-4.36684377e-02f,-2.49981564e-02f,+1.17449038e-01f,+2.14154180e-02f,+2.45197285e-02f,
-2.13464126e-01f,-1.74523562e-01f,+4.46687162e-01f,+4.06269394e-02f,-4.88695465e-02f,
+2.62728542e-01f,+5.12194157e-01f,+3.41150314e-01f,+2.49567982e-02f,+3.55524048e-02f,
-3.29150200e-01f,+6.67743608e-02f,-2.43742969e-02f,-1.48949698e-01f,-7.72119239e-02f,
+1.64199680e-01f,-9.01713520e-02f,-5.40914312e-02f,-9.28314552e-02f,+2.31576823e-02f,
-1.16479121e-01f,+1.74733605e-02f,-6.14338219e-02f,-1.02193737e-02f,-8.36882889e-02f,
+5.47718517e-02f,+1.97508574e-01f,+7.01234862e-03f,+1.99730828e-01f,+3.45170535e-02f,
-1.54670030e-02f,-1.32578433e-01f,-2.28318036e-01f,+8.60366151e-02f,+1.82406381e-01f,
+7.41906613e-02f,-1.90838575e-02f,-1.38710290e-02f,+1.87829301e-01f,+1.44098788e-01f,
-6.81466162e-02f,-4.20083366e-02f,-1.04181834e-01f,+6.68720827e-02f,+5.89159653e-02f,
+3.30883195e-03f,+1.57418456e-02f,-1.21150957e-02f,+6.38520196e-02f,-5.51822037e-02f,
-1.12539977e-01f,-7.47674285e-03f,-3.60077731e-02f,-6.86948895e-02f,+2.62310326e-01f,
+9.09808278e-02f,+1.14358738e-01f,+4.46427986e-02f,-1.02755323e-01f,+3.58163081e-02f,
+4.53062169e-02f,+4.49947827e-02f,-1.01187930e-01f,+1.54311165e-01f,-3.92716825e-01f,
+6.22951277e-02f,+4.19362485e-01f,+3.14968675e-01f,-1.09216586e-01f,+4.19770569e-01f,
+3.67254108e-01f,+1.53526217e-01f,+7.06567019e-02f,+3.75033468e-02f,-2.86630571e-01f,
-8.03825259e-02f,+1.61441602e-02f,-1.14457861e-01f,+9.48191881e-02f,+9.02571436e-03f,
-1.57678083e-01f,+1.73950121e-02f,+1.94709073e-03f,-7.44200218e-03f,-2.09611863e-01f,
+4.47434038e-02f,-2.33091101e-01f,+1.96346585e-02f,+1.75227337e-02f,-6.90106824e-02f,
+1.77692682e-01f,-2.75096558e-02f,-1.57867059e-01f,+5.57419322e-02f,-7.89783448e-02f,
-1.83266163e-01f,-4.27326769e-01f,+1.07235499e-01f,-1.28880888e-01f,-1.64552093e-01f,
-8.87892842e-02f,+9.79167372e-02f,-5.69130108e-03f,-2.04607517e-01f,+1.62403118e-02f,
-9.06340182e-02f,+7.11213127e-02f,-7.47015998e-02f,-7.83845410e-02f,-2.06726305e-02f,
-3.18935513e-01f,-3.25720049e-02f,+6.78608641e-02f,+1.51919469e-01f,+2.04005260e-02f,
-3.97237629e-01f,+2.08363645e-02f,-1.85092762e-01f,+3.50398809e-01f,-7.00960383e-02f,
-1.62786603e-01f,+5.80714904e-02f,-5.09190671e-02f,+3.01819798e-02f,-8.85058343e-02f,
-2.87684482e-02f,-2.54977327e-02f,+3.13793048e-02f,-1.85504854e-01f,+1.62043393e-01f,
+1.53901875e-01f,-1.39592597e-02f,+7.02051222e-02f,+2.89523274e-01f,+3.08503747e-01f,
+9.35739949e-02f,+2.14307662e-02f,+7.77739566e-03f,-1.65434375e-01f,-7.16498494e-02f,
-2.86485702e-01f,-3.60079966e-02f,+6.16754480e-02f,-4.89488281e-02f,-2.36870348e-01f,
-7.77529404e-02f,+1.46001175e-01f,-1.64888753e-03f,-4.36565548e-01f,+6.94971904e-02f,
-1.93450809e-01f,+8.96319896e-02f,-6.75252900e-02f,+6.45924509e-02f,+3.63017581e-02f,
+1.63980186e-01f,-4.98306394e-01f,+1.67849392e-01f,-1.96377471e-01f,-1.72650293e-01f,
-2.99017459e-01f,+1.43765926e-01f,-3.40849496e-02f,+1.57811433e-01f,+2.08780795e-01f,
+3.91841903e-02f,+1.08868696e-01f,-1.21714264e-01f,-1.08762577e-01f,-8.87914747e-02f,
-9.39401761e-02f,+1.08872972e-01f,-1.42948642e-01f,-2.41269208e-02f,-1.40221998e-01f,
+1.13681331e-01f,+6.57102466e-02f,+6.04573339e-02f,+5.86517937e-02f,-2.51751631e-01f,
+1.76691413e-01f,-1.67754814e-02f,+1.37386834e-02f,-1.72721267e-01f,+1.30762145e-01f,
-6.46122312e-03f,+3.82454060e-02f,+3.45251471e-01f,+3.49795669e-02f,-1.46753103e-01f,
+2.33217135e-01f,-7.25141466e-02f,+5.58786467e-02f,+6.65922165e-02f,+1.15787908e-01f,
-2.92854905e-01f,+1.88931346e-01f,-5.14438227e-02f,+7.94371188e-01f,+1.94066823e-01f,
-8.33786204e-02f,+7.78684206e-03f,+1.05185591e-01f,+8.31755474e-02f,+1.46268576e-01f,
-5.17770760e-02f,+1.37174264e-01f,-1.13886416e-01f,+1.71136320e-01f,+7.85831884e-02f,
-1.62833750e-01f,+1.89348593e-01f,+4.12162878e-02f,+8.38938206e-02f,+1.49897620e-01f,
+3.83180119e-02f,-2.68072318e-02f,-4.37360182e-02f,-2.02387616e-01f,+4.40897373e-03f,
-3.02007496e-01f,-2.98528187e-02f,+4.55997318e-01f,+1.37206867e-01f,+1.11889333e-01f,
-3.96021409e-03f,-3.09612565e-02f,+1.06860235e-01f,+7.47048929e-02f,+3.87252867e-02f,
+1.51825801e-01f,-2.27052495e-01f,-7.24172294e-02f,+7.82937780e-02f,-1.90892294e-01f,
+6.13261871e-02f,+2.46513188e-01f,+6.50113598e-02f,-8.39924365e-02f,+5.73687218e-02f,
-5.15455939e-02f,-4.04630229e-02f,-5.95108494e-02f,-1.96973030e-02f,-9.13803577e-02f,
-3.00673079e-02f,+7.36757070e-02f,+8.96785855e-02f,+1.55293778e-01f,+2.48416979e-02f,
+1.34568691e-01f,+1.82705283e-01f,-4.22532391e-03f,-2.84774341e-02f,+8.73510912e-02f,
-1.97878659e-01f,+1.95768867e-02f,-2.08830506e-01f,-4.44829054e-02f,+1.59494460e-01f,
+1.70414910e-01f,+1.82598364e-02f,+4.85750645e-01f,+5.00289619e-01f,+6.53822348e-02f,
+2.72719115e-02f,+2.04682410e-01f,-8.95511825e-03f,+8.97428021e-02f,+1.17478948e-02f,
-3.93258668e-02f,-3.14018019e-02f,+1.52019411e-01f,+7.24113584e-02f,-1.50130332e-01f,
+3.50971185e-02f,-3.32483687e-02f,-6.91063553e-02f,+1.04464870e-02f,-7.33877253e-03f,
+1.15299402e-02f,+8.45520012e-03f,-1.77845985e-01f,+1.62649136e-02f,-2.03338221e-01f,
+6.00101203e-02f,+1.20516539e-01f,+2.37303916e-02f,+1.52567446e-01f,-4.00699228e-02f,
+1.15678916e-02f,+1.09296784e-01f,+1.83706671e-01f,-5.61253205e-02f,-1.74508430e-02f,
+1.07832290e-01f,+1.44166857e-01f,+5.66273369e-02f,-2.46811863e-02f,+1.08512834e-01f,
+3.81414026e-01f,+2.21211873e-02f,+2.17495292e-01f,+7.73064494e-02f,-1.03175983e-01f,
+2.99670640e-02f,+2.15055466e-01f,-6.91709155e-03f,+1.80876404e-01f,-1.01076886e-01f,
+6.71619102e-02f,-3.41002494e-01f,-1.13201618e-01f,-8.64429250e-02f,+2.37777606e-02f,
+5.66330776e-02f,-9.45468247e-02f,+1.22559316e-01f,+1.07806846e-01f,-2.85273474e-02f,
-9.77132842e-03f,-2.17512086e-01f,+1.20136537e-01f,+1.47312935e-02f,+2.13484079e-01f,
+1.62447125e-01f,+1.53072387e-01f,-5.59342444e-01f,-4.56581190e-02f,-3.48575972e-02f,
+2.08390594e-01f,+1.97402820e-01f,+1.23804383e-01f,-3.67692560e-02f,-7.15178326e-02f,
+1.56808555e-01f,-1.35822654e-01f,+4.46073897e-02f,-6.38302043e-02f,+2.34071575e-02f,
+1.12621514e-02f,+2.73883604e-02f,-1.53582826e-01f,-1.06349312e-01f,-1.38815090e-01f,
-7.08532780e-02f,-8.24960545e-02f,+6.95489198e-02f,-8.14700965e-03f,+6.16286173e-02f,
+1.94717601e-01f,-1.31128021e-02f,-4.91797226e-03f,+8.54996592e-02f,+2.20053628e-01f,
+1.04716189e-01f,+7.50309527e-02f,+7.48800263e-02f,-1.68593630e-01f,+1.54103726e-01f,
-3.05794571e-02f,+8.45258534e-02f,-1.04699537e-01f,+2.47924011e-02f,+1.19491309e-01f,
+4.58907038e-02f,-3.14329937e-02f,-8.76947939e-02f,+5.90977957e-03f,+5.68295158e-02f,
+5.52759133e-02f,-1.25841409e-01f,-2.97663230e-02f,+6.51882514e-02f,+7.90192559e-02f,
-3.04917008e-01f,-1.47082195e-01f,-2.16714479e-02f,-6.41467283e-03f,-4.68658432e-02f,
+1.05473809e-01f,+1.19444571e-01f,-2.34400090e-02f,+9.65535194e-02f,+2.66780276e-02f,
-2.78242975e-01f,+2.83123493e-01f,-1.64913431e-01f,+1.95784256e-01f,+3.25798631e-01f,
+1.75357759e-01f,+3.00409589e-02f,+1.97161436e-02f,+1.02335671e-02f,-1.46379352e-01f,
+1.91856161e-01f,-9.81164277e-02f,+1.04842268e-01f,-2.00413585e-01f,+1.40939832e-01f,
-1.35309577e-01f,+1.47032812e-02f,+3.51624005e-02f,+1.90288574e-02f,+6.06456287e-02f,
+1.71451624e-02f,-5.78551590e-02f,-8.17236900e-02f,-8.83173421e-02f,+3.51463705e-02f,
+9.17831734e-02f,+7.60898590e-02f,+5.53032309e-02f,-2.84242500e-02f,+1.26197621e-01f,
+5.72368167e-02f,+1.46832660e-01f,+8.71350095e-02f,+6.17566779e-02f,+9.41642653e-03f,
+1.53331444e-01f,+9.97062325e-02f,-2.71411277e-02f,+8.28007683e-02f,-8.25054869e-02f,
+4.25703498e-03f,-1.78122789e-01f,-1.06442504e-01f,+9.02200118e-02f,+3.65200639e-02f,
-1.09677941e-01f,-9.65713784e-02f,-7.77713880e-02f,-1.10419035e-01f,-1.44728541e-01f,
+2.55289644e-01f,-2.16493860e-01f,-1.01656290e-02f,+3.63272280e-01f,+1.68633372e-01f,
+1.19390108e-01f,-3.93484980e-02f,-8.88980776e-02f,-5.90669140e-02f,+1.29602492e-01f,
+1.02291621e-01f,-1.68570317e-02f,+2.21324749e-02f,-5.13262302e-02f,-1.17607258e-01f,
+3.90434772e-01f,+6.79008663e-02f,-2.33360931e-01f,+2.96057612e-01f,+5.10150015e-01f,
+4.61564273e-01f,+1.36586633e-02f,-4.82908078e-02f,-2.94207275e-01f,+3.07562798e-02f,
+1.51692376e-01f,-1.13295175e-01f,-8.79217982e-02f,+4.62189876e-02f,-8.71746317e-02f,
+1.18278200e-02f,-4.67158258e-02f,+5.79215325e-02f,-1.03851199e-01f,+9.26295221e-02f,
+8.61945376e-02f,-9.51697901e-02f,-2.61110365e-01f,+3.73930633e-02f,+7.92868808e-02f,
-7.90589824e-02f,+8.72884616e-02f,+3.84317748e-02f,-7.12327883e-02f,-1.69913508e-02f,
-4.75368090e-02f,-2.79178526e-02f,+2.53889918e-01f,-9.80442856e-03f,-9.05497745e-02f,
+4.91501316e-02f,+1.18500955e-01f,+2.87262172e-01f,-1.34994434e-02f,-9.31373909e-02f,
-5.55683784e-02f,-7.27489963e-02f,-6.19008131e-02f,+1.71699539e-01f,+9.18157492e-03f,
+1.21453471e-01f,+4.50989604e-03f,-4.05455381e-02f,-1.15941018e-01f,-8.60249549e-02f,
+7.83319920e-02f,-1.35282204e-01f,+2.23989069e-01f,+1.70445055e-01f,+2.94481777e-02f,
+5.82928210e-02f,-9.74274948e-02f,+4.63852175e-02f,-4.84496355e-02f,+1.31676540e-01f,
-9.05954093e-02f,-1.80564195e-01f,-1.70566320e-01f,-6.65022656e-02f,+3.01853716e-01f,
+1.18019603e-01f,-1.14274353e-01f,+4.17503595e-01f,+2.09604397e-01f,+4.04984951e-01f,
-2.53139529e-02f,+1.64732672e-02f,-2.22937971e-01f,-9.92628746e-03f,-2.97156591e-02f,
-5.84073775e-02f,+5.91648035e-02f,+3.48347835e-02f,-2.45808940e-02f,-1.42880663e-01f,
+1.26639456e-01f,-8.97369012e-02f,-1.48245946e-01f,+1.21547848e-01f,-2.06272185e-01f,
-3.34781148e-02f,-5.17536066e-02f,+1.36763100e-02f,+9.93364081e-02f,+1.03766866e-01f,
-1.12367786e-01f,+1.26059860e-01f,-1.90660767e-02f,-2.70824224e-01f,-2.07494289e-01f,
+1.34325132e-01f,-2.00260766e-02f,-2.23360658e-01f,-1.29442886e-01f,+8.73353556e-02f,
+1.00604221e-01f,-5.33061959e-02f,-7.00957468e-03f,-3.75225805e-02f,+2.32481938e-02f,
+1.63585786e-02f,-5.61471768e-02f,+1.96179435e-01f,-1.49937585e-01f,+1.81267023e-01f,
-1.16013430e-01f,+1.83016807e-01f,+3.20808887e-02f,-2.87481487e-01f,+1.45414323e-01f,
-1.91039190e-01f,+1.38180822e-01f,-6.27616793e-02f,-8.19821730e-02f,+7.59183168e-02f,
-5.86725073e-03f,+9.94086042e-02f,+7.63963442e-03f,-5.60268164e-02f,+5.50616421e-02f,
-1.01635627e-01f,-1.24208316e-01f,-2.55571175e-02f,-3.39937918e-02f,-1.29820660e-01f,
+2.07999885e-01f,+3.09691906e-01f,+1.52835473e-01f,+9.93161723e-02f,+1.09006666e-01f,
-5.02977371e-02f,-5.88720143e-02f,-1.66491807e-01f,-1.28838852e-01f,+2.30907835e-03f,
-7.74898455e-02f,-1.31887645e-01f,-6.37844652e-02f,-3.38514186e-02f,+1.22555248e-01f,
+1.51528031e-01f,-5.84614515e-01f,+2.03698650e-01f,-7.59219229e-02f,-1.84055464e-03f,
-1.35014385e-01f,-9.53654125e-02f,-5.76001108e-02f,+1.61599651e-01f,-3.21266204e-01f,
+1.52339980e-01f,-1.00103058e-01f,-4.09527868e-01f,-1.75068751e-01f,+2.21493021e-01f,
-5.81026301e-02f,+5.76447025e-02f,+1.79846808e-01f,-4.68925610e-02f,+6.75945356e-02f,
+4.16943133e-02f,+7.13075325e-02f,-1.17860183e-01f,-5.41470833e-02f,+1.16631515e-01f,
-2.19876781e-01f,-1.50853125e-02f,+1.10357873e-01f,+7.01676011e-02f,+7.54277259e-02f,
-7.79156461e-02f,+9.48673040e-02f,-2.34075546e-01f,+3.05436879e-01f,-1.05521053e-01f,
+1.73602272e-02f,-2.29949534e-01f,+1.79980710e-01f,+6.21915273e-02f,+1.19059086e-01f,
+1.34336829e-01f,+1.10931937e-02f,-2.19359770e-01f,+1.25588551e-01f,-2.02821165e-01f,
+1.08645312e-01f,-2.35371795e-02f,-3.28769892e-01f,-3.11391801e-01f,+1.46594480e-01f,
+1.09171405e-01f,+1.03214288e+00f,-1.26189739e-01f,-1.23630367e-01f,-8.61801133e-02f,
+6.97956383e-02f,-3.95752192e-02f,+9.12066847e-02f,-1.15668535e-01f,-1.33665726e-02f,
-4.88055646e-02f,+2.17304215e-01f,-1.29089609e-01f,-2.48998672e-01f,+6.20184168e-02f,
+8.84743258e-02f,+1.16340086e-01f,+6.42457157e-02f,-2.22716145e-02f,+1.43273799e-02f,
-7.50146881e-02f,-3.96942317e-01f,+3.02123046e-03f,-2.42416129e-01f,+7.51782060e-02f,
+3.64987165e-01f,-7.10527226e-03f,+1.41718358e-01f,+1.45884246e-01f,-1.22785881e-01f,
+1.08749308e-01f,+2.64962971e-01f,-4.34166119e-02f,-2.21977625e-02f,-3.36276144e-02f,
-1.24339595e-01f,+7.94776082e-02f,-2.03244165e-01f,+6.69729561e-02f,+1.13753185e-01f,
+6.70912024e-03f,+2.61956543e-01f,-5.62655367e-02f,-1.15526944e-01f,-6.68274090e-02f,
+4.54759970e-02f,-6.66099861e-02f,+1.04989327e-01f,+4.47100401e-02f,-3.53596173e-02f,
-2.06441563e-02f,+7.21789896e-02f,+7.38929026e-03f,-1.03154639e-02f,+2.21251100e-02f,
+4.45241481e-02f,-1.73292235e-01f,+1.97718650e-01f,-2.40270168e-01f,+6.15313984e-02f,
+4.01732251e-02f,+2.77217887e-02f,-2.00612028e-03f,+1.34920523e-01f,+5.20499982e-02f,
+3.32851201e-01f,+4.88186628e-01f,+1.62555784e-01f,+3.69662829e-02f,+8.71957168e-02f,
+4.19424027e-02f,+4.85917442e-02f,-6.93731233e-02f,+5.10646813e-02f,-1.64076850e-01f,
+8.85467827e-02f,-2.68417806e-03f,-7.01255202e-02f,-7.50946105e-02f,+6.62504360e-02f,
+1.70102492e-02f,-3.09573133e-02f,+1.19172916e-01f,-3.24857235e-02f,+2.79021151e-02f,
+7.67380930e-04f,+5.68616427e-02f,-1.95580035e-01f,-1.31906837e-01f,+2.14365050e-01f,
-1.20260298e-01f,+2.01537639e-01f,-5.19067608e-02f,+6.87324703e-02f,-2.16346577e-01f,
+2.01923162e-01f,-2.71131024e-02f,-3.38886455e-02f,+5.01894653e-02f,+1.69030949e-02f,
-1.37788042e-01f,-6.98826164e-02f,+8.59463811e-02f,+2.29810625e-01f,+1.37676150e-01f,
+2.11321428e-01f,+3.93269397e-02f,-1.26855955e-01f,-6.69363812e-02f,+3.54482621e-01f,
-1.48375556e-02f,+3.16652060e-02f,-3.08230985e-02f,-5.30162118e-02f,-1.94670543e-01f,
+4.03457647e-03f,+6.27615908e-03f,-1.31806657e-01f,+1.39292143e-02f,+6.28911853e-02f,
-1.21724367e-01f,-1.47415726e-02f,-1.10416844e-01f,+3.90943214e-02f,+1.26698986e-01f,
+3.01749706e-01f,-3.27255040e-01f,+1.87884912e-01f,-1.18446853e-02f,+1.04591496e-01f,
-7.21033067e-02f,-1.67571604e-02f,-1.16188668e-01f,-2.84188408e-02f,+2.13077873e-01f,
-5.24959303e-02f,-2.34184768e-02f,-4.63830419e-02f,+3.54550630e-02f,-1.23985618e-01f,
+1.52316347e-01f,+2.09846757e-02f,+4.01031077e-02f,+1.46165490e-01f,-2.43332013e-02f,
-1.85368787e-02f,+3.22692506e-02f,-5.02132624e-03f,+1.35394827e-01f,-8.49263370e-02f,
+6.72423914e-02f,-1.89988941e-01f,-3.11517008e-02f,+2.04679742e-01f,-1.02447964e-01f,
+1.64912254e-01f,+5.59847429e-02f,+2.14699641e-01f,+2.14381814e-02f,-7.40497634e-02f,
+8.80160183e-03f,-1.48751419e-02f,+2.46786028e-01f,+3.37262116e-02f,-7.88426697e-02f,
-3.87794375e-02f,-4.53847982e-02f,+1.58188909e-01f,+1.26203177e-02f,+2.27950402e-02f,
+9.29723755e-02f,-5.10205457e-04f,-4.37176861e-02f,+9.25766677e-03f,+2.40582041e-03f,
-2.14803562e-01f,+1.75659582e-01f,-9.85585619e-03f,-2.35971138e-01f,-1.47960976e-01f,
-6.98829815e-02f,-2.49320939e-01f,-5.18214032e-02f,+1.61361784e-01f,-1.29603982e-01f,
-1.06472582e-01f,-5.61170429e-02f,+1.19741961e-01f,+5.65105584e-03f,+3.59589547e-01f,
-2.42140427e-01f,-1.15041900e-02f,+2.16770917e-01f,+2.63135672e-01f,-1.59706280e-01f,
-2.20206529e-01f,-5.23659997e-02f,-2.40959957e-01f,+1.62508208e-02f,-2.37196754e-03f,
+1.27625093e-01f,-2.83953011e-01f,+5.95637076e-02f,-1.37025461e-01f,+1.49742231e-01f,
-1.35521246e-02f,+8.55780914e-02f,+4.44613816e-03f,+1.25850514e-01f,+5.56101240e-02f,
+7.86935836e-02f,-2.07592398e-01f,+1.79499298e-01f,-1.48505390e-01f,+8.01627487e-02f,
-3.55396941e-02f,-1.14162713e-01f,+1.43349737e-01f,-1.24068595e-01f,+1.79277971e-01f,
+1.71579365e-02f,+9.34778824e-02f,+4.11105435e-03f,-1.30677462e-01f,+1.18632823e-01f,
-1.69230565e-01f,+1.97076887e-01f,-9.75666195e-02f,+1.74286976e-01f,-4.67569269e-02f,
-2.32757151e-01f,+6.61937073e-02f,+1.24359168e-01f,-1.16937317e-01f,-1.09712183e-01f,
-1.81214973e-01f,-2.25201353e-01f,-1.28784657e-01f,+3.05179566e-01f,+3.18268836e-02f,
+1.98564246e-01f,+1.75284401e-01f,+2.73097098e-01f,+2.11612716e-01f,+6.19115084e-02f,
-6.95773736e-02f,-9.12927762e-02f,+7.73781091e-02f,-8.78117830e-02f,-9.45129469e-02f,
+5.55839650e-02f,+6.80116415e-02f,-1.18603855e-01f,+3.41176003e-01f,+6.59226403e-02f,
-2.63042569e-01f,+1.18809663e-01f,+6.14710569e-01f,+5.56990266e-01f,+7.22687840e-02f,
-3.48067209e-02f,-3.33087772e-01f,+5.91710024e-02f,+1.52878225e-01f,-3.88594866e-02f,
-2.43241549e-01f,+3.90725862e-03f,+4.51409556e-02f,-5.61354915e-03f,-1.80475824e-02f,
-7.81077519e-02f,-1.67981625e-01f,-2.69269682e-02f,-6.46133050e-02f,+7.54819065e-02f,
-2.25105986e-01f,+9.50062498e-02f,-1.12552390e-01f,+2.61470433e-02f,+2.33435959e-01f,
-5.99378161e-02f,+1.06467567e-01f,-1.27023533e-01f,+1.22437868e-02f,-8.58456716e-02f,
+1.32936567e-01f,+2.07022410e-02f,-1.41459078e-01f,-6.67748377e-02f,-1.38436139e-01f,
+1.71558559e-01f,-9.39043760e-02f,-3.66972126e-02f,-2.05821004e-02f,-1.58786267e-01f,
-1.53575525e-01f,+9.70158875e-02f,-9.77183804e-02f,+1.09223351e-01f,-1.36135355e-01f,
-1.09505653e-01f,-6.32775426e-02f,-3.77823263e-02f,+1.23725705e-01f,+3.44009027e-02f,
+1.69378929e-02f,+3.71402711e-01f,+1.91999078e-01f,+1.43044904e-01f,-1.22005709e-01f,
+8.46972242e-02f,+3.64423618e-02f,-8.07823464e-02f,-1.18906200e-01f,-9.53268856e-02f,
+4.59563360e-02f,-1.76494986e-01f,+2.44931757e-01f,-1.48000926e-01f,-8.73536151e-03f,
+2.86583334e-01f,+1.36070997e-01f,+4.27607745e-01f,+1.83438808e-01f,+1.66501794e-02f,
-1.89266145e-01f,+7.41868019e-02f,+1.62279289e-02f,-4.96724881e-02f,-5.64056076e-02f,
+2.53184050e-01f,+1.92809268e-03f,-3.13407369e-02f,-2.82075908e-02f,-8.27046782e-02f,
-1.99584126e-01f,-6.17881073e-03f,-1.26706511e-01f,+1.08059242e-01f,-2.12754861e-01f,
+4.46212757e-03f,-1.87870860e-01f,+9.49941128e-02f,+2.92773657e-02f,+1.54873863e-01f,
+5.10482825e-02f,-4.76393551e-01f,-6.13372512e-02f,+8.27091113e-02f,-6.47822469e-02f,
-1.25131205e-01f,-1.90608636e-01f,+1.79127440e-01f,-4.24305499e-02f,-4.19530123e-02f,
+1.23792075e-01f,-4.01549675e-02f,+4.14982699e-02f,+9.14053768e-02f,-6.78927973e-02f,
+1.61194369e-01f,-1.49169609e-01f,+9.39743370e-02f,-1.38895616e-01f,+1.13879137e-01f,
+1.43222407e-01f,-2.17176095e-01f,+7.99384639e-02f,-2.09353790e-01f,+7.70894140e-02f,
+1.07823841e-01f,-2.12495611e-03f,+1.02975957e-01f,-4.03342247e-02f,-5.68693280e-02f,
-2.47707721e-02f,+1.18329367e-02f,+8.81838985e-03f,-1.46543816e-01f,+4.02776785e-02f,
-2.82965191e-02f,+1.83065072e-01f,-1.06976535e-02f,+1.04202293e-02f,+1.78863138e-01f,
+1.69727907e-01f,+1.32948890e-01f,-3.22248228e-02f,+9.55783352e-02f,+1.31352812e-01f,
-2.13589936e-01f,-1.94302261e-01f,-1.10796966e-01f,+2.19543241e-02f,+1.36245832e-01f,
-1.02688828e-02f,-1.97163387e-03f,+6.96190745e-02f,-3.48178744e-02f,-5.10030746e-01f,
+1.05981290e-01f,-2.14501232e-01f,+8.41719806e-02f,-1.76063463e-01f,-1.21482044e-01f,
-5.00651479e-01f,+2.46743456e-01f,-3.44396532e-01f,+3.13434780e-01f,-1.00373618e-01f,
-6.93442225e-01f,-1.04208604e-01f,+1.69716373e-01f,-1.80843636e-01f,+1.53634936e-01f,
+1.76458105e-01f,+1.87098626e-02f,+1.76712841e-01f,-4.99298833e-02f,+8.08426067e-02f,
-1.45164117e-01f,-1.21079180e-02f,+1.38191655e-01f,-2.45872989e-01f,-8.35004002e-02f,
+7.28073493e-02f,-9.19445977e-02f,+4.36085947e-02f,+1.04543120e-02f,+1.80701949e-02f,
-3.61894906e-01f,+1.94753721e-01f,-4.49339822e-02f,+1.86116353e-03f,-1.59821939e-02f,
+1.67700276e-01f,-4.47571948e-02f,-4.72959951e-02f,+5.97600155e-02f,+7.56262690e-02f,
-7.27405325e-02f,-7.30468482e-02f,-1.07460722e-01f,+8.84661749e-02f,+5.69810309e-02f,
-6.41159832e-01f,-3.79761100e-01f,+2.23329201e-01f,+2.19473481e-01f,+7.19431579e-01f,
-1.55416466e-02f,-3.05226278e-02f,+2.73641013e-03f,+1.67826623e-01f,-4.16160896e-02f,
+3.54121596e-01f,-5.16504087e-02f,-8.11307654e-02f,+1.69281233e-02f,+1.93035230e-01f,
-9.17665362e-02f,-1.52034357e-01f,-2.81444509e-02f,-5.49769737e-02f,+6.90520108e-02f,
+1.47109494e-01f,+8.31515864e-02f,-9.71537158e-02f,-6.65739132e-03f,-3.56256664e-01f,
-8.75030681e-02f,-3.70621502e-01f,+3.07367295e-01f,-7.55656511e-02f,+1.30194947e-01f,
+7.63114020e-02f,+1.76169068e-01f,-9.78197232e-02f,+1.72806069e-01f,+2.73040801e-01f,
-8.42905194e-02f,+5.60330972e-02f,-4.98717353e-02f,-1.54921515e-02f,-1.41035751e-01f,
-2.07131431e-01f,+1.28573750e-03f,-9.37263966e-02f,-6.62910417e-02f,+2.66474366e-01f,
+1.82501785e-02f,-1.42921284e-01f,+8.69446844e-02f,+1.63538262e-01f,-2.46591046e-01f,
+1.46916181e-01f,+4.68052886e-02f,-1.32953584e-01f,-1.24187998e-01f,+1.01048969e-01f,
+7.22571760e-02f,-3.22280042e-02f,-1.50036141e-01f,-1.13206282e-02f,-1.17729455e-01f,
+1.35646737e-03f,-1.22342005e-01f,-3.02793216e-02f,+1.22243382e-01f,-5.16010076e-02f,
-5.14317393e-01f,-3.36608216e-02f,+8.93228799e-02f,+2.73667663e-01f,+1.90963164e-01f,
+2.12708950e-01f,+3.30699012e-02f,+7.66869560e-02f,+1.87322516e-02f,+5.59047610e-02f,
-8.22564811e-02f,-1.02280490e-01f,-1.26907513e-01f,+3.89004871e-02f,-7.15250522e-02f,
-1.53805465e-01f,+1.19193621e-01f,-5.27778035e-03f,+1.31960452e-01f,+1.00218438e-01f,
+4.73306654e-03f,-3.33973505e-02f,+3.02543044e-02f,-2.60561585e-01f,-2.75045373e-02f,
-4.78616476e-01f,-3.49886864e-02f,-3.09341364e-02f,+4.08650003e-02f,+1.34248123e-01f,
+6.68308791e-03f,+1.26631200e-01f,-1.52238309e-01f,+1.36819839e-01f,+1.50810098e-04f,
-3.64086814e-02f,-6.22566454e-02f,-2.51652040e-02f,-1.53343886e-01f,-2.00493544e-01f,
+1.50015363e-02f,+2.07220554e-01f,-1.38502158e-02f,+9.38477069e-02f,+7.89414048e-02f,
+4.80435975e-02f,-4.29735482e-02f,+1.90368429e-01f,+4.97279838e-02f,-3.99484858e-02f,
+7.04480633e-02f,-1.25410110e-01f,-2.86437292e-02f,-1.11217722e-02f,-6.52591735e-02f,
-2.24227011e-01f,+1.09346949e-01f,+2.04452112e-01f,-3.38171385e-02f,-5.16756848e-02f,
+6.71541020e-02f,-8.17009509e-02f,+2.92294979e-01f,+4.90283877e-01f,-3.51976216e-01f,
+2.12181434e-01f,-1.22789130e-01f,+5.37893095e-04f,+1.70795292e-01f,+7.79782608e-02f,
-5.39070666e-02f,-1.76984966e-01f,+1.69249475e-01f,-1.62582308e-01f,-1.63646566e-03f,
-3.06836441e-02f,-6.82037771e-02f,-1.25972033e-01f,+4.02893722e-02f,-1.56083433e-02f,
+1.40731886e-01f,+2.68623289e-02f,+1.01720035e-01f,+7.76789561e-02f,+4.71504107e-02f,
-8.72206911e-02f,+8.51418301e-02f,-2.17054114e-01f,-1.96548942e-02f,-2.76650727e-01f,
+9.06680748e-02f,+6.62253648e-02f,+1.35771930e-01f,+1.29998773e-01f,-7.38145560e-02f,
+1.62294835e-01f,+1.60502028e-02f,-4.70802784e-02f,+1.25353739e-01f,+3.49386781e-03f,
+9.78386626e-02f,+1.56604778e-02f,-1.21665642e-01f,+9.07781944e-02f,-4.82079238e-02f,
+1.47954732e-01f,-2.37015150e-02f,+3.18084471e-03f,-3.78253236e-02f,-1.18880356e-02f,
+6.45413324e-02f,-1.71265572e-01f,+1.10442176e-01f,-1.09620020e-01f,+1.15817226e-01f,
-2.25138351e-01f,-7.42639822e-04f,-6.30379468e-02f,-1.01322293e-01f,-3.06516588e-01f,
+9.53425989e-02f,+1.96241930e-01f,-4.71416600e-02f,-7.54493028e-02f,+1.39840767e-01f,
+8.00171047e-02f,+1.46087095e-01f,+3.34486514e-01f,+8.68612900e-02f,-3.48113067e-02f,
+1.55467540e-01f,+2.02519909e-01f,+5.92685901e-02f,-4.48462106e-02f,-1.60068810e-01f,
-3.70978653e-01f,+7.32351979e-03f,+4.09010425e-02f,+7.86379799e-02f,-1.15563184e-01f,
-1.92273334e-02f,-1.21608824e-01f,+9.75814834e-02f,+6.36715963e-02f,-5.29637076e-02f,
-2.86509115e-02f,+1.35432184e-01f,+5.39107993e-02f,+7.14348331e-02f,-1.88724414e-01f,
+3.25453654e-02f,-3.08180898e-01f,+1.68899938e-01f,+1.60977114e-02f,+8.35724734e-03f,
+2.40840375e-01f,-2.43929103e-02f,+1.22609891e-01f,+2.88189817e-02f,+1.37704715e-01f,
+1.79701686e-01f,-1.42502666e-01f,+1.38230667e-01f,-2.33404174e-01f,+2.68300921e-01f,
-2.23706532e-02f,+2.35553216e-02f,+9.03804973e-02f,-1.35890260e-01f,+1.01996921e-01f,
+8.58300179e-03f,+3.14378031e-02f,-1.25062108e-01f,-1.06963113e-01f,-1.78856030e-01f,
-3.64210844e-01f,+3.27273458e-01f,-1.07285567e-01f,+1.52776733e-01f,-2.14879796e-01f,
+1.36387795e-02f,+1.07176378e-01f,+2.17896271e-02f,-7.71049932e-02f,-8.05019140e-02f,
+1.87361389e-01f,-9.18804333e-02f,-4.03272919e-02f,+3.20367254e-02f,+8.25920776e-02f,
-1.73706517e-01f,+2.82954633e-01f,-9.36547015e-03f,-3.41315120e-01f,+1.15716830e-01f,
+6.26844585e-01f,+2.78860092e-01f,+1.30583987e-01f,-5.43078557e-02f,-2.85523474e-01f,
-1.86000764e-03f,+7.82525316e-02f,+1.25077024e-01f,-1.75804913e-01f,+4.19974402e-02f,
+7.84303155e-03f,+1.41588584e-01f,+4.55673672e-02f,-6.18113093e-02f,-5.70770875e-02f,
+6.48539141e-02f,+1.35049387e-03f,+1.21934466e-01f,-1.68622091e-01f,+1.59184948e-01f,
-2.14674771e-01f,-9.77924466e-02f,+2.84286082e-01f,-9.72607881e-02f,+1.42515793e-01f,
+6.91106543e-02f,+1.36600018e-01f,-3.98759022e-02f,-1.07042141e-01f,-9.22359973e-02f,
-6.73107728e-02f,-1.72519439e-03f,-2.10807815e-01f,+1.95836648e-01f,-6.51825666e-02f,
+9.93840396e-02f,+1.22556230e-02f,-3.78338955e-02f,-1.53073013e-01f,+1.23712145e-01f,
-1.44640328e-02f,-3.30034308e-02f,-5.57795763e-02f,-1.68034032e-01f,-2.68061906e-01f,
+1.57132640e-01f,+6.72450811e-02f,+6.08749688e-02f,+1.41312271e-01f,+2.97431290e-01f,
+1.62294418e-01f,+1.40478164e-02f,+3.29988338e-02f,-1.32083828e-02f,-1.11298494e-01f,
-9.01260674e-02f,-2.45430708e-01f,+6.16273843e-02f,+3.34197730e-02f,-2.47158498e-01f,
+2.97222108e-01f,+1.99150532e-01f,+1.72254652e-01f,+5.48758283e-02f,+3.26341510e-01f,
+2.79091269e-01f,+1.76808238e-01f,+6.74649328e-02f,-9.82030854e-02f,+7.91681930e-03f,
+4.47098315e-02f,+9.40710008e-02f,+8.55401382e-02f,+1.03011206e-01f,-1.21414140e-01f,
+5.69631159e-02f,+2.55153533e-02f,+8.20325613e-02f,-7.05824420e-02f,+9.50970408e-03f,
-3.65945846e-02f,-6.94918782e-02f,-1.48131505e-01f,-1.33229224e-02f,-1.02953903e-01f,
+7.67726004e-02f,+7.15764835e-02f,+8.89670756e-03f,-9.10957083e-02f,-1.81360424e-01f,
-2.92975605e-02f,+1.45445973e-01f,-3.67475785e-02f,+6.59913197e-02f,-1.83610037e-01f,
+2.35743746e-01f,-1.28421262e-01f,+1.07891917e-01f,+2.23987758e-01f,+2.88158040e-02f,
+6.23776466e-02f,-2.03326568e-02f,-8.67364332e-02f,+1.28489971e-01f,-8.33413303e-02f,
-8.01913366e-02f,-1.93066791e-01f,+6.22335775e-03f,+6.88862801e-02f,-1.60493448e-01f,
-2.24534497e-01f,-6.62163496e-02f,+1.35322824e-01f,+1.58493847e-01f,+4.61100303e-02f,
+1.75982103e-01f,+2.24593356e-02f,-9.60589051e-02f,-8.45836848e-02f,-7.84088746e-02f,
-1.37205482e-01f,+4.13165130e-02f,+9.87289175e-02f,-1.28337339e-01f,+3.66177559e-01f,
-5.12696989e-02f,+2.00670250e-02f,+1.65133223e-01f,+1.24450602e-01f,+1.22432970e-01f,
+1.75593331e-01f,-6.46651983e-02f,+8.24023783e-02f,-1.40461698e-01f,-1.40168607e-01f,
+7.92275369e-02f,+1.16429366e-01f,+1.94163859e-01f,+6.45511225e-02f,+6.66110441e-02f,
+6.90630525e-02f,+1.51008153e-02f,-2.26885468e-01f,-4.25273366e-03f,-1.25099093e-01f,
-2.01259196e-01f,-2.97225624e-01f,+1.27261914e-02f,-2.98456848e-01f,-3.34335752e-02f,
-9.74006131e-02f,+2.55417615e-01f,-3.23417455e-01f,-4.41131562e-01f,-2.89949775e-01f,
+2.65420318e-01f,-1.09169176e-02f,+8.49627852e-02f,+5.22962548e-02f,+7.25303544e-03f,
-2.52414346e-02f,+7.00231642e-02f,+2.08783939e-01f,-1.13729857e-01f,+5.38708642e-02f,
+1.09867610e-01f,+3.78835201e-02f,-1.66143298e-01f,+1.62710086e-01f,-6.70604408e-02f,
-2.60787643e-02f,+5.60944527e-02f,-1.27058014e-01f,-1.22156106e-02f,+2.07494989e-01f,
+3.60896923e-02f,-2.84353960e-02f,-2.34000273e-02f,+1.68850034e-01f,-4.56309505e-02f,
+4.93630283e-02f,+2.15668827e-01f,+2.59498358e-01f,-6.68861857e-03f,-9.76632163e-02f,
-2.33940080e-01f,+2.52545141e-02f,+2.07664013e-01f,-5.07717609e-01f,-3.22775245e-01f,
+2.81164646e-01f,+9.28299278e-02f,+4.57894564e-01f,-6.32775202e-02f,+3.80873829e-02f,
+3.33548076e-02f,+2.83638567e-01f,+1.38476491e-01f,+2.39344597e-01f,-2.28268038e-02f,
-1.61006935e-02f,+4.38271500e-02f,+1.83190912e-01f,-1.83150947e-01f,+1.18595503e-01f,
+5.82054406e-02f,+6.01943545e-02f,-4.74961139e-02f,+1.62173688e-01f,+1.06622256e-01f,
+1.78799741e-02f,-5.95825240e-02f,-1.19694456e-01f,+1.99535981e-01f,+1.63685352e-01f,
+2.28191316e-01f,+8.21791664e-02f,-7.77644515e-02f,+7.76859969e-02f,+1.52125284e-01f,
-4.08675373e-02f,+1.31894037e-01f,+7.46074319e-02f,+1.40671402e-01f,-1.25163019e-01f,
+1.59778446e-01f,+1.35224704e-02f,-1.58793420e-01f,-4.53015529e-02f,-2.62372149e-03f,
-1.60978019e-01f,-9.39744115e-02f,+1.39919236e-01f,-6.60221502e-02f,-4.09912877e-02f,
+1.32532448e-01f,+1.35750875e-01f,-7.36200660e-02f,+2.00473934e-01f,+1.92476869e-01f,
-2.74071038e-01f,-6.89055994e-02f,+8.12871978e-02f,-6.21765852e-02f,+5.68204075e-02f,
-8.97237062e-02f,-2.19839931e-01f,+1.09615326e-01f,+3.25627066e-02f,-1.75959080e-01f,
-6.65998906e-02f,+2.48257816e-01f,+3.67701985e-03f,-3.47094864e-01f,-4.71299812e-02f,
+3.35986093e-02f,+1.73631713e-01f,+7.51544759e-02f,+2.12533176e-01f,-3.93494815e-02f,
+1.31958902e-01f,+2.05235243e-01f,+2.48439357e-01f,-8.48157257e-02f,+4.71766256e-02f,
-5.64169511e-02f,+1.19933270e-01f,-1.47054764e-02f,+2.12312695e-02f,-3.13499160e-02f,
+3.99923418e-03f,-8.07243139e-02f,+1.49625808e-01f,-1.93873364e-02f,-6.58258423e-02f,
-2.37054564e-02f,+4.49309908e-02f,+1.15630150e-01f,-5.24681449e-01f,-8.40243548e-02f,
+4.92730364e-02f,-2.07739279e-01f,+7.67039955e-02f,+1.32495701e-01f,+7.80754611e-02f,
+1.42750353e-01f,+8.25600773e-02f,-6.94164038e-02f,+1.90182310e-02f,+1.33747712e-01f,
-7.46370032e-02f,-5.58543317e-02f,+3.20674367e-02f,-7.47537762e-02f,-8.50989111e-03f,
-7.52936974e-02f,+7.19405860e-02f,+1.75077822e-02f,+8.37830547e-03f,-3.28247659e-02f,
-8.64278749e-02f,+4.81047705e-02f,+2.44932082e-02f,+1.50924101e-01f,+2.65647899e-02f,
+9.18622222e-03f,+6.85883388e-02f,-1.01274088e-01f,-3.49271186e-02f,+7.34659061e-02f,
+3.37675028e-02f,-3.55707817e-02f,-9.24032852e-02f,+4.50099185e-02f,+4.94332686e-02f,
+3.82901698e-01f,+3.09867144e-01f,-1.15950741e-01f,+1.72503337e-01f,+8.23862255e-02f,
+9.72526297e-02f,+7.47554302e-02f,+5.40261380e-02f,-1.48251221e-01f,-1.40463863e-03f,
+2.28821356e-02f,+1.00641593e-01f,+9.19949263e-02f,+7.53961578e-02f,-7.95497745e-02f,
-6.70068190e-02f,-7.01594651e-02f,+3.34515311e-02f,-8.44034803e-05f,+3.93551812e-02f,
-2.54435074e-02f,+4.53815274e-02f,+1.05477124e-01f,+8.24148506e-02f,+2.21133441e-01f,
-2.64918408e-03f,+1.76452771e-01f,-5.73613167e-01f,+5.48958704e-02f,+1.42880186e-01f,
+5.70816174e-02f,+3.53365727e-02f,+2.15196591e-02f,+1.21223532e-01f,+4.33059298e-02f,
-1.37396976e-01f,+2.18088225e-01f,-4.67680767e-02f,+1.01228118e-01f,+1.62157744e-01f,
-2.53434740e-02f,+7.31268525e-03f,-7.65127465e-02f,+1.39288604e-01f,-5.68173937e-02f,
+9.79501754e-03f,+1.12230882e-01f,+1.27173617e-01f,-1.89069025e-02f,-3.83746862e-01f,
-2.62084100e-02f,-1.31371163e-03f,+1.97788730e-01f,-8.81225467e-02f,+7.66096935e-02f,
+2.78869085e-02f,-1.27927527e-01f,-5.33453971e-02f,+1.01467073e-01f,+1.20430566e-01f,
-2.21042991e-01f,-8.05027038e-02f,+1.12594776e-01f,+3.04860082e-02f,+3.73488486e-01f,
+3.48885208e-01f,+1.22635648e-01f,-7.05640018e-02f,+2.89361062e-03f,+3.67094249e-01f,
+6.12524264e-02f,+6.97587430e-02f,-1.20840102e-01f,-8.66521522e-02f,-9.24744383e-02f,
+1.08725801e-02f,+2.47312039e-01f,+7.90813100e-03f,-2.58533582e-02f,-4.28568535e-02f,
-1.94496978e-02f,+2.24182263e-01f,-8.61570239e-02f,-3.86781315e-03f,-4.06118594e-02f,
+8.39239508e-02f,+3.91440056e-02f,-8.23384002e-02f,+7.66134486e-02f,-2.05690898e-02f,
+1.20435797e-01f,-8.74241218e-02f,-9.90556553e-02f,+4.88694534e-02f,-3.89042720e-02f,
+7.45466202e-02f,+9.42025855e-02f,+1.36028215e-01f,+1.80406183e-01f,+1.22820074e-02f,
+8.06669593e-02f,-1.18547827e-01f,+2.25345448e-01f,-8.12878311e-02f,+6.33654073e-02f,
+1.68748155e-01f,-3.01500242e-02f,+7.78115019e-02f,-1.38044745e-01f,+1.84708107e-02f,
-7.96761587e-02f,-2.22703815e-02f,-6.43659616e-03f,-4.89888906e-01f,+9.23821405e-02f,
-1.94470733e-02f,+1.33130342e-01f,-2.36251518e-01f,+2.47864187e-01f,-1.01520866e-02f,
-1.20524980e-01f,+7.79726952e-02f,+4.63707335e-02f,+8.80045071e-02f,-2.01176152e-01f,
+6.29270077e-03f,-5.98168874e-04f,+8.27167481e-02f,+1.72698908e-02f,+7.19158351e-02f,
+9.37585980e-02f,-1.86044604e-01f,+9.93510634e-02f,+3.50360960e-01f,+2.45319754e-01f,
+4.87641171e-02f,-1.49138406e-01f,+5.67754284e-02f,+3.18387232e-04f,+1.03120759e-01f,
+5.49865663e-02f,+1.37771502e-01f,+1.25547841e-01f,+1.17407344e-01f,+2.57199965e-02f,
+6.63271770e-02f,+3.01268902e-02f,-6.16687015e-02f,-1.38689592e-01f,+2.53729802e-02f,
+1.16517367e-02f,-5.37378676e-02f,-5.16516455e-02f,+4.14881445e-02f,+1.12233600e-02f,
+2.00524852e-01f,-1.40965566e-01f,+2.97767501e-02f,-1.12678528e-01f,+9.74308979e-03f,
-2.78193820e-02f,+3.21964249e-02f,-7.85179958e-02f,-2.04366878e-01f,+1.35406315e-01f,
-4.26155850e-02f,+2.13178024e-01f,+6.45318180e-02f,+9.50235352e-02f,-6.50470033e-02f,
-1.33679826e-02f,+2.70361975e-02f,-1.21360175e-01f,-4.73907255e-02f,-2.28647470e-01f,
-2.68199248e-03f,-1.64964512e-01f,-3.58972430e-01f,+1.53734803e-01f,-8.63327235e-02f,
-3.79299768e-03f,+6.56814724e-02f,+2.90620267e-01f,+2.01824650e-01f,-2.19700765e-02f,
+6.31151348e-02f,+2.41865758e-02f,+2.34082211e-02f,-5.56565970e-02f,-3.43372896e-02f,
+1.93206862e-01f,+1.39487743e-01f,-2.30542555e-01f,+8.80971402e-02f,+1.54577404e-01f,
+6.37383461e-02f,+2.20673695e-01f,+1.17119998e-01f,+1.55932426e-01f,+3.43450904e-01f,
-1.40789701e-02f,+6.45567551e-02f,+6.27258942e-02f,-8.70460197e-02f,-3.97911705e-02f,
+2.65875787e-01f,-1.35133024e-02f,-6.74327910e-02f,+1.21549569e-01f,+4.35651541e-02f,
-2.74913684e-02f,-2.15560734e-01f,+1.97240245e-02f,+1.52869463e-01f,-1.77986458e-01f,
-1.35603756e-01f,-2.14845799e-02f,+8.84241089e-02f,+7.89484680e-02f,+3.08116004e-02f,
+6.24386817e-02f,+1.66596342e-02f,-4.84037071e-01f,-6.81503862e-02f,-1.70468315e-02f,
-1.22547140e-02f,+9.75298658e-02f,-1.61677584e-01f,+3.43353033e-01f,-6.40878379e-02f,
-5.51876659e-03f,+3.72473031e-01f,+7.70810544e-02f,+7.40926489e-02f,-5.02070449e-02f,
-6.23866245e-02f,-1.53364837e-01f,-1.30240694e-01f,-1.51805818e-01f,-1.15872391e-01f,
-1.12556003e-01f,+2.50936225e-02f,-1.89470068e-01f,-4.06098634e-01f,-3.09988912e-02f,
+2.28693411e-01f,+2.53385156e-01f,+1.89234361e-01f,+1.86092570e-01f,+1.86695069e-01f,
+1.12424381e-01f,+5.90343773e-02f,-1.83970422e-01f,-6.05022311e-02f,+9.52431038e-02f,
+1.70969710e-01f,-9.90555063e-02f,+2.22545356e-01f,+2.90321466e-02f,+2.21423227e-02f,
+1.21873848e-01f,+6.74089342e-02f,+2.29845464e-01f,+2.28908196e-01f,+9.74383056e-02f,
+2.27320299e-01f,+4.40203305e-03f,-2.20547676e-01f,+5.22286966e-02f,+2.11198658e-01f,
+1.68878376e-01f,+1.96931139e-01f,-8.51046517e-02f,+2.52644867e-01f,-1.69067517e-01f,
-2.40839168e-01f,-9.52538028e-02f,+9.37653929e-02f,-2.68720269e-01f,-1.26923874e-01f,
-2.34984420e-02f,+8.66186172e-02f,-1.17402868e-02f,-1.39565468e-01f,+3.00801277e-01f,
-1.00353144e-01f,-7.70278633e-01f,-2.32935205e-01f,+5.24458230e-01f,+6.42723292e-02f,
+9.23771039e-02f,-2.33153198e-02f,+1.09081209e-01f,-5.20176172e-01f,+4.52372074e-01f,
+2.39243954e-01f,-1.68601915e-01f,+1.35280356e-01f,-5.77538684e-02f,+5.13499796e-01f,
-8.91455263e-02f,+1.14749074e-01f,+2.67765373e-01f,+5.80752362e-03f,+3.70196283e-01f,
+1.08893752e-01f,+1.50651624e-02f,+9.58747268e-02f,-3.70769799e-02f,-2.44290143e-01f,
+2.82375515e-01f,+2.24338934e-01f,+1.21443033e-01f,+1.77890912e-01f,+1.28873169e-01f,
+4.81524676e-01f,-1.78467363e-01f,-1.16155356e-01f,-2.74675220e-01f,+1.11526005e-01f,
+2.29922861e-01f,-2.28591323e-01f,-1.53115094e-01f,+4.04646173e-02f,+1.47565320e-01f,
+5.24820328e-01f,+2.52178311e-01f,+1.84039712e-01f,+3.07698309e-01f,+3.87546271e-01f,
+7.99297988e-02f,-9.97177139e-03f,-1.86756417e-01f,+2.14926153e-02f,-2.49842837e-01f,
+2.45903954e-01f,-1.33819401e-01f,+1.70823097e-01f,-5.88774495e-02f,-3.06920633e-02f,
-6.65829331e-02f,+7.11445734e-02f,+2.66914159e-01f,-7.24558719e-03f,-2.44990528e-01f,
-2.67363757e-01f,-2.51042210e-02f,+6.12404466e-01f,+1.57706738e-01f,+4.98156063e-02f,
+2.91046888e-01f,+1.43393174e-01f,+4.24640417e-01f,+1.68648347e-01f,+2.15400346e-02f,
+9.75896344e-02f,+2.69161850e-01f,-4.34620291e-01f,+2.52264380e-01f,+1.56315789e-01f,
-2.57747650e-01f,+7.83676058e-02f,-7.61119798e-02f,+1.88752748e-02f,-1.58521116e-01f,
+6.58103079e-02f,+1.80780008e-01f,+1.60935801e-02f,+2.05335557e-01f,+2.75379390e-01f,
-4.95754629e-02f,+1.97413594e-01f,+1.58695787e-01f,-3.32045615e-01f,+9.57574397e-02f,
-1.41482381e-02f,+1.33436471e-02f,+8.47011283e-02f,-6.27043173e-02f,+1.60771474e-01f,
-6.62065595e-02f,+8.60808243e-04f,-2.22691491e-01f,+1.12881362e-01f,+2.47079089e-01f,
+1.59625322e-01f,+6.88781366e-02f,+3.47893238e-01f,+1.01421170e-01f,+1.62347883e-01f,
+2.84246266e-01f,+1.05283082e-01f,+1.46848992e-01f,+2.73624420e-01f,+3.44858356e-02f,
+3.79744284e-02f,-7.81292841e-02f,+1.01326309e-01f,-2.08216563e-01f,+2.13106185e-01f,
-9.09348056e-02f,+1.30922329e-02f,-1.56782940e-02f,+7.19461441e-02f,-1.46613106e-01f,
+1.96356654e-01f,+1.30880013e-01f,+6.89077750e-02f,-2.76992898e-02f,-1.19171314e-01f,
-6.40940368e-02f,+1.94443747e-01f,+1.29284546e-01f,-1.00152590e-03f,-9.15742815e-02f,
+8.95181298e-02f,+3.46658856e-01f,+1.28194481e-01f,+1.73870370e-01f,+9.59961675e-03f,
+9.10846367e-02f,-2.42328331e-01f,+1.45955339e-01f,+4.45160568e-02f,-1.41105115e-01f,
+1.59496218e-01f,+7.42773060e-03f,+3.69684622e-02f,-1.27619758e-01f,+9.55353081e-02f,
+3.18555087e-01f,+1.75233096e-01f,+1.62382066e-01f,+5.60805798e-02f,-1.37855470e-01f,
-2.16393158e-01f,+1.46626085e-01f,+1.13445021e-01f,+1.41801178e-01f,-1.17536532e-02f,
-2.81131212e-02f,+6.68869987e-02f,-1.08105369e-01f,-1.57515451e-01f,-6.81999624e-02f,
-4.67752898e-03f,-1.44352093e-01f,-2.21951474e-02f,+2.72909582e-01f,+3.19350153e-01f,
-8.35992247e-02f,+3.26236188e-01f,+1.77412972e-01f,+2.45150596e-01f,-7.19613349e-03f,
-6.17508478e-02f,+1.32592514e-01f,+2.87031502e-01f,-6.35422468e-02f,+5.65092713e-02f,
-1.48403257e-01f,+5.82138896e-02f,-1.08303584e-01f,-1.54915452e-03f,-1.49085999e-01f,
+1.52563065e-01f,-9.73489508e-02f,-6.54966757e-03f,-2.22781003e-02f,+6.40291497e-02f,
+1.15211971e-01f,+6.70332834e-02f,+9.20545980e-02f,-1.89388409e-01f,-2.04423696e-01f,
-2.25866795e-01f,+1.99499130e-01f,-9.23428461e-02f,+8.18405971e-02f,+1.07363932e-01f,
+2.71368712e-01f,+1.46409705e-01f,-2.71657519e-02f,+8.02393854e-02f,+1.22573569e-01f,
-2.89923608e-01f,+1.57261893e-01f,+2.19309941e-01f,-1.50651917e-01f,+1.34990871e-01f,
+8.39480683e-02f,+1.83940381e-01f,-1.32441357e-01f,+9.26626250e-02f,+2.42458791e-01f,
+1.91535667e-01f,+2.95382112e-01f,-1.77103430e-01f,-3.30178380e-01f,+2.13082403e-01f,
+3.00342113e-01f,+2.91120913e-02f,+2.55892187e-01f,+1.20765017e-02f,+1.91169940e-02f,
+2.20582774e-03f,-1.06200643e-01f,-1.47328317e-01f,-3.41926515e-01f,-1.64911121e-01f,
+1.37120783e-02f,+1.27153233e-01f,+2.23227128e-01f,+2.97078967e-01f,+1.35102436e-01f,
+1.56194165e-01f,+2.40291193e-01f,+6.76901639e-01f,-3.09611052e-01f,-1.83860213e-01f,
+2.15766221e-01f,+1.40792176e-01f,-2.37146720e-01f,-8.90713781e-02f,-4.99553904e-02f,
+1.11721255e-01f,-1.39228672e-01f,-3.30844596e-02f,-7.24704638e-02f,+1.15608178e-01f,
-1.01665799e-02f,+1.16448492e-01f,-9.80750024e-02f,+3.16719562e-02f,+7.67309144e-02f,
+5.66507988e-02f,+8.72472152e-02f,-2.43882686e-01f,-1.37977958e-01f,-1.33338928e-01f,
+1.62108287e-01f,-1.38958097e-01f,-1.99627385e-01f,+5.86022884e-02f,+2.22564027e-01f,
+1.58027858e-01f,+3.66733640e-01f,+5.46347462e-02f,+2.20443472e-01f,-2.19540447e-01f,
+4.99754660e-02f,+1.93818733e-01f,-4.74611185e-02f,+1.82845682e-01f,+1.06223166e-01f,
+3.71729076e-01f,-1.07161187e-01f,-2.81923134e-02f,+2.09035650e-02f,+1.17297076e-01f,
+1.86476797e-01f,-9.20782611e-02f,-2.96902031e-01f,+1.21904895e-01f,+1.65319428e-01f,
-2.93871406e-02f,+2.73452818e-01f,+1.81735992e-01f,+1.25764221e-01f,+1.07624561e-01f,
-6.31799251e-02f,+1.09270789e-01f,-2.46811807e-01f,-8.29285309e-02f,-7.23166317e-02f,
+1.55454293e-01f,+4.99853492e-02f,-1.04606539e-01f,+7.35052824e-02f,+2.32432723e-01f,
+1.71139479e-01f,+5.02817571e-01f,+1.06615879e-01f,-4.26236838e-02f,+2.33010560e-01f,
+2.54363596e-01f,+2.98343226e-02f,-2.08438173e-01f,-2.39882246e-01f,+1.78784341e-01f,
+1.09374128e-01f,+9.91166905e-02f,-1.59438439e-02f,+1.17364198e-01f,+1.73994917e-02f,
-9.57140326e-03f,-1.53734207e-01f,+1.12108760e-01f,-8.84695724e-03f,+1.26051471e-01f,
-6.99312091e-02f,-9.29440707e-02f,-3.40341553e-02f,+5.19638509e-02f,+9.98361260e-02f,
-2.61493713e-01f,-3.31474543e-01f,+1.11992523e-01f,+1.46165773e-01f,-7.98763409e-02f,
-3.42953466e-02f,-4.53201950e-01f,+6.30721003e-02f,+4.43243943e-02f,+4.68168199e-01f,
+4.60426778e-01f,-8.27107430e-02f,+5.25775254e-02f,+4.17019948e-02f,+1.78031310e-01f,
-4.73312289e-02f,+3.82645130e-02f,-2.10119054e-01f,+5.19828163e-02f,-7.93352425e-02f,
-8.10255557e-02f,-2.41213202e-01f,-1.66135043e-01f,-7.84713700e-02f,+1.14443369e-01f,
+3.82008463e-01f,+7.19438866e-02f,+1.16221763e-01f,+2.12517306e-01f,-3.12284995e-02f,
-3.45186628e-02f,-2.38714308e-01f,-4.76288833e-02f,+4.96555418e-02f,+6.56130314e-02f,
-7.06878453e-02f,+1.25745758e-01f,+8.84590521e-02f,+1.64728224e-01f,+3.00484389e-01f,
+2.96541691e-01f,+4.38909382e-02f,+1.43051684e-01f,+4.20885861e-01f,+2.25779727e-01f,
-1.03634693e-01f,-1.76404074e-01f,-2.52512276e-01f,+2.18244046e-01f,-2.17808294e-03f,
+1.73975844e-02f,+5.37476279e-02f,+2.09464058e-01f,+3.45519520e-02f,-1.18702047e-01f,
-6.74732849e-02f,+8.67421255e-02f,-1.37225613e-01f,+2.03567799e-02f,-3.13400626e-01f,
-8.08666348e-02f,-2.45542359e-03f,+2.35566795e-02f,+3.40036660e-01f,-8.25434327e-02f,
-5.94785988e-01f,-5.02721444e-02f,+2.80849546e-01f,-1.10996263e-02f,+1.54452980e-01f,
-4.07371551e-01f,+2.23918021e-01f,-1.21619806e-01f,+1.24579437e-01f,+6.24940693e-01f,
-9.99198854e-02f,+2.15544313e-01f,+5.02967648e-02f,+8.60399287e-03f,-5.04465960e-02f,
-8.20754655e-03f,-1.92938626e-01f,-4.02435241e-03f,-9.20216367e-02f,+7.67500624e-02f,
-2.94715703e-01f,-4.79036391e-01f,+5.26786745e-02f,+1.55826407e-02f,+2.68120825e-01f,
+1.84307367e-01f,+2.01531112e-01f,+2.55975127e-01f,-5.02745435e-03f,-6.66761696e-02f,
-2.34170109e-01f,+1.20066077e-01f,+7.69918505e-03f,+2.87641913e-01f,-3.00849438e-01f,
+1.13371119e-01f,-8.49041790e-02f,+4.66118827e-02f,+1.47191584e-01f,+2.87702322e-01f,
+1.55671388e-01f,+9.14272070e-02f,+4.43476737e-01f,+4.40960765e-01f,-2.31844168e-02f,
-3.83786589e-01f,-1.37413159e-01f,+2.27138430e-01f,-7.63918161e-02f,+3.03359479e-01f,
-1.27163216e-01f,+2.55242854e-01f,-1.57193169e-01f,-1.58245072e-01f,-5.84631078e-02f,
-1.03009574e-01f,-1.46462932e-01f,-1.01897478e-01f,-5.85446656e-01f,+6.77452609e-02f,
+6.28287420e-02f,-4.56003137e-02f,+4.72551346e-01f,-6.65509030e-02f,-4.49297041e-01f,
-5.25406972e-02f,}; 
k2c_tensor CONV_7_kernel = {&CONV_7_kernel_array[0],4,3136,{7,7,8,8,1}}; 
float CONV_7_bias_array[8] = {0}; 
k2c_tensor CONV_7_bias = {&CONV_7_bias_array[0],1,8,{8,1,1,1,1}}; 

 
size_t CONV_8_stride[2] = {1,1}; 
size_t CONV_8_dilation[2] = {1,1}; 
float CONV_8_output_array[4704] = {0}; 
k2c_tensor CONV_8_output = {&CONV_8_output_array[0],3,4704,{14,14,24, 1, 1}}; 
float CONV_8_kernel_array[1728] = {
-8.05935543e-03f,-4.16890740e-01f,-4.36987681e-03f,-7.67918602e-02f,+1.83651984e-01f,
-4.83875722e-02f,+1.95302531e-01f,+1.28806591e-01f,-1.64577793e-02f,-2.36867175e-01f,
-1.68725610e-01f,+2.56574184e-01f,+1.07316054e-01f,+9.39055309e-02f,-5.61317727e-02f,
+1.37000307e-01f,-1.81653038e-01f,+6.17655292e-02f,-1.03049114e-01f,-5.88467810e-03f,
-9.14856270e-02f,-2.76010633e-01f,+2.76626721e-02f,+1.46442294e-01f,+2.30287224e-01f,
-2.39932448e-01f,-2.50446171e-01f,+2.92128056e-01f,+2.36421023e-02f,+2.35440120e-01f,
-1.29752990e-03f,-1.69774532e-01f,-2.37364188e-01f,+3.02688390e-01f,-4.92207915e-01f,
-2.71028399e-01f,-4.82052058e-01f,-4.63186711e-01f,-5.60987949e-01f,+1.17564008e-01f,
+9.48059782e-02f,-7.59051219e-02f,+3.03458720e-01f,+2.28273213e-01f,-1.68606862e-01f,
+2.58385509e-01f,-2.98426032e-01f,+5.99740028e-01f,-1.83314323e-01f,-1.47394508e-01f,
-2.81930808e-03f,-2.44586289e-01f,+2.52499461e-01f,+4.28023756e-01f,-3.35295230e-01f,
-1.45845741e-01f,+2.20915470e-02f,-4.53485548e-02f,-2.60342121e-01f,+6.38426095e-02f,
+1.75563633e-01f,-1.77851468e-01f,-2.59995926e-02f,+3.62669975e-01f,+4.43848819e-01f,
+7.43238926e-02f,+1.46126032e-01f,+1.63032174e-01f,-1.12172402e-01f,+1.59698069e-01f,
-3.37964892e-02f,-1.69654012e-01f,+1.80952504e-01f,+8.13326240e-03f,+2.46958151e-01f,
-1.83343381e-01f,+1.88765720e-01f,-1.30013041e-02f,+1.22178592e-01f,+2.15636998e-01f,
-4.78712976e-01f,+7.28102684e-01f,-1.89614609e-01f,-1.75930277e-01f,-1.01238571e-01f,
-7.62144178e-02f,+2.00497404e-01f,-3.73679876e-01f,+3.28184903e-01f,-4.33788896e-01f,
-1.56815201e-02f,+4.46263641e-01f,-6.25288606e-01f,+4.54514101e-02f,-1.93396509e-01f,
-1.72338530e-01f,-1.10973017e-02f,+1.46179259e-01f,+5.63943349e-02f,-2.86978126e-01f,
+1.96623936e-01f,-2.18828261e-01f,+1.92519456e-01f,-2.15755835e-01f,+4.25393693e-02f,
+2.32298467e-02f,+8.61025080e-02f,+1.21443130e-01f,-1.54107753e-02f,-2.35843542e-03f,
+1.87519595e-01f,-1.16088435e-01f,-9.43006575e-02f,+3.01657140e-01f,+1.88049152e-01f,
-1.78285822e-01f,+2.23378286e-01f,-1.70225184e-03f,+1.69536650e-01f,+1.93008959e-01f,
-1.41142815e-01f,-1.19475313e-02f,-7.64641911e-03f,-8.94452631e-03f,+5.93649261e-02f,
+1.23990797e-01f,+1.73618928e-01f,+1.26393929e-01f,+1.48654923e-01f,+2.60945439e-01f,
+1.00822970e-01f,-5.86774722e-02f,+9.68746468e-02f,+1.44931516e-02f,-2.77021080e-01f,
-4.69639838e-01f,-8.97546038e-02f,+6.87127113e-02f,+7.88842216e-02f,-4.18960825e-02f,
+1.66695938e-01f,+1.12860017e-02f,+1.42519608e-01f,+2.36327812e-01f,+5.31929638e-03f,
+1.53791502e-01f,-9.73522365e-02f,+2.95244586e-02f,+1.49432525e-01f,+9.19908658e-02f,
-3.80479962e-01f,-8.36770907e-02f,-1.62383132e-02f,-2.45060042e-01f,+6.06550537e-02f,
+1.29237339e-01f,+8.17747489e-02f,+9.81574953e-02f,-1.29316002e-01f,-2.86275316e-02f,
+8.12959671e-02f,+1.14470012e-01f,+1.83435634e-01f,-1.48376003e-01f,-2.10487028e-03f,
-3.00453268e-02f,-3.95082861e-01f,-8.69994015e-02f,-2.09853441e-01f,-2.97121376e-01f,
+3.25268388e-01f,+2.74808973e-01f,-1.21656395e-02f,+2.98374772e-01f,+1.52497172e-01f,
+7.83030540e-02f,+4.17984240e-02f,-2.35020548e-01f,-1.47376031e-01f,+4.01849020e-03f,
-3.01934779e-01f,+2.33858917e-02f,-1.31147698e-01f,+3.51770371e-02f,+1.45549297e-01f,
-6.59821630e-02f,+2.15936542e-01f,-1.92648038e-01f,+2.91753680e-01f,+1.84042707e-01f,
+1.37823507e-01f,+1.20889656e-01f,-1.01122558e-01f,-2.31872499e-01f,-9.74564105e-02f,
+6.72722906e-02f,+2.18835652e-01f,+3.44660059e-02f,+5.94433956e-02f,+4.14403267e-02f,
+2.13657860e-02f,-1.97123680e-02f,+5.54069178e-03f,+2.01442897e-01f,+1.41698807e-01f,
+1.87976167e-01f,-1.35456827e-02f,+7.46423453e-02f,-1.00585692e-01f,+6.24708794e-02f,
+1.57552898e-01f,-8.02363642e-03f,+2.77755950e-02f,-2.84191519e-02f,+9.47192088e-02f,
-6.07948042e-02f,+4.07801956e-01f,-1.33394241e-01f,+1.03448875e-01f,-6.51098713e-02f,
+4.42480296e-02f,+1.04350317e-02f,+1.19123600e-01f,-8.45601223e-03f,+1.33916289e-01f,
+1.87547743e-01f,-1.45209268e-01f,+4.53834720e-02f,-6.69896379e-02f,-1.83904365e-01f,
-4.87745196e-01f,-4.25491259e-02f,+6.63726032e-02f,-2.69779623e-01f,-1.27527088e-01f,
+2.66464669e-02f,-5.23122132e-01f,+4.95277308e-02f,+1.32797271e-01f,+1.44843590e-02f,
-1.24779962e-01f,-9.69309360e-03f,+7.99144283e-02f,-1.58219814e-01f,-5.18439747e-02f,
+1.42512888e-01f,+1.61154177e-02f,+5.49651347e-02f,-1.79618541e-02f,-1.86838701e-01f,
+4.72856909e-02f,+1.61600307e-01f,-5.12540266e-02f,+6.85593039e-02f,+1.53297052e-01f,
+1.16331488e-01f,-4.74920869e-02f,+8.76453817e-02f,-1.56028837e-01f,+2.23373789e-02f,
+6.37648627e-02f,+1.11976024e-02f,-1.18546873e-01f,-1.53433323e-01f,+6.76298738e-02f,
-2.57545054e-01f,+1.32890970e-01f,+4.32832446e-03f,-2.02877484e-02f,-1.50105968e-01f,
-1.78526729e-01f,+7.74856508e-02f,-4.18928087e-01f,+2.70958304e-01f,+2.16444716e-01f,
-2.14632917e-02f,+1.10825799e-01f,+1.03616200e-01f,+1.49240226e-01f,-2.77201027e-01f,
-8.60406384e-02f,-1.41093045e-01f,-4.52776998e-02f,-3.97345088e-02f,-6.39693916e-01f,
-1.08174905e-01f,-7.54989207e-01f,-1.10840864e-01f,-3.73341106e-02f,+1.05593026e-01f,
-1.44308731e-01f,-1.60928443e-01f,-1.65989235e-01f,+9.36518237e-02f,+2.58224364e-02f,
-4.40915376e-02f,-6.49559498e-02f,-2.36628383e-01f,-1.39724314e-01f,-6.64853752e-02f,
-4.56790887e-02f,+2.53116786e-02f,-1.40877694e-01f,-1.70380175e-01f,-3.47285233e-02f,
+1.63565025e-01f,-1.15308821e-01f,-3.05442000e-03f,-1.64366122e-02f,-1.31908059e-01f,
+1.98617175e-01f,-3.60522084e-02f,+1.74777552e-01f,+1.14324465e-02f,-1.89779654e-01f,
-2.55402416e-01f,+3.74732092e-02f,+8.38127956e-02f,+1.75864190e-01f,+8.92234500e-03f,
+1.71452001e-01f,+2.77573198e-01f,+3.53331752e-02f,-8.85130372e-03f,+4.57053371e-02f,
+9.92032066e-02f,-4.00117725e-01f,-1.91988751e-01f,+9.86289680e-02f,-2.08457150e-02f,
+1.34019837e-01f,-4.57705557e-02f,-1.21787317e-01f,+1.15079902e-01f,+1.62609711e-01f,
+3.57967280e-02f,+5.70455492e-02f,+4.06948030e-02f,-8.55910871e-03f,+2.82400936e-01f,
+1.44443810e-01f,+1.53705671e-01f,-2.91784585e-01f,+2.00439692e-01f,-2.60882694e-02f,
-3.55664462e-01f,+4.30704467e-02f,+3.33306789e-02f,+9.40422639e-02f,+4.35643420e-02f,
-2.16366835e-02f,-2.06114519e-02f,+1.86709389e-01f,+1.07460059e-01f,-2.12002903e-01f,
-1.83429107e-01f,+2.08679616e-01f,-2.33341902e-01f,-1.61644980e-01f,-2.53862113e-01f,
-1.42797127e-01f,+7.56418407e-02f,+7.69178346e-02f,+3.45327318e-01f,+1.24676302e-01f,
+2.57651776e-01f,+1.29264385e-01f,+7.65773281e-02f,-5.24064153e-02f,-4.94503677e-01f,
-1.54912904e-01f,+1.35401949e-01f,-1.14645317e-01f,+2.31053486e-01f,+3.55003886e-02f,
+9.96149033e-02f,+3.79665568e-02f,+4.58820350e-02f,-5.09817041e-02f,+2.12743655e-01f,
+3.63620490e-01f,+2.12004021e-01f,+2.28279695e-01f,+1.26857445e-01f,+7.22893551e-02f,
-3.19422364e-01f,+4.06185947e-02f,+2.49083713e-02f,-1.67518035e-01f,-4.69924212e-02f,
+1.17741026e-01f,+1.53669670e-01f,-6.57648742e-02f,-4.58336947e-03f,+1.24177644e-02f,
+4.67671566e-02f,+3.05428058e-01f,-2.90075969e-02f,+1.08457217e-02f,-8.02363306e-02f,
-6.97660595e-02f,-4.98003922e-02f,+9.13743600e-02f,-1.04957968e-01f,+1.20819427e-01f,
+1.01957835e-01f,-4.00561057e-02f,-1.06312782e-01f,+4.26791638e-01f,-3.60465765e-01f,
+1.12941116e-02f,-2.54374892e-01f,-3.03647369e-01f,+4.51738447e-01f,+8.85800794e-02f,
+3.29513282e-01f,-1.42997816e-01f,-8.02686587e-02f,-1.05473384e-01f,-1.77775577e-01f,
+9.83571336e-02f,+9.73715633e-02f,-4.09470350e-01f,+1.17404431e-01f,+3.14154655e-01f,
+1.38265686e-02f,-1.83426753e-01f,+2.18306080e-01f,-5.97426593e-01f,-7.94944987e-02f,
-2.13861927e-01f,-5.12987841e-03f,+1.28169015e-01f,-2.00640664e-01f,-1.05603538e-01f,
-8.88644382e-02f,-3.22342245e-03f,+1.15483500e-01f,+8.09178408e-03f,-1.22230709e-01f,
-1.07176088e-01f,+7.04950988e-02f,+5.34601137e-02f,-1.25393644e-01f,+3.55238356e-02f,
-1.47653148e-01f,+5.61608486e-02f,+3.16270068e-02f,-4.61646318e-01f,+1.02958336e-01f,
-2.68313229e-01f,+6.03686087e-02f,+5.23953848e-02f,-6.89804405e-02f,-8.99299234e-02f,
+1.30029455e-01f,+4.31455076e-01f,+5.94266430e-02f,-2.33117074e-01f,-1.47306964e-01f,
-2.45505661e-01f,+2.55633086e-01f,+2.46606559e-01f,+3.03168625e-01f,-4.80759963e-02f,
+2.26216465e-02f,-7.58340135e-02f,-1.35860890e-01f,+2.15826273e-01f,+1.01640522e-01f,
-6.80455089e-01f,-1.49789453e-01f,+2.33499017e-02f,+7.30849728e-02f,-1.93073452e-01f,
-5.38638711e-01f,-1.26477277e+00f,-5.78033924e-01f,-1.22770703e+00f,-1.32538959e-01f,
-2.67086506e-01f,-2.07931409e-03f,+1.64702460e-01f,+1.62830040e-01f,+3.12495343e-02f,
+2.68619388e-01f,+2.68426448e-01f,+1.14972778e-01f,-1.82711661e-01f,-7.53127187e-02f,
+3.66054736e-02f,+3.41916978e-02f,-3.51603180e-02f,+8.10014978e-02f,-1.80418521e-01f,
-3.54606621e-02f,-1.22833773e-01f,+2.52271861e-01f,-1.87564373e-01f,+1.98106453e-01f,
+3.87842301e-03f,-1.69488907e-01f,+3.70115966e-01f,-1.23594247e-01f,+2.85243872e-03f,
+1.83594316e-01f,+1.28946766e-01f,+4.60574180e-02f,+8.04044753e-02f,+1.42718539e-01f,
-9.22275931e-02f,+3.10809854e-02f,+1.49027973e-01f,+4.60822672e-01f,+8.32454339e-02f,
+3.99452865e-01f,+8.22264627e-02f,+1.67430222e-01f,-4.60065633e-01f,-4.55666542e-01f,
-1.78435370e-02f,+8.06560442e-02f,+1.06956959e-01f,-1.00705750e-01f,-2.47878045e-01f,
+1.60372201e-02f,+1.89863726e-01f,-9.33859423e-02f,+3.53828102e-01f,+2.15101749e-01f,
-1.03978567e-01f,-1.22552872e-01f,+3.44854832e-01f,+3.58188480e-01f,-7.91796029e-01f,
+7.09389821e-02f,-3.10899496e-01f,-3.07458118e-02f,+1.13412850e-01f,-9.86240879e-02f,
+1.13382451e-01f,-9.68303084e-02f,-1.13209784e-01f,+5.97574413e-02f,-2.36294016e-01f,
+2.79934872e-02f,+2.40161195e-01f,-5.04421711e-01f,+1.05196148e-01f,-5.95173128e-02f,
-3.24413627e-01f,-3.47759187e-01f,-2.75951862e-01f,+3.36686015e-01f,+2.77801931e-01f,
+1.42588273e-01f,+1.08334564e-01f,+4.62716967e-01f,+9.90099013e-02f,-2.12656558e-01f,
+2.43418783e-01f,-3.56642485e-01f,-1.59398526e-01f,+4.65687439e-02f,-2.43632153e-01f,
+9.69398096e-02f,-5.76597095e-01f,+1.14095941e-01f,+1.05774254e-02f,-9.70616937e-02f,
-1.25315204e-01f,-7.30419159e-02f,+5.78245521e-01f,+9.03418586e-02f,+1.88724831e-01f,
+2.71190461e-02f,-2.00493753e-01f,-1.14897750e-01f,+6.92853406e-02f,+4.07691710e-02f,
+1.68790162e-01f,+1.14398725e-01f,+1.53512880e-01f,+9.17039588e-02f,+1.20778613e-01f,
-1.96956187e-01f,+4.74124998e-02f,+1.92264676e-01f,+8.96227546e-03f,+4.25582193e-02f,
+3.58245894e-02f,+2.22166434e-01f,-5.23660481e-02f,-4.45851833e-02f,-1.44120499e-01f,
+2.76149940e-02f,-1.89836025e-01f,-2.33089492e-01f,+1.10013947e-01f,+1.42183065e-01f,
+2.60433793e-01f,-1.18622873e-02f,-8.33011866e-02f,+1.93048671e-01f,+1.41007394e-01f,
-2.11103857e-02f,+1.84383243e-01f,-2.10987657e-01f,-1.26427919e-01f,-1.32086366e-01f,
-1.11725956e-01f,+7.67323822e-02f,-4.26027894e-01f,-4.12416369e-01f,-3.53975862e-01f,
+1.24445647e-01f,+8.99363533e-02f,+2.31152505e-01f,+1.49708912e-01f,-7.64019638e-02f,
-5.92456944e-02f,+4.22821082e-02f,-1.54439300e-01f,+3.14766973e-01f,-3.62560749e-01f,
+1.11059301e-01f,-1.68277845e-01f,-5.14063612e-02f,+4.30993177e-02f,+5.91484196e-02f,
-1.91806033e-02f,-4.40864451e-02f,-1.32241264e-01f,-1.92923844e-01f,-3.04875523e-01f,
-6.94214106e-02f,+9.40943435e-02f,-3.21195155e-01f,+6.06591702e-02f,+1.55978426e-01f,
+2.95076489e-01f,+7.71707445e-02f,+3.43464643e-01f,+6.06281795e-02f,+2.00675055e-01f,
-8.90987888e-02f,+1.22610211e-01f,-1.49162114e-01f,+7.85031915e-02f,-2.95381043e-02f,
+1.73399985e-01f,+6.92434609e-02f,-3.30598317e-02f,+2.88087805e-03f,+2.45033741e-01f,
+4.74452652e-04f,-6.34678528e-02f,+3.26152861e-01f,-2.13479683e-01f,-1.74565002e-01f,
+1.81478545e-01f,+3.27158044e-03f,-1.38793141e-02f,+1.86949253e-01f,+2.62626503e-02f,
+9.28293318e-02f,-9.68847722e-02f,+4.81242239e-01f,-2.66422182e-01f,+1.91248670e-01f,
-2.12758020e-01f,+1.10584743e-01f,+2.30959654e-02f,+5.82250953e-02f,+1.31568521e-01f,
-1.54912695e-01f,+1.81636140e-01f,-3.04770589e-01f,+2.03970879e-01f,-1.80690303e-01f,
+2.13457406e-01f,+5.57544790e-02f,+1.34301782e-01f,+4.02404275e-03f,+1.13241039e-01f,
+5.55408187e-02f,+3.06324154e-01f,-1.26466721e-01f,+6.49963543e-02f,+2.29242863e-03f,
+1.90186471e-01f,-1.91522583e-01f,+1.29850402e-01f,+2.22661018e-01f,+2.13530913e-01f,
-1.90309081e-02f,-1.40015483e-01f,-1.56867623e-01f,-1.16163343e-01f,-2.35780507e-01f,
+1.09797120e-01f,+5.87163866e-02f,+6.28530458e-02f,+4.64993902e-02f,+1.65259689e-02f,
+6.40863776e-02f,-1.06635347e-01f,-5.15119195e-01f,-9.64078605e-02f,-2.87150055e-01f,
+8.04315954e-02f,-5.85219935e-02f,+3.56293395e-02f,-5.08942176e-03f,-5.14969639e-02f,
-3.20950001e-02f,+1.84973121e-01f,+1.13363648e-02f,+2.61460012e-03f,+1.63997054e-01f,
-2.95867324e-02f,+9.58875418e-02f,+3.32586095e-02f,-6.27296939e-02f,-1.20084211e-01f,
-8.16569030e-02f,-1.77826300e-01f,-1.49716392e-01f,-1.09784491e-01f,-1.27247453e-01f,
+3.69465202e-02f,+1.22374548e-02f,+7.96516612e-02f,-5.71454503e-02f,-1.89599581e-02f,
+1.16887048e-01f,-1.42871737e-01f,-9.30307880e-02f,+1.43789813e-01f,-1.76363319e-01f,
+1.40334040e-01f,+1.60026457e-02f,-2.36866340e-01f,+8.99253264e-02f,-6.95878416e-02f,
-2.84726590e-01f,+1.31475762e-01f,-1.49202988e-01f,-8.75395015e-02f,-2.19859198e-01f,
-2.53200158e-02f,-6.46179821e-03f,+6.89526796e-02f,+1.32915854e-01f,-3.63818631e-02f,
+2.44524285e-01f,+2.99442951e-02f,-6.39076307e-02f,+1.70648798e-01f,-2.82417294e-02f,
+2.07512349e-01f,-1.55829757e-01f,+9.84960198e-02f,-6.23856224e-02f,+2.03024849e-01f,
+9.70943645e-02f,+1.52775273e-01f,+1.98688164e-01f,+1.70771983e-02f,-1.02900155e-02f,
+8.23407024e-02f,-5.36597110e-02f,-1.42077193e-01f,+1.00970797e-01f,+8.35404322e-02f,
-1.26757771e-01f,+3.41464616e-02f,-1.76968072e-02f,+4.56588343e-03f,-5.24265207e-02f,
-8.61698985e-02f,-5.78251332e-02f,+7.05259386e-03f,+1.47340581e-01f,+1.28571868e-01f,
-6.29747510e-02f,-1.38036245e-02f,-1.96929336e-01f,-4.18661535e-02f,-1.47550330e-01f,
-6.67372271e-02f,+1.74724861e-04f,+7.55235329e-02f,-2.32266150e-02f,+2.21821014e-03f,
-1.42674834e-01f,+1.27216235e-01f,-1.42635673e-01f,+1.58005193e-01f,+4.07096446e-02f,
+1.77393798e-04f,+1.02920189e-01f,+5.95528781e-02f,+1.97051331e-01f,-2.91729033e-01f,
-2.54924167e-02f,-4.29919481e-01f,-4.26963419e-02f,+5.57989180e-02f,+1.07756808e-01f,
-4.26969640e-02f,-1.03290685e-01f,-1.55208007e-01f,+2.36814663e-01f,-3.87226902e-02f,
-1.21498875e-01f,+5.67897968e-02f,-3.53756137e-02f,-7.02538644e-04f,-1.11506164e-01f,
-7.81686082e-02f,-3.00911888e-02f,+1.92878753e-01f,+1.15863206e-02f,+6.26082346e-02f,
-4.41369135e-03f,+1.22947633e-01f,+5.48800966e-03f,-3.28612253e-02f,-1.84978589e-01f,
-3.76357324e-02f,-1.51669249e-01f,+1.70681626e-01f,-1.16088754e-02f,-1.39228478e-01f,
+9.67516378e-02f,-1.43546745e-01f,-3.99070680e-02f,-5.89408563e-04f,+1.02082208e-01f,
-4.86617116e-03f,-2.93214262e-01f,-2.13480182e-02f,+1.69022575e-01f,+1.79227740e-01f,
-1.02508679e-01f,-4.78055626e-02f,-2.02815920e-01f,+2.40934148e-01f,+1.04855567e-01f,
+1.31827697e-01f,-1.18566178e-01f,+2.29446828e-01f,-1.92866325e-01f,+9.96398553e-02f,
+1.60029978e-01f,-5.89008257e-03f,-2.48190947e-02f,-1.11651160e-01f,-1.31898031e-01f,
-2.80295283e-01f,+6.42218366e-02f,-1.20188750e-01f,+1.71390176e-01f,-1.24298587e-01f,
-3.25497799e-02f,-8.15267637e-02f,+1.30945090e-02f,-1.58676337e-02f,+3.30352895e-02f,
+5.93790449e-02f,-5.66312820e-02f,-1.67777076e-01f,+4.00724709e-02f,-7.28667751e-02f,
-1.55466899e-01f,-6.18315376e-02f,+4.02385965e-02f,-4.06598188e-02f,-5.67490757e-02f,
-1.73799898e-02f,-1.53462235e-02f,+1.92341246e-02f,-1.09816249e-02f,-4.91864979e-02f,
-6.74018115e-02f,+1.06386825e-01f,-1.24269776e-01f,+2.19043214e-02f,+1.02368459e-01f,
-5.16303144e-02f,-5.39469384e-02f,-1.19648471e-01f,-1.11167403e-02f,+1.15311682e-01f,
+1.03837170e-01f,+1.31705433e-01f,-2.67427857e-03f,-7.77104944e-02f,-6.59994110e-02f,
+1.19099542e-02f,+4.99471687e-02f,-2.25983579e-02f,+3.06943119e-01f,+5.67575842e-02f,
+1.33295015e-01f,+4.36882824e-02f,+2.46107951e-02f,-2.33963549e-01f,-7.28013515e-02f,
-4.13448885e-02f,-9.89359692e-02f,+1.91925734e-01f,+1.88165754e-01f,+3.22007164e-02f,
-8.83418322e-03f,+8.28396901e-02f,-1.29359379e-01f,-9.74803120e-02f,-3.46704870e-02f,
-1.06279634e-01f,-8.46633390e-02f,+5.65825924e-02f,-2.81002652e-02f,-4.60439324e-02f,
+2.10526735e-02f,+1.43421805e-02f,+6.42550290e-02f,-1.42117262e-01f,-5.54461293e-02f,
-1.12046257e-01f,-3.22324991e-01f,+2.12214679e-01f,-6.00029230e-02f,+1.73016712e-02f,
-2.08952710e-01f,+1.33532852e-01f,+5.80240274e-03f,-3.25991511e-02f,+8.35328624e-02f,
-1.46592051e-01f,-2.55527973e-01f,-3.67871702e-01f,+1.78394355e-02f,-8.88266135e-03f,
-2.45101795e-01f,-1.87752724e-01f,+1.39514312e-01f,-1.69841856e-01f,+1.49909228e-01f,
+2.11236298e-01f,-1.49354935e-01f,+2.13898301e-01f,-2.14918077e-01f,-2.81068802e-01f,
+5.03411405e-02f,+2.36004442e-01f,+1.19269997e-01f,+6.89009428e-02f,+7.82049671e-02f,
+8.71790722e-02f,-3.87617797e-01f,+1.19983181e-01f,-6.35546893e-02f,-2.26201192e-01f,
+1.39868200e-01f,-5.28412350e-02f,+8.72934386e-02f,-9.52381790e-02f,+1.38610736e-01f,
+1.37375146e-01f,-6.52857646e-02f,+1.79815799e-01f,-9.28523764e-03f,-5.80653623e-02f,
-2.13874102e-01f,+6.10027090e-02f,-1.18327990e-01f,+2.79544592e-01f,-1.67839825e-01f,
-6.43421188e-02f,-3.02411895e-02f,+5.92489019e-02f,-6.32925481e-02f,+2.12786183e-01f,
-2.99941879e-02f,-2.13004965e-02f,-3.01236749e-01f,-1.27530843e-01f,+1.90334484e-01f,
+5.10918237e-02f,+1.90971494e-01f,+5.21855056e-02f,-2.16127140e-03f,-1.18948976e-02f,
-1.60421625e-01f,-1.32474214e-01f,+2.03456134e-02f,-1.40938759e-01f,+2.28137463e-01f,
+7.75226653e-02f,+1.13761619e-01f,-2.93468386e-01f,+9.08833221e-02f,-1.09320529e-01f,
+2.62386650e-02f,-1.79118067e-01f,-3.46331932e-02f,+3.64465803e-01f,+3.66459303e-02f,
-1.63908452e-01f,-5.22416979e-02f,-9.23326612e-02f,-1.52334854e-01f,+1.22120366e-01f,
-3.18765305e-02f,+1.69899717e-01f,-9.77367312e-02f,-1.01070968e-03f,-6.41471148e-02f,
-2.24037290e-01f,-1.30631119e-01f,+1.57546580e-01f,-1.64082855e-01f,-1.48656473e-01f,
-1.96015060e-01f,-1.68298915e-01f,+6.75605889e-03f,-1.32399872e-01f,-2.25543991e-01f,
+1.49680763e-01f,+1.26037553e-01f,+3.23580831e-01f,-2.26354465e-01f,-2.15651423e-01f,
-1.53439060e-01f,-5.03228270e-02f,+7.80188572e-03f,-1.47839576e-01f,+2.33927131e-01f,
+1.46219000e-01f,+5.89715596e-03f,-3.35132003e-01f,-8.96255150e-02f,+1.29802451e-01f,
-5.76927476e-02f,-5.40641956e-02f,-1.47688463e-01f,-1.80062070e-01f,+5.15224412e-02f,
-3.54314446e-02f,-4.37193692e-01f,-4.59869295e-01f,-4.30060118e-01f,-2.69729048e-01f,
+4.92982045e-02f,+1.12427277e-02f,-1.71160206e-01f,+1.68732122e-01f,+2.42550150e-01f,
+2.28360012e-01f,+2.32666627e-01f,+1.16630375e-01f,-6.32649213e-02f,+3.72228809e-02f,
-7.51129165e-02f,+1.33409891e-02f,-2.32254535e-01f,-1.34174898e-02f,-2.10057721e-01f,
+6.66991770e-02f,+8.50172937e-02f,-1.38223678e-01f,+1.19853258e-01f,-4.36161518e-01f,
+1.45712659e-01f,-1.77185878e-01f,+1.41460538e-01f,+1.60306856e-01f,-1.56974837e-01f,
+7.04301968e-02f,+2.21750662e-01f,+6.39260113e-02f,+2.44543944e-02f,-6.00125780e-03f,
-8.48373398e-02f,-2.71032512e-01f,+3.17785740e-02f,+7.71832243e-02f,+1.24083988e-01f,
-8.12038127e-03f,+9.97253805e-02f,+4.28940281e-02f,+2.37902090e-01f,-2.18536332e-01f,
-1.14075817e-01f,+7.42399246e-02f,+1.20145179e-01f,-1.60088956e-01f,-5.63940639e-03f,
-3.13056797e-01f,-2.15426296e-01f,-2.24928893e-02f,-2.53569931e-01f,+2.45054737e-01f,
+1.21793738e-02f,+5.88828512e-02f,-9.36734118e-03f,+1.75304696e-01f,+1.10408448e-01f,
-2.32509792e-01f,+3.34496647e-02f,-1.12503074e-01f,+6.10475801e-02f,+4.45040427e-02f,
+6.55119643e-02f,+2.91556120e-01f,+1.64416358e-01f,-1.53700346e-02f,-9.44744702e-03f,
-3.67126077e-01f,-7.32513070e-02f,-9.44377333e-02f,-7.16123521e-01f,+9.81111452e-02f,
-2.78165806e-02f,-2.49715820e-01f,-2.40984470e-01f,-1.15671664e-01f,+3.00463080e-01f,
-1.18877878e-02f,-1.20254532e-01f,+1.94295477e-02f,+4.35655639e-02f,-5.62869072e-01f,
-5.36900982e-02f,+9.87491384e-02f,-3.76883030e-01f,+1.10556573e-01f,+2.33409703e-01f,
-2.06397071e-01f,+1.81640506e-01f,-2.84318089e-01f,-1.46030679e-01f,+1.16927817e-01f,
-2.44671047e-01f,-9.41085815e-03f,+7.21146837e-02f,+3.64623070e-01f,+3.97861190e-02f,
+6.81740940e-02f,+1.83701828e-01f,-1.74287081e-01f,-4.06496733e-01f,+1.51693568e-01f,
-8.31419155e-02f,-2.56313328e-02f,-1.38303965e-01f,+4.05747265e-01f,+2.07791522e-01f,
-1.56449869e-01f,-1.90442607e-01f,+1.90953135e-01f,-4.07682620e-02f,-2.36111745e-01f,
-1.24142051e-01f,+2.97929049e-02f,+8.95008370e-02f,-3.92359972e-01f,+6.63407817e-02f,
-1.76236585e-01f,+8.21992606e-02f,-2.13877425e-01f,-2.26403952e-01f,+1.23958558e-01f,
+2.94482708e-01f,-5.57352304e-02f,+9.49738100e-02f,-1.06594689e-01f,+4.65196699e-01f,
-2.28109196e-01f,-3.35904092e-01f,-3.22861187e-02f,+1.16714150e-01f,-3.07872415e-01f,
-3.35096964e-03f,+8.21122527e-02f,-1.67553768e-01f,-5.76051116e-01f,-5.21521084e-02f,
-1.47858281e-02f,-2.15144783e-01f,-1.55739665e-01f,+2.74627239e-01f,+2.75148124e-01f,
+7.22921360e-03f,+1.55352280e-01f,-1.82663172e-01f,-4.58907187e-01f,-2.88213015e-01f,
-2.74014324e-01f,+7.97882527e-02f,-1.04318790e-01f,-1.75692156e-01f,-1.24048991e-02f,
+6.65697793e-04f,-8.51189792e-02f,+1.25852138e-01f,-5.33670373e-02f,+1.11937881e-01f,
-4.33562279e-01f,-5.56334630e-02f,+1.35999799e-01f,-2.36658230e-01f,+8.34166631e-03f,
+1.89010218e-01f,+1.07096277e-01f,+1.09690934e-01f,+2.82828748e-01f,+9.09259357e-03f,
-1.07834581e-03f,+4.13505360e-02f,+1.28613606e-01f,+1.46569265e-02f,+3.98101032e-01f,
-3.74673493e-02f,-1.27184361e-01f,+3.73697490e-01f,-3.54999937e-02f,+4.54510935e-02f,
+1.98498704e-02f,-2.77277201e-01f,+3.22103384e-03f,-3.59501913e-02f,-2.91749805e-01f,
-3.80835503e-01f,+3.61665636e-01f,+1.70105174e-01f,-3.99034470e-01f,+3.68864387e-01f,
-5.60506463e-01f,+2.68972993e-01f,-1.09589562e-01f,+5.20092010e-01f,-1.74288571e-01f,
+2.53906190e-01f,-7.76127726e-02f,-3.71690422e-01f,-4.25382033e-02f,+4.07479890e-03f,
+1.19143069e-01f,+8.53959695e-02f,+2.15797335e-01f,-4.28695738e-01f,-2.97946762e-02f,
-1.30891964e-01f,+3.32583845e-01f,-1.60708144e-01f,+7.00974390e-02f,+7.58321881e-02f,
+1.15125418e-01f,-6.61106929e-02f,+1.65088668e-01f,+8.65893885e-02f,-6.08500019e-02f,
-1.16688699e-01f,+5.35017736e-02f,+1.13370031e-01f,-9.11546126e-03f,+2.66328514e-01f,
-2.39219844e-01f,-6.92568272e-02f,+5.45879453e-02f,-2.71523952e-01f,+4.21452336e-02f,
-3.14475626e-01f,-1.46488965e-01f,-3.35516840e-01f,-2.05761343e-01f,-4.87995683e-04f,
-1.81388706e-01f,-3.01860988e-01f,-1.50125653e-01f,-5.19245684e-01f,-4.43846583e-02f,
-1.01526000e-01f,+1.83252379e-01f,-2.30947174e-02f,+1.10533275e-01f,+1.54226601e-01f,
+3.89167219e-02f,-5.55152074e-03f,-7.20908418e-02f,+1.65921137e-01f,-3.00181091e-01f,
-2.71705892e-02f,-9.90129188e-02f,+1.43648386e-01f,-2.05299348e-01f,-5.70666730e-01f,
-3.40348482e-01f,-2.75285363e-01f,-1.23325720e-01f,-2.35844463e-01f,+2.81115890e-01f,
+9.65208709e-02f,+2.89878070e-01f,-2.07794663e-02f,-3.09767187e-01f,-1.82219729e-01f,
-7.35788792e-02f,+1.14804901e-01f,-3.15016866e-01f,-3.38887691e-01f,+2.83462584e-01f,
