#include <math.h> 
 #include <string.h> 
#include "./include/k2c_include.h" 
#include "./include/k2c_tensor_include.h" 

 


void iNAS_0309(k2c_tensor* INPUT_input, k2c_tensor* FC_END_output) { 

size_t CONV_0_stride[2] = {1,1}; 
size_t CONV_0_dilation[2] = {1,1}; 
float CONV_0_output_array[8192] = {0}; 
k2c_tensor CONV_0_output = {&CONV_0_output_array[0],3,8192,{32,32, 8, 1, 1}}; 
float CONV_0_kernel_array[24] = {
+1.55659765e-01f,+1.66232944e-01f,+6.80910885e-01f,-4.91758615e-01f,+4.42397237e-01f,
+5.22941053e-01f,+4.58288997e-01f,-5.61270058e-01f,+3.46326619e-01f,-2.83619285e-01f,
+6.35372639e-01f,+7.50692546e-01f,+8.24326053e-02f,+2.02839822e-01f,+5.08417606e-01f,
-8.22764337e-02f,+5.17869294e-02f,+6.25020325e-01f,+6.22081518e-01f,-1.93468183e-01f,
-7.43345022e-01f,-5.24567008e-01f,-5.58785737e-01f,+6.89447582e-01f,}; 
k2c_tensor CONV_0_kernel = {&CONV_0_kernel_array[0],4,24,{1,1,3,8,1}}; 
float CONV_0_bias_array[8] = {0}; 
k2c_tensor CONV_0_bias = {&CONV_0_bias_array[0],1,8,{8,1,1,1,1}}; 

 
size_t CONV_1_stride[2] = {1,1}; 
size_t CONV_1_dilation[2] = {1,1}; 
float CONV_1_output_array[7200] = {0}; 
k2c_tensor CONV_1_output = {&CONV_1_output_array[0],3,7200,{30,30, 8, 1, 1}}; 
float CONV_1_kernel_array[576] = {
+7.84551948e-02f,-1.90573391e-02f,+1.28283113e-01f,-1.08315058e-01f,+9.52215269e-02f,
+3.32477991e-03f,+1.75700709e-01f,-2.31456663e-02f,-1.28246978e-01f,-1.34446900e-02f,
+1.01754881e-01f,+1.29172876e-01f,-1.65477488e-02f,+1.31840527e-01f,+7.76924565e-02f,
-1.04644552e-01f,+2.37460524e-01f,+7.66654313e-02f,+1.49903610e-01f,+1.67070463e-01f,
+1.12708025e-01f,+2.43154213e-01f,-1.65864065e-01f,-1.87208816e-01f,+9.57273394e-02f,
-5.53778589e-01f,+2.63012145e-02f,+2.31721580e-01f,-2.44528756e-01f,-1.02823496e-01f,
+2.71783441e-01f,-2.23001137e-01f,-1.78979799e-01f,-8.76166448e-02f,-6.30581155e-02f,
-2.50120372e-01f,+4.93305027e-02f,+2.97458231e-01f,-3.98109347e-01f,-1.29982322e-01f,
-3.19836438e-01f,-1.07797146e-01f,-1.21950872e-01f,+5.16634248e-02f,-1.99822746e-02f,
+2.64227450e-01f,+1.14725240e-01f,-2.63093356e-02f,-6.81332452e-03f,-2.03237981e-01f,
+1.69235229e-01f,-1.50554687e-01f,+6.19271770e-02f,-1.01603484e-02f,+1.45515010e-01f,
+1.15353428e-01f,+3.61403048e-01f,-3.23201478e-01f,+2.30287790e-01f,-8.27754438e-02f,
+3.55784111e-02f,-1.06428601e-01f,+6.05810620e-02f,+2.28006437e-01f,-1.25154018e-01f,
+1.03309721e-01f,+1.11755632e-01f,-7.67386928e-02f,-6.82956129e-02f,+7.78547004e-02f,
-1.66138932e-01f,+1.49550945e-01f,-9.56672616e-03f,-1.72374800e-01f,-1.64179906e-01f,
+8.08173195e-02f,+1.59396455e-01f,+1.06105901e-01f,-2.47895762e-01f,+1.69521198e-01f,
-2.00396091e-01f,-2.66082674e-01f,-1.25094905e-01f,+2.32932925e-01f,-7.86985550e-03f,
+5.43216243e-02f,+1.45041242e-01f,-7.91978166e-02f,+1.97407067e-01f,-2.94014543e-01f,
-2.07028076e-01f,+3.31825167e-01f,-6.63780794e-02f,+1.42877117e-01f,+2.00315729e-01f,
-4.01401222e-02f,-7.18805045e-02f,-3.89580801e-02f,+1.58202752e-01f,-2.19369337e-01f,
+1.81385353e-02f,+2.09854841e-01f,-1.07768200e-01f,-3.59534144e-01f,+6.35095388e-02f,
+1.21387273e-01f,-1.18685216e-01f,-8.64081383e-02f,-2.79434383e-01f,-5.73226288e-02f,
-1.09940127e-01f,-1.79090425e-01f,+2.29305942e-02f,+4.83592413e-02f,-4.33905981e-02f,
-1.34421006e-01f,+9.41162109e-02f,+1.88600972e-01f,+1.22944355e-01f,-1.03148989e-01f,
+2.42234409e-01f,-4.97058749e-01f,-1.24582857e-01f,-1.39010146e-01f,-5.02204560e-02f,
-2.28512120e-02f,-1.15860060e-01f,-6.41183257e-02f,+3.59974168e-02f,+1.00541949e-01f,
+1.47772744e-01f,+6.11591265e-02f,-8.02401751e-02f,+3.01582497e-02f,+1.92646787e-01f,
+8.07946771e-02f,-1.65530175e-01f,-1.88574702e-01f,+4.71123196e-02f,+1.75243109e-01f,
+1.97468191e-01f,-5.09915426e-02f,-1.61470339e-01f,-1.91257581e-01f,-2.04007968e-01f,
-6.14870153e-02f,-1.41233459e-01f,-8.23521689e-02f,-1.19993056e-03f,+9.07499939e-02f,
-1.68249652e-01f,-1.51272863e-01f,-8.36680681e-02f,-6.28973365e-01f,-7.05591962e-02f,
+5.58976345e-02f,+6.77596778e-02f,+2.53332973e-01f,+5.19083261e-01f,-5.46840727e-02f,
+6.54011816e-02f,+2.08993107e-01f,+1.27559215e-01f,+6.14617914e-02f,-1.49073079e-01f,
+1.80240393e-01f,-1.98716715e-01f,-2.61471510e-01f,-9.23779011e-02f,-1.83822215e-01f,
+1.18296705e-01f,-6.16526343e-02f,-2.16390342e-02f,+9.40092057e-02f,+1.03042185e-01f,
-3.18423778e-01f,-1.37000933e-01f,-1.75463874e-02f,-9.93973836e-02f,+1.84719697e-01f,
+1.54618308e-01f,-1.11210562e-01f,+1.23407617e-01f,-1.02796696e-01f,+7.77995139e-02f,
-4.23499376e-01f,-2.94389874e-01f,+1.86440945e-01f,-1.36989309e-02f,-2.16289163e-01f,
-1.74041092e-01f,-5.23155928e-02f,+9.94821489e-02f,-1.77872956e-01f,+7.28921965e-02f,
-2.30069935e-01f,+1.68777630e-01f,-4.82081957e-02f,-2.02030346e-01f,+4.33519520e-02f,
+3.95559669e-02f,-1.92020774e-01f,+2.55724877e-01f,+1.12547807e-01f,+2.98142314e-01f,
+1.55052394e-01f,+1.47337979e-02f,-6.47827834e-02f,+1.70086995e-01f,+1.19992696e-01f,
-2.94334833e-02f,-1.48218229e-01f,-6.84687495e-03f,-8.77427608e-02f,+2.33972305e-03f,
+1.76270939e-02f,+1.25320971e-01f,-5.21506667e-01f,+1.36834309e-01f,-8.50156844e-02f,
-1.79729775e-01f,+6.13257475e-02f,+1.94199666e-01f,-1.61414087e-01f,+1.00317653e-02f,
-9.89660397e-02f,+5.11407480e-02f,-3.09827048e-02f,+2.64015775e-02f,+2.86228120e-01f,
-1.84507117e-01f,+7.84450863e-03f,+7.84516558e-02f,-1.45072475e-01f,-1.43995136e-03f,
+4.35471907e-02f,-2.95785218e-01f,-6.55932501e-02f,+1.64929181e-01f,+9.58196893e-02f,
-7.77681321e-02f,+5.56744635e-02f,+8.91683549e-02f,-1.38180345e-01f,+5.53161688e-02f,
-7.76033849e-02f,-6.23309426e-03f,+1.49080545e-01f,+2.66052812e-01f,-2.54464298e-01f,
+3.47425967e-01f,+2.49525215e-02f,+1.72129378e-01f,+9.52813700e-02f,+6.11084606e-03f,
+6.90925401e-03f,-1.57498673e-01f,+6.30706474e-02f,+6.71790242e-02f,+2.81793065e-02f,
-8.83653462e-02f,+1.29015371e-01f,+1.88065678e-01f,-1.55631721e-01f,-1.05743185e-01f,
+5.38284220e-02f,-8.39725733e-02f,+2.18832642e-01f,+2.36313567e-01f,-1.58464193e-01f,
-2.50011355e-01f,+1.68428048e-01f,+4.94627357e-02f,-1.31192729e-01f,-1.06407702e-01f,
-1.39364228e-01f,+1.60472199e-01f,-9.40217972e-02f,+9.11452323e-02f,-3.88882533e-02f,
-1.62522972e-01f,-3.26608479e-01f,-2.45605111e-01f,+1.48856081e-02f,-2.77754068e-01f,
-4.98327333e-03f,+2.25663140e-01f,+8.05598423e-02f,-6.68816641e-02f,-1.49034888e-01f,
-1.27375752e-01f,+2.48612519e-02f,-5.25482893e-02f,+7.74760917e-02f,-2.71103084e-01f,
-1.55908242e-01f,-1.68317989e-01f,-1.15386158e-01f,+7.10812509e-02f,+9.79094654e-02f,
-9.21134278e-02f,+1.88498423e-01f,+1.38899937e-01f,-9.36331004e-02f,+1.05693325e-01f,
-1.12758636e-01f,-8.70349258e-02f,+1.99079156e-01f,-1.36586532e-01f,+3.09979152e-02f,
+2.06875697e-01f,+3.77184264e-02f,+3.11749130e-01f,-2.70971984e-01f,+5.42504713e-03f,
-1.80341005e-02f,-1.28266104e-02f,-7.51912743e-02f,-1.89896107e-01f,+1.34163082e-01f,
+8.45076069e-02f,-1.13300467e-02f,-3.97401862e-02f,-1.35604456e-01f,-6.36108220e-02f,
+1.56931356e-01f,+1.39516011e-01f,-2.83693206e-02f,+4.26957244e-03f,-8.39076042e-02f,
-1.05872869e-01f,-2.19108462e-01f,+1.62788376e-01f,+1.90879658e-01f,+3.34176049e-02f,
+6.09020256e-02f,+7.84196332e-02f,+7.70806987e-03f,+7.22294226e-02f,-5.40686511e-02f,
+1.82876408e-01f,+1.01510920e-01f,-8.10784176e-02f,-1.54305875e-01f,-1.63987622e-01f,
-3.11396778e-01f,-8.61095563e-02f,-8.57651308e-02f,-7.38000721e-02f,-3.72081064e-02f,
+2.27294624e-01f,-6.39870986e-02f,-1.56284109e-01f,+2.22606644e-01f,+1.03948593e-01f,
+1.74558401e-01f,-1.05949976e-01f,+1.27138630e-01f,-2.15242162e-01f,+1.90844700e-01f,
-1.62385091e-01f,-2.32351556e-01f,-3.56194563e-02f,-1.51256010e-01f,+1.29451603e-01f,
-1.25456274e-01f,-2.45508775e-02f,+9.79421735e-02f,+1.01663612e-01f,-1.93052292e-01f,
-7.27527738e-02f,-2.20160320e-01f,-5.78003041e-02f,-1.93233401e-01f,-1.06455773e-01f,
+1.37375118e-02f,+4.54741456e-02f,+5.48058040e-02f,-2.74251133e-01f,+5.85568435e-02f,
-2.00410903e-01f,+5.24141528e-02f,+2.92479899e-02f,+3.77058387e-02f,+1.92889184e-01f,
+8.18106458e-02f,+9.14516747e-02f,-1.16625927e-01f,-5.82533255e-02f,+8.92187133e-02f,
-1.02090165e-01f,+8.06431994e-02f,+9.49964672e-02f,-1.56564012e-01f,+2.71814466e-01f,
-1.98365659e-01f,+1.01764254e-01f,-1.49496183e-01f,-1.78919226e-01f,-1.11771367e-01f,
+1.23720564e-01f,+3.28854546e-02f,+2.75229007e-01f,-3.81282419e-02f,-4.59309593e-02f,
-8.05350989e-02f,+1.30201504e-02f,+2.02187181e-01f,+1.49133831e-01f,-1.22788899e-01f,
+2.40194723e-01f,-7.16539379e-03f,-2.08682120e-01f,-8.58256072e-02f,+2.55872965e-01f,
+2.34363321e-02f,+6.35638610e-02f,+1.04912080e-01f,-7.07703829e-02f,+2.33926371e-01f,
+3.58942986e-01f,-3.55410017e-02f,-7.03169331e-02f,+3.06972146e-01f,+2.09764197e-01f,
-1.08905450e-01f,-5.72247915e-02f,-1.61538377e-01f,-6.32284060e-02f,+2.38160882e-02f,
+1.94522545e-01f,-4.15081158e-02f,-9.66962278e-02f,+1.47439063e-01f,+1.40246287e-01f,
-5.53139374e-02f,+3.58093046e-02f,-1.59506366e-01f,-1.11436270e-01f,-3.78797203e-02f,
+3.41584206e-01f,-1.98869616e-01f,+7.86015987e-02f,-2.52480775e-01f,+1.04452725e-02f,
-1.37855574e-01f,+1.67948175e-02f,-1.70574740e-01f,-1.30088907e-02f,+1.60444409e-01f,
-1.65323377e-01f,-1.90790351e-02f,-1.83956906e-01f,-2.14800194e-01f,-1.54477898e-02f,
+1.63067207e-01f,+9.59637985e-02f,+1.14990212e-01f,+1.52547911e-01f,+1.06139533e-01f,
-1.27476946e-01f,+8.96481648e-02f,-2.82882392e-01f,+1.12784170e-01f,+8.34023729e-02f,
+2.80614704e-01f,-1.73105046e-01f,+2.50483006e-01f,+4.29600962e-02f,-1.86492473e-01f,
+1.32883102e-01f,+1.74502864e-01f,-1.47071093e-01f,-1.46526158e-01f,+9.24950317e-02f,
+9.15619060e-02f,-4.13807631e-02f,-2.21781477e-01f,+3.68938655e-01f,+8.28560162e-03f,
+1.69662639e-01f,+1.40922934e-01f,+2.16993969e-02f,+1.99739724e-01f,+4.85038579e-01f,
-2.40383655e-01f,-5.34031652e-02f,+9.03528705e-02f,+8.91577452e-02f,+2.38876373e-01f,
-7.73603916e-02f,+2.53164828e-01f,-1.97435364e-01f,+4.56474274e-02f,+2.76413888e-01f,
-5.58665991e-02f,+1.22514941e-01f,-9.22693685e-02f,+1.47074670e-01f,+1.25743002e-01f,
+4.30857204e-02f,-1.25906035e-01f,+1.73957661e-01f,+7.09142722e-03f,+2.77452439e-01f,
-2.75437325e-01f,-4.03338522e-02f,+9.77588221e-02f,-1.25386506e-01f,+3.18107381e-02f,
-3.15150768e-01f,-8.84729028e-02f,+2.63606943e-02f,-8.40073302e-02f,-4.19192538e-02f,
-4.52046748e-03f,+1.07139245e-01f,-2.95799933e-02f,+1.65268064e-01f,-2.07537636e-02f,
+6.93935081e-02f,-2.37440951e-02f,-2.49018949e-02f,-6.65063635e-02f,-1.33628741e-01f,
+1.68137401e-01f,+1.14131577e-01f,+1.28034785e-01f,-4.30545136e-02f,+2.42976055e-01f,
-2.10208103e-01f,-1.40527904e-01f,-8.28174353e-02f,-1.91057399e-01f,-1.53187826e-01f,
+9.18229371e-02f,-1.65520627e-02f,-3.97092134e-01f,-1.22686774e-01f,-6.52359128e-02f,
+1.58466026e-01f,-3.41038452e-03f,+3.57591033e-01f,-1.57260492e-01f,+2.90708572e-01f,
+6.62610903e-02f,-1.70198172e-01f,+3.43691409e-02f,+4.85106230e-01f,-2.81618744e-01f,
-2.45921031e-01f,+2.25232840e-01f,-8.81279632e-02f,+1.86402872e-01f,+7.08873644e-02f,
+1.46843329e-01f,+1.06451653e-01f,-3.53191763e-01f,+1.35148853e-01f,+1.99627548e-01f,
-1.02621421e-01f,+2.23421752e-02f,+9.53041464e-02f,+1.15312107e-01f,+1.58423096e-01f,
+9.50496048e-02f,+2.25840900e-02f,+1.29511014e-01f,+3.23554426e-01f,+3.15365084e-02f,
-8.75019506e-02f,-1.40335009e-01f,-3.62578481e-02f,+8.18074867e-02f,-4.87138778e-01f,
-1.97782725e-01f,}; 
k2c_tensor CONV_1_kernel = {&CONV_1_kernel_array[0],4,576,{3,3,8,8,1}}; 
float CONV_1_bias_array[8] = {0}; 
k2c_tensor CONV_1_bias = {&CONV_1_bias_array[0],1,8,{8,1,1,1,1}}; 

 
size_t CONV_2_stride[2] = {1,1}; 
size_t CONV_2_dilation[2] = {1,1}; 
float CONV_2_output_array[2704] = {0}; 
k2c_tensor CONV_2_output = {&CONV_2_output_array[0],3,2704,{26,26, 4, 1, 1}}; 
float CONV_2_kernel_array[800] = {
+1.15099259e-01f,-3.39356437e-02f,+8.54874924e-02f,+2.81827860e-02f,-4.03276160e-02f,
-2.41967469e-01f,+4.76242639e-02f,+2.36709565e-01f,+3.28523666e-02f,+7.04217613e-01f,
-1.57002866e-01f,+1.20292149e-01f,-5.27707441e-03f,+7.79568136e-01f,-1.34697780e-01f,
-2.73268998e-01f,+1.44072801e-01f,-1.95239320e-01f,+1.32584065e-01f,-1.40567690e-01f,
-3.79349999e-02f,+2.06198454e-01f,-3.31885600e-03f,-4.84193452e-02f,+1.34700179e-01f,
-5.66857457e-02f,-9.16733146e-02f,+1.33922920e-01f,-8.24944302e-02f,+5.20620167e-01f,
+1.63303688e-01f,+3.55140753e-02f,+2.17850599e-02f,-9.10656154e-02f,-1.14896640e-01f,
+5.74706355e-03f,-1.89992294e-01f,+2.63749193e-02f,+6.64451644e-02f,+3.73986363e-01f,
-4.01287854e-01f,+7.61995792e-01f,-4.27645110e-02f,-3.40327658e-02f,+3.03908467e-01f,
+7.54453480e-01f,+6.61158413e-02f,-2.56947726e-01f,+1.51342347e-01f,-7.64724910e-02f,
-3.16538475e-02f,+7.70734176e-02f,-2.07784530e-02f,+1.81960106e-01f,+6.64202198e-02f,
-3.47312503e-02f,+1.92194179e-01f,-1.74790457e-01f,-1.40136722e-02f,+9.24609378e-02f,
-7.57126212e-02f,+2.38412842e-01f,+2.41815314e-01f,+1.00028299e-01f,+3.13169546e-02f,
-1.12029925e-01f,+5.32954708e-02f,+5.99303953e-02f,-2.86994670e-02f,+6.26387745e-02f,
+1.46109149e-01f,+3.42282116e-01f,-3.00165117e-02f,+6.13326013e-01f,-5.87478988e-02f,
+1.42555788e-01f,+2.84531444e-01f,+5.61260760e-01f,-6.42147362e-02f,-2.93551654e-01f,
+7.74827152e-02f,-6.59276769e-02f,+3.19780484e-02f,-9.13259983e-02f,-1.48903683e-01f,
-5.87411746e-02f,-4.53988509e-03f,+3.76809165e-02f,-4.00215052e-02f,-9.19427723e-02f,
-8.49922886e-04f,+9.94868726e-02f,+7.28421137e-02f,+7.25045577e-02f,+1.05566375e-01f,
+2.06981644e-01f,+1.23554535e-01f,-1.86223894e-01f,-3.26720215e-02f,+1.05410768e-02f,
-1.16206899e-01f,-1.73977941e-01f,+8.64286348e-03f,+3.08545172e-01f,-9.08856764e-02f,
+1.98094875e-01f,-9.34413671e-02f,+2.66760141e-01f,+3.34939688e-01f,+3.10673147e-01f,
+2.11726174e-01f,-2.16128275e-01f,-1.19704142e-01f,-1.31987497e-01f,-1.03482060e-01f,
-1.29151531e-02f,+4.67422158e-02f,-2.08480716e-01f,+2.61877328e-02f,-3.97887044e-02f,
+1.57070830e-01f,+1.40026540e-01f,+1.98573824e-02f,-1.42211914e-01f,+4.46060933e-02f,
+2.03763276e-01f,+1.32482141e-01f,+1.56104177e-01f,+3.95709611e-02f,-1.69617832e-01f,
-1.76306099e-01f,+1.07673399e-01f,+8.07589740e-02f,-2.34393179e-01f,+5.15636504e-02f,
+3.12708139e-01f,+1.36809543e-01f,+1.13520533e-01f,-3.25677022e-02f,+1.87095299e-01f,
+4.35039163e-01f,+1.40717044e-01f,+6.01363294e-02f,-3.00491720e-01f,+1.45737063e-02f,
+6.34225234e-02f,-1.51022106e-01f,-6.75671920e-02f,-5.57967164e-02f,-6.61408231e-02f,
+3.08720767e-02f,+7.01098368e-02f,-2.42195595e-02f,+2.61748940e-01f,-9.68259946e-02f,
-6.03918433e-02f,-2.15280131e-02f,-1.68717373e-02f,+3.00768286e-01f,+7.58459792e-02f,
+7.76514336e-02f,-8.54304135e-02f,+1.73879176e-01f,-8.53759274e-02f,-6.21475987e-02f,
-1.24264881e-01f,+4.64584157e-02f,+1.25959843e-01f,+3.67904566e-02f,+5.88309526e-01f,
-1.89204395e-01f,-1.29387483e-01f,-1.01314951e-02f,+7.98988640e-01f,-1.24626346e-02f,
-7.63014182e-02f,+1.31636038e-01f,-6.80333897e-02f,+1.14533074e-01f,+3.19883116e-02f,
-1.05194747e-01f,+3.22150588e-01f,+4.64277901e-02f,+2.00716350e-02f,+9.05370489e-02f,
-8.00115019e-02f,+1.70172062e-02f,-9.43646058e-02f,-4.85921279e-02f,+2.62714714e-01f,
+3.30432475e-01f,+5.21805920e-02f,-1.10896312e-01f,-7.35691469e-03f,-2.12895647e-02f,
-1.51060065e-02f,-9.82895494e-02f,+1.96065828e-01f,+7.99993277e-02f,+2.51369387e-01f,
-1.90835848e-01f,+6.76341951e-01f,-1.83349758e-01f,+1.73313409e-01f,+2.41210431e-01f,
+7.49292016e-01f,+3.84663381e-02f,-1.79352149e-01f,-1.11788996e-01f,-6.23080842e-02f,
+1.64698958e-01f,-7.34884366e-02f,-9.67531353e-02f,+8.80923420e-02f,-1.50463656e-02f,
+4.52274606e-02f,+1.91631764e-01f,+2.36552861e-02f,-9.60466415e-02f,+3.29059698e-02f,
+9.60377827e-02f,+1.98502526e-01f,+1.17170922e-01f,+1.48850456e-01f,+1.21192880e-01f,
+1.36283934e-02f,-2.43250541e-02f,+7.83281475e-02f,-1.15843914e-01f,+2.55883425e-01f,
+6.18404448e-02f,+2.69512653e-01f,-6.42525926e-02f,+5.12075722e-01f,-1.16868630e-01f,
+1.48600832e-01f,+2.58944243e-01f,+4.10984516e-01f,+7.34431744e-02f,-9.34709460e-02f,
+5.58451600e-02f,-3.50249559e-02f,+1.20329931e-01f,-1.17141478e-01f,-4.04519737e-02f,
+1.22787714e-01f,+9.35415775e-02f,-1.86372876e-01f,-4.54722382e-02f,-1.11196600e-01f,
+7.34716328e-03f,+3.98479961e-02f,+2.30011269e-02f,+2.17806622e-01f,+3.07144731e-01f,
+2.16354653e-01f,-5.02695180e-02f,-8.18782747e-02f,+7.34515563e-02f,-7.85924960e-03f,
-1.04554459e-01f,-7.57024959e-02f,+8.89311433e-02f,+2.65327483e-01f,-1.64365306e-01f,
+3.21396023e-01f,-1.48274332e-01f,+1.77049294e-01f,+3.97353411e-01f,+2.82784432e-01f,
+1.06755361e-01f,-8.50014389e-02f,+1.21769339e-01f,-1.50555978e-02f,-5.18395044e-02f,
+9.28322822e-02f,-7.90182799e-02f,+7.32350349e-02f,+7.40618557e-02f,-2.06750512e-01f,
-8.28381255e-02f,+1.44612461e-01f,-8.25130753e-03f,+3.51613276e-02f,-2.69166939e-03f,
+1.69833954e-02f,+1.29470378e-01f,+1.76883101e-01f,+6.04866669e-02f,-2.66611706e-02f,
-1.00059427e-01f,-7.94086605e-02f,-4.09810580e-02f,-1.58865437e-01f,+1.01132747e-02f,
+3.08390051e-01f,+1.54680982e-01f,+1.28989115e-01f,-2.22696155e-01f,+1.76300377e-01f,
+1.18222266e-01f,+2.28393793e-01f,+2.15861097e-01f,-2.95016378e-01f,+3.39858094e-03f,
+1.03648223e-01f,+1.87823502e-03f,-6.89658299e-02f,-1.01244494e-01f,+2.20848709e-01f,
+1.84373021e-01f,-8.72752890e-02f,+1.08701289e-01f,+2.60987639e-01f,+2.57385373e-02f,
-1.44398380e-02f,+1.71462998e-01f,+1.44666180e-01f,+1.84243634e-01f,+1.11767165e-01f,
+4.93018962e-02f,+1.00524932e-01f,-8.11568927e-03f,-1.08255446e-01f,-7.37570524e-02f,
+2.29653955e-01f,+1.59807075e-02f,+3.46785098e-01f,-1.18863046e-01f,+4.85869408e-01f,
-3.73952687e-01f,-9.95252132e-02f,-1.14019163e-01f,+5.22405505e-01f,+5.36995232e-02f,
-3.27468216e-01f,+3.01010273e-02f,+8.60721022e-02f,+4.49125804e-02f,+1.14732377e-01f,
+1.12567343e-01f,+3.24676931e-01f,-5.43939099e-02f,+3.02773379e-02f,+1.96273234e-02f,
-1.43412754e-01f,-2.37385090e-02f,+2.76267845e-02f,+6.52733445e-02f,+2.25682676e-01f,
+1.67161331e-01f,+6.64876103e-02f,+7.60571882e-02f,+1.45401955e-02f,+1.69234931e-01f,
+8.99765566e-02f,-7.85754770e-02f,+1.12845309e-01f,+3.59987952e-02f,+2.44738832e-01f,
-7.07830265e-02f,+6.47878885e-01f,-3.77487302e-01f,-1.73122380e-02f,+2.00726628e-01f,
+4.28175896e-01f,+4.66885418e-02f,-1.82473600e-01f,+7.40199443e-03f,+3.96537855e-02f,
+1.56414628e-01f,+8.94485563e-02f,+5.03809899e-02f,+1.00613907e-01f,+1.05590947e-01f,
+7.35929906e-02f,+3.30406055e-02f,-1.83168143e-01f,-5.66022657e-02f,-7.39656240e-02f,
+1.57223731e-01f,+2.98061252e-01f,+2.37449229e-01f,-4.75608222e-02f,-2.63828468e-02f,
+6.31900951e-02f,+3.01047228e-03f,-7.47142732e-02f,+1.10154696e-01f,+7.37284496e-03f,
-6.97015151e-02f,+4.01433617e-01f,-1.78631991e-01f,+4.01291430e-01f,-4.91962045e-01f,
+2.19468698e-02f,+1.32802427e-01f,+3.22702855e-01f,+6.95388094e-02f,-1.48093075e-01f,
-1.05274871e-01f,+5.07406071e-02f,+4.25637932e-03f,+7.28366449e-02f,-1.22100040e-01f,
+1.20988570e-01f,+9.60340947e-02f,-5.30605391e-02f,+1.39141217e-01f,-3.50049846e-02f,
-2.31874697e-02f,-4.89135571e-02f,+8.42635110e-02f,+2.67864555e-01f,+6.62224740e-02f,
+2.27538273e-02f,-9.59962755e-02f,+7.34558254e-02f,-6.83994740e-02f,+3.21894512e-02f,
+1.34663999e-01f,+1.27698094e-01f,-6.96689188e-02f,+1.61219567e-01f,-9.51756388e-02f,
+1.68760419e-01f,-2.70117998e-01f,+1.46721959e-01f,+2.18309000e-01f,+2.18153119e-01f,
-3.81237380e-02f,-9.04931501e-02f,-1.30811498e-01f,-8.78471062e-02f,-1.20426595e-01f,
-5.87827824e-02f,-1.58371069e-02f,+2.29171459e-02f,+6.94421213e-03f,-7.79732317e-02f,
-4.45007794e-02f,+1.58890113e-01f,-9.97906476e-02f,+1.07981056e-01f,+1.09437518e-01f,
+1.80342361e-01f,+7.44305998e-02f,-1.00036021e-02f,+9.60681364e-02f,+1.59345299e-01f,
-1.18994065e-01f,+4.83929962e-02f,+6.50437847e-02f,-1.73656613e-01f,+1.20156370e-01f,
+2.66543090e-01f,+2.20553279e-02f,+4.34299111e-02f,-2.81027764e-01f,+1.59546152e-01f,
+2.12866694e-01f,+2.48912543e-01f,+1.12262100e-01f,-2.18846247e-01f,-7.81633928e-02f,
+6.53620735e-02f,-1.41932443e-01f,+1.42564267e-01f,-1.18526548e-01f,+8.06913003e-02f,
+1.26132697e-01f,-7.09980205e-02f,-1.53716758e-01f,+3.36139649e-02f,+3.89991445e-03f,
+1.62802920e-01f,+1.38828736e-02f,-4.95733842e-02f,+1.80078402e-01f,-1.34688001e-02f,
+2.13933922e-02f,+8.26807916e-02f,+1.29529610e-01f,-5.43252081e-02f,+1.91846728e-01f,
+2.55091369e-01f,-6.26063123e-02f,+1.24792390e-01f,-6.69963509e-02f,+3.78940791e-01f,
-5.13570070e-01f,+1.72626927e-01f,-7.98819587e-02f,+4.87707645e-01f,+1.33487999e-01f,
-2.54443049e-01f,+3.87613475e-02f,+1.19882643e-01f,+6.02287613e-02f,+3.05696763e-02f,
+1.17845282e-01f,+3.81420285e-01f,+1.91047311e-01f,-9.96807292e-02f,+6.10551313e-02f,
-1.26469955e-01f,+1.27804592e-01f,-6.87469169e-02f,+1.02409877e-01f,+1.15629986e-01f,
+1.60675198e-01f,+7.59771988e-02f,-1.80104207e-02f,+1.00921459e-01f,-9.67769474e-02f,
+7.95860216e-02f,-1.99988857e-02f,+2.62615323e-01f,-2.22700760e-02f,+8.45562667e-02f,
-2.33546346e-01f,+2.84355283e-01f,-5.74463844e-01f,-1.59092769e-02f,+1.97533622e-01f,
+3.76369894e-01f,+4.49125245e-02f,-1.65029287e-01f,+7.73641691e-02f,-6.42011836e-02f,
+1.33528724e-01f,-8.69271532e-02f,+1.01755641e-01f,+1.07528828e-01f,-3.75533737e-02f,
-7.65804797e-02f,-9.86106470e-02f,-6.03338964e-02f,-2.82558091e-02f,+1.72153302e-02f,
+1.37638599e-01f,+3.49844061e-02f,+1.31749347e-01f,+1.36112601e-01f,-2.45196391e-02f,
-5.65273464e-02f,+2.75573973e-02f,+1.66824777e-02f,-7.99447484e-03f,+2.05239490e-01f,
-9.72918645e-02f,+3.27851564e-01f,+7.17157647e-02f,+2.80900121e-01f,-4.27435100e-01f,
+4.30071615e-02f,+2.28488073e-01f,+2.95225799e-01f,-5.49132843e-03f,-8.32891688e-02f,
-8.52763504e-02f,+2.37046052e-02f,-6.54581338e-02f,+1.49214223e-01f,+1.67082042e-01f,
+8.93708616e-02f,-5.08051403e-02f,+1.09469555e-01f,+1.24365658e-01f,+4.98896092e-02f,
+1.38057843e-01f,+1.13289602e-01f,+8.31384212e-03f,+1.43837869e-01f,+1.87270537e-01f,
-4.99090701e-02f,+5.46699017e-02f,+1.45157129e-01f,-5.86865935e-04f,+4.62063402e-02f,
+5.99488616e-02f,+8.27052370e-02f,-4.62071896e-02f,+1.80089012e-01f,+2.46022306e-02f,
+1.54308811e-01f,-4.88893598e-01f,+7.46640414e-02f,+2.76412040e-01f,+1.91630214e-01f,
-8.93281922e-02f,-1.59975827e-01f,-1.51948154e-01f,+1.74352378e-01f,-2.44985968e-02f,
+1.38971629e-02f,+1.66856349e-01f,+2.69254237e-01f,+1.35927230e-01f,-1.88099429e-01f,
-1.05584085e-01f,+1.02081392e-02f,+3.34973596e-02f,+1.84698850e-01f,+1.21334508e-01f,
-1.30937263e-01f,+2.60101616e-01f,+8.12647045e-02f,+7.56205544e-02f,+1.95164621e-01f,
-2.93536261e-02f,+1.37460336e-01f,+2.20114663e-01f,+4.80320677e-03f,-1.98360696e-01f,
+1.14768915e-01f,+1.36481270e-01f,+9.35282633e-02f,-4.82435971e-01f,+1.24374181e-01f,
+2.41025895e-01f,+8.78456682e-02f,+1.86068676e-02f,-1.42554596e-01f,-1.43114934e-02f,
-2.67633870e-02f,-1.37143493e-01f,+4.70819846e-02f,+5.47472052e-02f,+1.32855609e-01f,
+1.27325520e-01f,-1.80505797e-01f,-1.15811499e-02f,+1.57935947e-01f,-9.64085609e-02f,
+1.74286395e-01f,+6.52391836e-02f,+5.07988520e-02f,+2.35740945e-01f,+3.51224355e-02f,
+4.22554426e-02f,-1.13032095e-01f,+6.86304569e-02f,-1.60139767e-04f,+2.82996476e-01f,
+2.65629798e-01f,-1.67925835e-01f,+2.40584053e-02f,+1.86611265e-02f,+1.87517300e-01f,
-3.75749171e-01f,+8.49773735e-02f,+9.89101082e-02f,+3.55341047e-01f,+6.34579882e-02f,
-1.11877903e-01f,+2.75967959e-02f,+1.54130561e-02f,+1.47001192e-01f,+8.06394592e-02f,
+2.84337997e-01f,+4.32668567e-01f,+2.08891615e-01f,-2.59767711e-01f,-7.96743929e-02f,
-4.32523787e-02f,+1.27815902e-01f,+1.31137669e-01f,+1.82631478e-01f,+1.62826031e-01f,
+1.10939063e-01f,-4.41489182e-02f,+1.74910668e-02f,+2.85687912e-02f,+1.11071214e-01f,
+1.11223355e-01f,+1.20744370e-01f,+7.88298845e-02f,-3.18072677e-01f,+8.87137875e-02f,
-1.98890239e-01f,+1.89890787e-01f,-5.26001215e-01f,+9.37661827e-02f,+1.53073117e-01f,
+3.24350595e-01f,-9.75367706e-03f,-1.57071114e-01f,-1.19662039e-01f,+6.51961286e-03f,
-8.06689039e-02f,-1.25551084e-02f,+1.65005296e-01f,+2.37043694e-01f,+1.68919459e-01f,
-9.46153551e-02f,+3.10363770e-02f,-5.67795709e-03f,+1.62975099e-02f,+6.35726377e-02f,
+3.56382370e-01f,+5.57354763e-02f,+4.02579755e-02f,+5.15339971e-02f,-1.50480336e-02f,
-2.37967391e-02f,+1.30223751e-01f,+2.27159932e-02f,+2.36821890e-01f,+2.84412447e-02f,
-1.08145662e-01f,+2.76602536e-01f,-1.23654559e-01f,-1.17880208e-02f,-5.91864407e-01f,
+6.91104010e-02f,+9.53317583e-02f,+3.26036364e-01f,+5.09525537e-02f,-2.28019625e-01f,
+2.72894576e-02f,-3.50670256e-02f,-6.09681271e-02f,+5.06790169e-02f,+1.67579427e-01f,
+1.90821052e-01f,+3.67555544e-02f,-1.61369506e-04f,-3.65279466e-02f,-3.61719131e-02f,
-7.37000182e-02f,+1.77424625e-01f,+2.74427086e-01f,-1.49200745e-02f,-9.28179771e-02f,
-3.83384526e-02f,-1.18710138e-01f,-1.93799082e-02f,-5.96832372e-02f,+1.39262915e-01f,
+1.05261408e-01f,-3.92289199e-02f,-1.72586560e-01f,+9.97297689e-02f,+6.08610921e-02f,
-1.51282459e-01f,-4.46015626e-01f,+2.22489908e-01f,+3.74355875e-02f,+2.77675241e-01f,
+1.45102009e-01f,+7.83118419e-03f,+3.21158580e-02f,+1.39438584e-01f,+5.07780164e-02f,
-6.32858053e-02f,+3.76898438e-01f,+2.59716451e-01f,+1.65315896e-01f,-1.40810713e-01f,
+4.34874631e-02f,+4.77371477e-02f,+6.43724650e-02f,+1.88687265e-01f,+2.05597356e-01f,
-1.40505835e-01f,-1.06686391e-01f,+2.33174451e-02f,-1.05569266e-01f,-3.95945385e-02f,
+6.12978041e-02f,-7.72510692e-02f,+2.40715697e-01f,+9.04053971e-02f,-2.18129307e-01f,
+6.08871095e-02f,+8.57293084e-02f,+1.71529785e-01f,-3.88323575e-01f,+1.77134022e-01f,
+1.86736822e-01f,+3.07675123e-01f,+1.10982917e-01f,+4.21642177e-02f,-1.80456892e-01f,
-2.04789033e-03f,-6.71754479e-02f,-5.81176672e-03f,+1.92901894e-01f,+3.38166535e-01f,
+2.04690710e-01f,-1.49152443e-01f,-9.01987702e-02f,+1.89797822e-02f,-1.13391913e-01f,
+1.24592766e-01f,+3.49734157e-01f,-1.41847640e-01f,+1.48028150e-01f,+1.37368128e-01f,
}; 
k2c_tensor CONV_2_kernel = {&CONV_2_kernel_array[0],4,800,{5,5,8,4,1}}; 
float CONV_2_bias_array[4] = {0}; 
k2c_tensor CONV_2_bias = {&CONV_2_bias_array[0],1,4,{4,1,1,1,1}}; 

 
size_t CONV_3_stride[2] = {1,1}; 
size_t CONV_3_dilation[2] = {1,1}; 
float CONV_3_output_array[9216] = {0}; 
k2c_tensor CONV_3_output = {&CONV_3_output_array[0],3,9216,{24,24,16, 1, 1}}; 
float CONV_3_kernel_array[576] = {
-1.31768301e-01f,-1.68660507e-02f,+1.67264953e-01f,+1.85017660e-01f,-1.35006338e-01f,
+1.99907452e-01f,+1.60969317e-01f,+1.27792910e-01f,+1.06648810e-01f,-3.34297419e-01f,
+7.98392892e-02f,+9.83850211e-02f,+1.94524806e-02f,-1.48763478e-01f,+1.24348246e-01f,
+1.59311488e-01f,-1.13090307e-01f,-1.63916364e-01f,+1.34068027e-01f,+4.85353842e-02f,
+7.39835575e-02f,-5.32029033e-01f,+4.06986624e-02f,+7.46168420e-02f,-1.21275693e-01f,
+5.51002212e-02f,+1.35124475e-01f,-2.72278059e-02f,+1.59964859e-01f,+1.21072784e-01f,
-2.79255122e-01f,+2.69446194e-01f,-2.86637962e-01f,-8.12352151e-02f,-6.96438970e-03f,
-2.55693108e-01f,-1.37476906e-01f,+2.29306206e-01f,-8.85527655e-02f,-3.06995697e-02f,
-2.16082141e-01f,-2.06787482e-01f,+3.31570953e-02f,+1.02832161e-01f,-3.03766996e-01f,
+3.80323052e-01f,-1.09915994e-01f,-1.53339043e-01f,+4.04180400e-03f,-1.97639331e-01f,
-2.65829086e-01f,+2.73316298e-02f,+9.92473140e-02f,-4.28015226e-03f,+1.80914223e-01f,
-6.13177754e-02f,-3.65179330e-02f,+4.70907502e-02f,-8.63357484e-02f,+2.17552096e-01f,
+3.05939633e-02f,+6.18616380e-02f,-1.47591323e-01f,+1.34095503e-03f,+6.70085624e-02f,
-7.87492171e-02f,+1.77794829e-01f,+2.09091008e-01f,-4.22277674e-03f,-8.46544802e-02f,
+1.12127393e-01f,-9.11218226e-02f,-8.74195546e-02f,-4.20221269e-01f,+1.03217721e-01f,
+1.02905303e-01f,+2.09485088e-02f,-1.69894099e-01f,+1.82416692e-01f,-1.55378044e-01f,
+1.38955638e-01f,-4.67353873e-03f,+1.20615654e-01f,+2.47748615e-03f,-1.87187977e-02f,
-7.99351156e-01f,-1.00805208e-01f,+2.56685298e-02f,-1.14698783e-01f,+3.14185023e-01f,
-1.56637952e-01f,-1.61574259e-02f,-1.21940114e-01f,+2.52943218e-01f,-3.22658271e-01f,
+1.76526949e-01f,-3.15834641e-01f,+8.42235014e-02f,-8.56217518e-02f,-8.95209238e-02f,
+1.42288636e-02f,+1.49909705e-01f,+5.56908809e-02f,+2.14731112e-01f,-3.58440012e-01f,
-2.67348021e-01f,+1.01626933e-01f,+1.78981602e-01f,-7.52518401e-02f,+2.18279794e-01f,
+2.54493747e-02f,-3.43141437e-01f,+1.67631894e-01f,-1.18640982e-01f,+7.70827755e-02f,
-2.26119623e-01f,-7.24163875e-02f,+3.71383391e-02f,+1.19768731e-01f,+2.09846962e-02f,
-5.70417047e-02f,+1.70844287e-01f,+7.19407946e-02f,+1.28503904e-01f,+3.26981843e-02f,
-2.66124923e-02f,-3.53881046e-02f,+5.01183793e-03f,+2.57230010e-02f,+1.65015966e-01f,
+7.19572678e-02f,+1.97418883e-01f,-1.45348236e-01f,-4.59274724e-02f,+4.88927141e-02f,
-7.91831464e-02f,-1.45994092e-03f,-3.50094020e-01f,+1.27794191e-01f,+5.44980876e-02f,
+1.46012023e-01f,-2.15199823e-03f,-2.49207541e-02f,-1.30316660e-01f,+2.55497731e-02f,
-1.70980006e-01f,-8.85876790e-02f,+3.76389772e-02f,+1.62316173e-01f,-5.01750469e-01f,
-1.18498094e-01f,-1.88128918e-01f,+9.61232334e-02f,+1.11732036e-02f,-2.30649576e-01f,
-3.68780792e-02f,-3.02406214e-02f,+2.96734244e-01f,+7.13250414e-02f,+3.95246260e-02f,
-1.25731528e-01f,-3.35581414e-02f,-1.25018865e-01f,-3.33578855e-01f,-1.84142441e-01f,
+1.85578808e-01f,-1.10197991e-01f,+2.48420820e-01f,-2.61995941e-01f,-1.63652092e-01f,
+9.65793207e-02f,+2.15963144e-02f,-1.60904184e-01f,+7.59548098e-02f,+1.69598520e-01f,
-9.59588066e-02f,+2.35777929e-01f,+4.79315482e-02f,-1.96840227e-01f,-8.61984417e-02f,
+1.98375002e-01f,-2.54119217e-01f,+4.72715162e-02f,-5.80758564e-02f,+1.07655942e-01f,
+6.91692084e-02f,-9.01664197e-02f,-1.10788360e-01f,+5.28280437e-02f,-5.22488244e-02f,
+3.37198287e-01f,+2.08214462e-01f,-2.25182682e-01f,+3.24947238e-02f,-1.18588861e-02f,
+1.01383768e-01f,+2.83815991e-02f,-4.78540324e-02f,+2.55389195e-02f,+9.49324667e-03f,
+2.29494050e-01f,-2.08682179e-01f,+1.60165355e-01f,+4.66080122e-02f,+7.83680975e-02f,
+2.65792552e-02f,-2.71941833e-02f,-7.90117681e-02f,+1.47563025e-01f,-1.43899443e-02f,
-8.53576064e-02f,-2.15853062e-02f,-3.03025898e-02f,-5.32978415e-01f,-1.39932230e-01f,
+2.25763351e-01f,+2.10869573e-02f,+1.03349067e-01f,-8.26816261e-02f,+1.55279949e-01f,
-2.33816952e-02f,-3.02328262e-03f,-3.66126895e-01f,-7.89706707e-02f,-2.18558446e-01f,
+7.48392567e-02f,-7.03091919e-02f,-1.60605580e-01f,-1.50708735e-01f,+2.05049381e-01f,
-2.41592050e-01f,+1.68017715e-01f,+3.16115320e-02f,+8.14488828e-02f,+3.79310489e-01f,
+8.67484733e-02f,-1.83866501e-01f,+2.53005385e-01f,-1.30971208e-01f,-1.56128511e-01f,
-8.22422504e-02f,-1.99053928e-01f,-3.29066783e-01f,-1.82603210e-01f,+6.90149143e-02f,
+1.57506630e-01f,+2.66373046e-02f,+6.14115745e-02f,-2.15935335e-01f,+2.34552339e-01f,
+3.26526612e-02f,+1.73226874e-02f,-9.09719169e-02f,-7.19440281e-02f,+4.36793752e-02f,
+1.43938988e-01f,-1.74808681e-01f,-2.20079720e-02f,-9.16686375e-03f,+1.15292836e-02f,
-2.71245977e-03f,+1.88556075e-01f,-9.98277441e-02f,+1.25551865e-01f,-5.88148311e-02f,
-2.50469893e-01f,+2.03149602e-01f,+4.28482005e-03f,-5.25937714e-02f,-1.83969289e-01f,
+2.19962984e-01f,+8.99892021e-03f,+1.32272065e-01f,+7.06842020e-02f,+1.51126444e-01f,
-7.58245662e-02f,+1.42398581e-01f,-3.91826957e-01f,-7.09571503e-03f,+1.70116305e-01f,
+1.71066802e-02f,+1.17974132e-01f,-5.66078536e-02f,+8.27194750e-02f,+1.13165766e-01f,
+9.48099941e-02f,-3.10699940e-01f,+2.30259329e-01f,-3.67875621e-02f,-2.40448251e-01f,
-6.25148043e-02f,-2.97551006e-01f,-2.56832182e-01f,+2.16051728e-01f,-1.20390080e-01f,
+4.64413548e-03f,-2.92631667e-02f,+7.87122175e-02f,+2.29538813e-01f,-5.25605269e-02f,
-1.28131434e-01f,+1.19693592e-01f,-1.06665958e-03f,-4.22846973e-01f,+1.80482492e-01f,
+1.61289439e-01f,-2.54575573e-02f,-2.44627193e-01f,+1.79124147e-01f,+1.82770621e-02f,
+9.25264359e-02f,-1.56919003e-01f,-1.06092274e-01f,-6.29885495e-02f,+8.51683989e-02f,
-9.56020355e-02f,-4.53975499e-02f,-5.30363768e-02f,-7.46374652e-02f,+7.26750121e-02f,
+1.45150498e-01f,+2.59097636e-01f,+1.53264865e-01f,+1.09564871e-01f,+8.96866769e-02f,
+1.72458604e-01f,-1.20487362e-01f,+1.36245206e-01f,-7.78182782e-03f,-2.82312870e-01f,
+1.88943863e-01f,+1.48532584e-01f,+1.71714202e-01f,+1.21346444e-01f,-1.37026431e-02f,
-7.58046582e-02f,-1.68848425e-01f,+2.28495635e-02f,+1.83511913e-01f,+1.04343720e-01f,
+1.87990457e-01f,-1.58459097e-01f,+1.03156030e-01f,-9.02895480e-02f,+1.66234806e-01f,
-2.13976558e-02f,+3.83394808e-02f,-1.45146027e-01f,+9.69043225e-02f,+2.92652790e-02f,
+2.92307109e-01f,+2.41181329e-01f,-1.19936533e-01f,-6.12978376e-02f,-2.04346746e-01f,
-3.40766162e-01f,-2.15266570e-01f,-3.79819795e-02f,-1.98399648e-01f,+8.62793550e-02f,
-2.17418373e-01f,+5.94871342e-02f,+2.92905152e-01f,+1.02456853e-01f,-4.68070917e-02f,
+2.44434446e-01f,-5.72191402e-02f,-3.44673693e-01f,+2.51131207e-01f,-5.04685156e-02f,
-2.23498330e-01f,-1.91486046e-01f,+2.07241505e-01f,+1.87667966e-01f,+2.37962157e-01f,
+4.40592319e-02f,-1.25049502e-01f,-1.85354017e-02f,+1.36971712e-01f,-9.89313349e-02f,
-1.06497064e-01f,-5.05312346e-02f,+7.11894855e-02f,-7.73172006e-02f,+6.16732463e-02f,
-1.16486996e-01f,+1.70172438e-01f,-5.62568121e-02f,-2.57269721e-02f,-4.22664769e-02f,
-9.62917358e-02f,+5.65779246e-02f,+5.45298457e-02f,-3.96185726e-01f,+9.72951651e-02f,
+1.77627116e-01f,+2.09421679e-01f,-5.19336127e-02f,+8.36985931e-02f,-1.29035741e-01f,
+1.59927756e-01f,-1.24096923e-01f,+4.40091267e-02f,+1.69385090e-01f,+4.59724441e-02f,
-8.41139928e-02f,-1.07943982e-01f,+2.24699527e-01f,+1.41450614e-01f,+6.99520633e-02f,
-1.31103128e-01f,+6.37450442e-02f,+1.31636858e-01f,-9.65845492e-03f,-3.02127123e-01f,
+4.30239663e-02f,-1.51145652e-01f,-2.73489803e-01f,-2.98554808e-01f,-2.07488760e-01f,
-1.30069599e-01f,+2.20032960e-01f,-1.00519322e-02f,+2.45834708e-01f,-1.83422547e-02f,
+2.67138444e-02f,+4.29611444e-01f,+1.81599215e-01f,+5.96986078e-02f,+2.80541450e-01f,
-9.40583274e-02f,-5.22622705e-01f,+1.00612067e-01f,-9.22710225e-02f,-3.35364878e-01f,
-2.05986321e-01f,+3.49746980e-02f,+2.99351305e-01f,+1.18776716e-01f,+2.44073030e-02f,
-2.23376811e-01f,+1.71070769e-01f,-3.40065844e-02f,-1.90488040e-01f,-3.37777525e-01f,
-1.90592304e-01f,-1.65968835e-01f,-1.04361966e-01f,-2.32245643e-02f,-1.16489314e-01f,
+2.77849495e-01f,+2.40041867e-01f,-2.44077802e-01f,-5.12235649e-02f,+1.72473453e-02f,
+1.27042741e-01f,+1.66331548e-02f,-3.90177518e-01f,+1.55244634e-01f,-4.12186868e-02f,
+5.80483824e-02f,+6.84730932e-02f,+1.67420223e-01f,-1.11523405e-01f,-1.64048467e-02f,
-1.58675030e-01f,+1.85308278e-01f,+1.26500830e-01f,+8.59216005e-02f,-2.14986309e-01f,
-8.75974298e-02f,-1.32262558e-01f,+3.59553903e-01f,+2.15404537e-02f,-1.02138892e-01f,
-4.55717230e-03f,+3.53706516e-02f,-1.01758592e-01f,-2.23744839e-01f,+4.95999493e-02f,
-2.19350252e-02f,-1.56432092e-01f,-2.91040570e-01f,-4.93916869e-02f,-2.05426738e-01f,
+1.69372976e-01f,+6.22839928e-02f,-4.08149138e-02f,+1.67617723e-01f,-7.55902529e-02f,
+2.09253669e-01f,-2.28215214e-02f,+1.39827177e-01f,+1.64519012e-01f,+1.50930598e-01f,
-2.54070222e-01f,+6.80118352e-02f,-1.17427316e-02f,-2.44264990e-01f,-1.62533700e-01f,
-1.31008685e-01f,+2.16189846e-01f,+8.35292879e-03f,-1.59852087e-01f,-5.43977432e-02f,
-6.48273826e-02f,-2.36784201e-02f,-5.84428012e-02f,-2.93451846e-01f,+1.45685030e-02f,
+1.31400108e-01f,+1.47899594e-02f,-1.69977665e-01f,-1.13471813e-01f,+5.13082333e-02f,
+1.16763316e-01f,-1.30418181e-01f,+1.16497837e-01f,-1.16365105e-01f,-3.49655412e-02f,
+1.09264493e-01f,-2.70044982e-01f,+1.62741348e-01f,+1.19591333e-01f,+9.76727605e-02f,
-1.07570877e-02f,+1.46315778e-02f,+4.02957276e-02f,+1.07778266e-01f,+4.12800983e-02f,
+1.07208773e-01f,+2.29974210e-01f,+1.99126657e-02f,+8.51726159e-02f,+9.90924463e-02f,
-1.73368767e-01f,+3.54402035e-01f,+1.10632136e-01f,-3.29814941e-01f,+3.81596498e-02f,
-7.27009326e-02f,+3.31233884e-03f,+2.27806181e-01f,-9.03682411e-02f,-1.16557777e-01f,
+3.07043493e-02f,-1.69247240e-01f,-1.29632220e-01f,-2.22335428e-01f,-8.16572458e-02f,
-2.54286796e-01f,+2.59813040e-01f,-1.71886891e-01f,+1.61932707e-01f,+2.65701026e-01f,
-9.71163586e-02f,+5.77885956e-02f,+2.52268791e-01f,+2.61824206e-02f,-5.06589413e-01f,
-2.16324423e-02f,+2.50285208e-01f,-1.10219037e-02f,-1.71182230e-02f,+2.52204329e-01f,
+1.97752967e-01f,+2.57874459e-01f,-9.27971527e-02f,+6.51745172e-03f,+7.51415938e-02f,
-4.22832780e-02f,+4.05374989e-02f,-1.25572188e-02f,-1.34954676e-01f,+2.59366363e-01f,
+1.40142500e-01f,}; 
k2c_tensor CONV_3_kernel = {&CONV_3_kernel_array[0],4,576,{ 3, 3, 4,16, 1}}; 
float CONV_3_bias_array[16] = {0}; 
k2c_tensor CONV_3_bias = {&CONV_3_bias_array[0],1,16,{16, 1, 1, 1, 1}}; 

 
size_t CONV_4_stride[2] = {1,1}; 
size_t CONV_4_dilation[2] = {1,1}; 
float CONV_4_output_array[1296] = {0}; 
k2c_tensor CONV_4_output = {&CONV_4_output_array[0],3,1296,{18,18, 4, 1, 1}}; 
float CONV_4_kernel_array[3136] = {
+5.80780543e-02f,+2.17710324e-02f,+8.56940448e-02f,-4.18591946e-02f,-1.33230209e-01f,
-2.85732490e-03f,+2.52044559e-01f,-1.22153834e-01f,+1.22435778e-01f,+7.52444863e-02f,
+8.14263076e-02f,+6.34344369e-02f,+5.06173968e-02f,+2.42926210e-01f,+1.63454801e-01f,
+4.20857109e-02f,+4.08576950e-02f,+1.01841509e-01f,+1.29496098e-01f,-8.13137591e-02f,
-1.82304412e-01f,-6.74409151e-01f,+6.85268939e-02f,+8.52161050e-01f,+2.54666386e-03f,
-1.13163292e-01f,+3.70992385e-02f,-9.39474925e-02f,+1.43964320e-01f,+6.64073601e-02f,
-6.21223897e-02f,+2.57258750e-02f,+5.40365763e-02f,-6.12109806e-03f,+1.01778567e-01f,
+2.98207015e-01f,-1.61199197e-01f,+5.58725834e-01f,-2.58480102e-01f,+1.56756684e-01f,
-4.20375466e-02f,-2.31518254e-01f,+9.66585334e-03f,+1.95939243e-01f,+1.48926944e-01f,
+5.74578866e-02f,+1.08915769e-01f,-4.49848536e-04f,+1.42985657e-01f,+9.51812789e-02f,
+9.14397389e-02f,+1.59836989e-02f,-4.92423167e-03f,+2.24729985e-01f,-5.84096685e-02f,
+3.18195559e-02f,-2.68925667e-01f,-6.03663027e-01f,+2.87636012e-01f,+5.72229922e-01f,
+7.36808479e-02f,+1.19656332e-01f,+6.43827096e-02f,-4.83212769e-02f,+8.78761336e-02f,
-4.52164328e-04f,+1.34528980e-01f,-1.32319286e-01f,-5.27091846e-02f,-5.64395823e-02f,
+1.98174015e-01f,-8.10268298e-02f,+6.94383681e-02f,+1.20966762e-01f,+1.04614303e-01f,
+7.84742311e-02f,-6.74574375e-02f,+2.19734490e-01f,+1.19971052e-01f,+9.80168134e-02f,
+1.10048048e-01f,-5.88869676e-03f,+5.11535406e-02f,-4.32129130e-02f,-2.14087427e-01f,
-4.66522932e-01f,-1.58829242e-01f,+6.82330132e-01f,+4.83869240e-02f,-1.27122104e-01f,
+5.80055788e-02f,-1.91185951e-01f,+5.52031808e-02f,+1.49702042e-01f,-8.55170786e-02f,
+3.83998714e-02f,+5.16853072e-02f,-3.44107300e-02f,+1.39358193e-01f,+3.50819528e-01f,
-2.20928639e-01f,+5.16837478e-01f,-1.69134080e-01f,+2.63885617e-01f,+7.21138343e-02f,
-1.90569758e-01f,-1.73165963e-03f,+8.27344209e-02f,+2.69223452e-02f,-2.94647999e-02f,
+1.10335775e-01f,-6.39746785e-02f,-3.64533067e-02f,-8.40402488e-03f,+5.17386906e-02f,
+2.16124784e-02f,+2.91086007e-02f,+1.17679425e-01f,-7.42624551e-02f,-2.86332797e-02f,
-2.16296837e-01f,-4.37784404e-01f,+2.87251800e-01f,+4.79346454e-01f,+4.79806066e-02f,
-7.65071670e-03f,+1.25553012e-01f,-5.64215071e-02f,-1.15875760e-02f,-3.01695783e-02f,
+1.19638585e-01f,-4.12306376e-02f,-1.08223952e-01f,-2.82011703e-02f,+1.45965278e-01f,
+3.60727799e-03f,+6.77980483e-02f,+1.63324118e-01f,+1.63481936e-01f,+2.90721226e-02f,
+4.41801772e-02f,+2.03657001e-01f,+5.17090559e-02f,+8.06951448e-02f,+6.46716729e-02f,
-9.03401524e-02f,+1.21275388e-01f,+5.80390124e-03f,-3.23588014e-01f,-3.40445220e-01f,
-3.08105052e-01f,+6.77416205e-01f,-2.30244175e-02f,-1.12906553e-01f,+8.65716562e-02f,
-1.36990815e-01f,+8.45595747e-02f,+1.47044972e-01f,-9.00998861e-02f,+4.70407754e-02f,
-2.70386524e-02f,+5.47792539e-02f,+1.07907593e-01f,+3.02969784e-01f,-1.88776016e-01f,
+4.08454835e-01f,-1.06608719e-01f,+3.48089188e-01f,+2.74805333e-02f,-1.35542780e-01f,
-6.78543895e-02f,+1.11341709e-02f,+7.54866078e-02f,+5.22583611e-02f,+1.50582837e-02f,
-8.93525779e-02f,+4.76767793e-02f,+1.00389041e-01f,+7.11054057e-02f,-4.73970994e-02f,
+2.61643380e-02f,+1.65625334e-01f,-2.67662462e-02f,-1.14740357e-02f,-2.71445811e-01f,
-2.31217623e-01f,+1.67750597e-01f,+3.57530504e-01f,+3.39015969e-03f,-2.26829853e-02f,
+1.74529701e-01f,+7.10345358e-02f,+8.19044411e-02f,-8.99008363e-02f,+9.91267338e-02f,
-5.85563183e-02f,+5.65544814e-02f,-2.65293922e-02f,+1.12650938e-01f,+7.32771829e-02f,
+3.65552083e-02f,+6.64215237e-02f,+1.87734775e-02f,+5.09654656e-02f,-6.54478073e-02f,
+1.66754022e-01f,+1.72204282e-02f,+1.31117284e-01f,+4.20892686e-02f,-1.40047716e-02f,
+7.28962421e-02f,-1.70304347e-02f,-4.02662486e-01f,-2.48949215e-01f,-2.90956348e-01f,
+6.10895574e-01f,+6.95712268e-02f,-3.20445485e-02f,+1.41372144e-01f,-9.53449532e-02f,
+1.15496837e-01f,+4.25879322e-02f,-7.10944384e-02f,+4.14087921e-02f,+1.97212510e-02f,
+4.74072946e-03f,+1.15478218e-01f,+2.90478081e-01f,-2.79591262e-01f,+4.14701462e-01f,
-7.94058591e-02f,+2.49633297e-01f,-1.24640893e-02f,+1.93133205e-02f,-3.02190445e-02f,
-8.46823975e-02f,+1.13132350e-01f,+3.17907077e-03f,+7.24379644e-02f,+4.30046953e-02f,
+3.72863822e-02f,+1.47933085e-02f,+1.54739141e-01f,+7.55927116e-02f,+5.32281399e-03f,
+2.14395404e-01f,-9.66448486e-02f,-1.69924740e-02f,-2.90060073e-01f,-1.38208821e-01f,
+2.03395143e-01f,+3.42698216e-01f,+4.23112735e-02f,-4.15562317e-02f,+8.32703412e-02f,
-2.59373733e-03f,-1.63050555e-02f,-1.08961239e-01f,+1.29564598e-01f,-8.63506570e-02f,
+5.46504445e-02f,-5.32759763e-02f,+4.55695167e-02f,+3.14500853e-02f,+1.60090812e-02f,
+6.71471283e-02f,+1.15685724e-01f,+1.05507851e-01f,+9.69783310e-03f,+2.43164197e-01f,
+5.53445134e-04f,+8.03886428e-02f,+1.06012195e-01f,+3.28828879e-02f,+1.23616450e-01f,
-6.02421463e-02f,-4.59262103e-01f,-3.79294723e-01f,-2.28301659e-01f,+6.15611136e-01f,
-1.56426616e-03f,-1.26916006e-01f,+1.94657579e-01f,-8.95483196e-02f,+7.78984949e-02f,
+1.01397373e-01f,-4.11672741e-02f,-1.21091644e-03f,+2.60884669e-02f,+9.83228907e-02f,
+8.74094293e-02f,+2.33327389e-01f,-2.11882949e-01f,+4.39955860e-01f,-1.04099683e-01f,
+2.68748611e-01f,-2.76031028e-02f,-2.86143310e-02f,+3.62994783e-02f,-1.27825711e-03f,
-4.14458755e-03f,+3.53304259e-02f,+4.24894802e-02f,-4.02278546e-03f,-3.77597213e-02f,
+8.11669007e-02f,+4.37866971e-02f,-5.40283360e-02f,+4.92289551e-02f,+2.68913686e-01f,
-3.59222181e-02f,-6.15590103e-02f,-4.16229218e-01f,-2.00803950e-01f,+1.37173116e-01f,
+2.83683240e-01f,+3.83783244e-02f,-4.61568870e-02f,+2.04048678e-01f,+1.84747614e-02f,
-3.44846547e-02f,-4.06167731e-02f,+1.34946674e-01f,+5.61168231e-02f,+7.18414970e-03f,
-8.15443136e-03f,+1.11176692e-01f,+6.92254677e-02f,+1.33179560e-01f,+2.19823107e-01f,
+2.28160936e-02f,+2.45895647e-02f,+1.02344170e-01f,+2.05987766e-01f,-4.82582347e-03f,
+8.68623927e-02f,+7.28765577e-02f,+8.41978714e-02f,+4.81806658e-02f,-7.36528113e-02f,
-5.42890191e-01f,-5.20153165e-01f,-1.12484299e-01f,+7.27507532e-01f,-6.50102124e-02f,
-2.41252668e-02f,+1.39147550e-01f,-5.18783145e-02f,+3.31587903e-02f,+1.00935079e-01f,
-2.68719196e-02f,+7.97441974e-02f,+6.54315799e-02f,+1.71352953e-01f,-4.78495359e-02f,
+2.48224273e-01f,-2.68215090e-01f,+4.41257119e-01f,-1.37723237e-01f,+3.93426806e-01f,
-1.07717693e-01f,-4.17200103e-02f,+1.95108932e-02f,+1.70591529e-02f,+5.95942773e-02f,
+7.27614388e-02f,-1.71566550e-02f,+3.09273321e-03f,+5.31589724e-02f,+3.97453085e-03f,
+6.17157742e-02f,-7.91737624e-03f,+1.07997535e-02f,+3.16319704e-01f,-1.16846688e-01f,
-6.40343577e-02f,-4.02973056e-01f,-1.36813790e-01f,+1.05004497e-01f,+2.91414320e-01f,
+2.35252734e-02f,+1.36753246e-01f,+4.61326353e-02f,+6.18471578e-02f,-9.78511050e-02f,
+6.22842349e-02f,+3.96876819e-02f,-7.05630556e-02f,+1.66996140e-02f,-7.51568452e-02f,
+1.11541254e-02f,+1.09500371e-01f,+1.59978047e-01f,+2.23457605e-01f,+3.26988026e-02f,
+2.59682070e-03f,+1.85177088e-01f,+2.16010869e-01f,+1.88363157e-02f,+9.35770124e-02f,
-5.91065809e-02f,+2.18259007e-01f,+2.74783708e-02f,-1.33397266e-01f,-5.73233962e-01f,
-8.35995197e-01f,+7.67099708e-02f,+9.04886782e-01f,-1.46944955e-01f,-9.20058344e-04f,
+5.94030693e-02f,-7.95384273e-02f,+2.29730457e-02f,-4.65429127e-02f,+1.80500541e-02f,
+9.36062187e-02f,-3.81196588e-02f,+2.57985085e-01f,-1.06585979e-01f,+2.19573632e-01f,
-3.08186114e-01f,+5.74590385e-01f,-1.34195864e-01f,+2.44546220e-01f,-1.44570604e-01f,
-1.28235891e-01f,+1.27077013e-01f,+4.74485382e-03f,+8.50208923e-02f,+5.08469902e-02f,
+9.71597657e-02f,-4.81998473e-02f,-6.33803904e-02f,+1.45318294e-02f,+1.55835167e-01f,
+6.12525828e-02f,+1.11360326e-01f,+3.02701622e-01f,-1.13196939e-01f,-1.62880629e-01f,
-5.06466329e-01f,-1.02744445e-01f,+3.02593917e-01f,+2.15309501e-01f,-2.88157184e-02f,
+1.24211349e-01f,+5.95875718e-02f,-5.14900163e-02f,+6.52189925e-02f,-1.36418093e-04f,
+8.09824914e-02f,-1.00058325e-01f,-8.03173929e-02f,-5.84451742e-02f,+2.51462519e-01f,
-1.04408026e-01f,+8.47473741e-02f,+5.13712801e-02f,+6.62680641e-02f,-4.64507490e-02f,
-1.34217774e-03f,+1.61398232e-01f,+1.41953751e-01f,+1.67268626e-02f,+1.22892916e-01f,
-1.06436750e-02f,+5.31710573e-02f,-7.06008226e-02f,-2.70425022e-01f,-6.06446028e-01f,
+6.54316694e-02f,+6.13187790e-01f,+6.08172864e-02f,-5.19206934e-02f,+1.06610069e-02f,
-1.02936052e-01f,+6.75692558e-02f,+1.56690478e-01f,+2.89737061e-02f,-3.73715982e-02f,
+6.09910972e-02f,-6.10506795e-02f,+1.25493780e-01f,+2.26107091e-01f,-2.21967071e-01f,
+4.45081800e-01f,-1.08145058e-01f,+2.68900514e-01f,+2.19369661e-02f,-1.30235121e-01f,
+2.16256753e-02f,+1.67525694e-01f,+1.20609999e-01f,-4.49681394e-02f,+8.97895843e-02f,
-5.04431129e-02f,+9.64043066e-02f,-2.81051872e-03f,+1.48891225e-01f,-4.26551364e-02f,
-1.74393610e-03f,+9.91120562e-02f,+1.87431388e-02f,+7.34425113e-02f,-3.26495081e-01f,
-4.79743659e-01f,+2.91967660e-01f,+5.64276874e-01f,+4.21815291e-02f,+1.18133955e-01f,
+1.28392622e-01f,-2.13081413e-03f,+1.98099436e-03f,+2.25235149e-02f,+1.13577303e-02f,
-5.43877184e-02f,+1.85976997e-02f,+3.51834260e-02f,+2.04685986e-01f,-1.34299964e-01f,
+1.23741040e-02f,+1.41284898e-01f,+1.88035876e-01f,+5.01032397e-02f,+4.59007286e-02f,
+1.92162991e-01f,+9.46942940e-02f,+8.32495689e-02f,-1.16274087e-02f,-7.14085028e-02f,
+1.18114561e-01f,-1.32998936e-02f,-2.83739597e-01f,-3.29694062e-01f,-1.21606020e-02f,
+3.72077644e-01f,+9.19742659e-02f,-1.11476302e-01f,-6.32295758e-03f,-6.36822507e-02f,
+9.16079283e-02f,+7.65233254e-03f,-3.07828225e-02f,+3.32831815e-02f,-6.11562794e-03f,
-8.63802433e-02f,+1.12322100e-01f,+2.21446365e-01f,-1.60118714e-01f,+3.41490239e-01f,
-6.58047050e-02f,+4.21398908e-01f,+8.37498624e-03f,-3.01555935e-02f,-2.54216623e-02f,
-4.16895077e-02f,+1.24446921e-01f,-8.56882483e-02f,+1.22814318e-02f,-4.48292159e-02f,
+6.51903450e-02f,+5.67527041e-02f,+7.20528290e-02f,+4.89908159e-02f,-6.85100863e-03f,
+8.40352327e-02f,+2.87807807e-02f,+2.62587536e-02f,-2.25737989e-01f,-2.95866609e-01f,
+2.82390147e-01f,+3.05419058e-01f,+1.24252535e-01f,-3.10226227e-03f,+1.33849487e-01f,
+6.32024882e-03f,+5.48311174e-02f,-2.72887701e-04f,+1.08895451e-01f,+3.12043410e-02f,
-5.64489961e-02f,+9.18131880e-03f,+1.22003667e-01f,-1.16821967e-01f,+2.72726063e-02f,
+6.51353672e-02f,+1.88188761e-01f,+6.50140122e-02f,+3.42893675e-02f,+5.64411283e-02f,
+1.28770903e-01f,+6.17404878e-02f,+1.01901680e-01f,-8.09625629e-03f,+1.08821519e-01f,
-4.00062203e-02f,-4.21990156e-01f,-2.78417230e-01f,-2.67719179e-01f,+3.25724751e-01f,
+1.47778347e-01f,-1.20415747e-01f,+4.31678258e-02f,-8.40294585e-02f,-1.48022315e-02f,
+9.54127535e-02f,+3.57378945e-02f,+6.31003156e-02f,-4.93597351e-02f,+1.11799873e-02f,
+4.36754823e-02f,+3.52600813e-01f,-2.86959052e-01f,+3.40166062e-01f,-3.34491804e-02f,
+3.12197089e-01f,-1.75832566e-02f,+6.98542735e-03f,+2.26843376e-02f,-1.55650169e-01f,
-4.26850356e-02f,-2.23630760e-02f,+1.20646276e-01f,+5.90744987e-02f,+5.66083044e-02f,
+6.55027106e-02f,+5.75606525e-02f,+6.92782551e-02f,-1.40048917e-02f,+1.58051819e-01f,
+3.17378752e-02f,+3.83131877e-02f,-3.10682923e-01f,-1.61678120e-01f,+8.69554877e-02f,
+2.57762611e-01f,+1.55785084e-01f,+2.89554931e-02f,+9.05828625e-02f,+4.94703427e-02f,
+5.73770069e-02f,+1.35342944e-02f,+5.81546035e-03f,-5.15577709e-03f,-6.07519858e-02f,
+3.36532085e-03f,+7.37702325e-02f,-4.81753089e-02f,-1.90049559e-02f,+9.12572742e-02f,
+1.86164930e-01f,+5.35467155e-02f,+3.31493467e-02f,+7.67897740e-02f,+6.42849579e-02f,
+8.01116973e-02f,+1.21131893e-02f,+1.78743172e-02f,+1.02065496e-01f,-5.27423844e-02f,
-4.74709451e-01f,-2.36443862e-01f,-2.27590784e-01f,+2.65496135e-01f,+4.30166349e-03f,
-1.29634660e-04f,-9.88060795e-03f,-9.47382599e-02f,-1.36281485e-02f,+2.74176709e-02f,
+3.84920761e-02f,+6.13234267e-02f,+9.59757529e-03f,-1.97537653e-02f,+1.22138694e-01f,
+2.43287697e-01f,-1.77752569e-01f,+2.57426471e-01f,-8.48609656e-02f,+4.12747234e-01f,
+1.90188293e-03f,+1.74118150e-02f,+5.75151592e-02f,-1.39373064e-01f,-1.45338625e-02f,
+5.25021814e-02f,+6.91871122e-02f,-9.51538607e-02f,-5.14108464e-02f,-5.69503829e-02f,
+8.06306601e-02f,-3.68012749e-02f,+7.06367418e-02f,+1.62015304e-01f,+4.16679727e-03f,
+1.45751880e-02f,-3.00152391e-01f,-1.79066900e-02f,+1.87367767e-01f,+2.34259233e-01f,
+6.31055385e-02f,+6.61260262e-02f,+7.63859749e-02f,+1.03284912e-02f,+3.86463404e-02f,
-1.22175731e-01f,+1.21867396e-01f,+1.23119503e-02f,-3.44022922e-03f,-9.73123834e-02f,
+1.47694750e-02f,+6.73054680e-02f,-2.35996805e-02f,+1.00197434e-01f,+4.37881202e-02f,
+1.24143576e-02f,+8.54140744e-02f,+7.33060762e-02f,+6.82092905e-02f,+1.65000901e-01f,
+1.67361293e-02f,+1.78408008e-02f,+1.14581726e-01f,+8.07177275e-02f,-5.63504398e-01f,
-2.62138337e-01f,-1.79817960e-01f,+3.13628674e-01f,-2.56015286e-02f,-1.06682904e-01f,
+1.67544894e-02f,-1.52588472e-01f,-6.96903020e-02f,+3.53326872e-02f,-3.11154742e-02f,
-2.81684753e-02f,+4.32482222e-03f,-4.21464667e-02f,+6.52804971e-02f,+3.07340235e-01f,
-2.30302244e-01f,+2.59060532e-01f,-4.35557216e-02f,+3.41978520e-01f,-1.53754922e-02f,
-7.14188442e-02f,-3.60917463e-03f,-1.02392524e-01f,+4.48460393e-02f,+5.23061678e-02f,
+5.79287484e-02f,-6.95763454e-02f,-8.67042877e-03f,+6.72748312e-02f,+1.22483283e-01f,
+6.58264831e-02f,-2.89026536e-02f,+7.17339665e-02f,+3.08826678e-02f,+3.45255397e-02f,
-3.12600136e-01f,+2.05342900e-02f,+1.10116750e-01f,+2.17081100e-01f,+9.32421237e-02f,
-5.30500524e-03f,+6.61861524e-02f,+7.20865130e-02f,-2.52683796e-02f,-3.52817252e-02f,
+1.29603952e-01f,-4.04159129e-02f,-4.58545014e-02f,-8.38996544e-02f,+7.94210956e-02f,
-3.26365530e-02f,+7.60496454e-03f,+1.36308491e-01f,+7.93810114e-02f,+6.60120472e-02f,
+7.09820073e-03f,+1.85947105e-01f,+1.44799024e-01f,+1.40385851e-01f,-1.68321375e-02f,
+4.74628806e-02f,-1.27873197e-03f,+5.79732805e-02f,-4.80253786e-01f,-4.06363159e-01f,
-8.85012746e-02f,+4.51953113e-01f,+1.92755219e-02f,-5.94865605e-02f,+1.28417000e-01f,
-9.04038250e-02f,-5.42834848e-02f,-3.09966840e-02f,+5.10284081e-02f,+1.33272603e-01f,
+3.47634442e-02f,+1.34429798e-01f,-1.01381904e-02f,+2.24534646e-01f,-2.55740613e-01f,
+3.20417792e-01f,-1.09892473e-01f,+3.70797634e-01f,-2.74802209e-03f,-1.02245718e-01f,
-1.27680190e-02f,-8.25304613e-02f,+9.02422369e-02f,-4.66666706e-02f,-1.95181221e-02f,
-8.45288709e-02f,-6.77241236e-02f,-4.42562513e-02f,+9.32583809e-02f,+4.61808704e-02f,
-4.25097086e-02f,+1.17544323e-01f,-7.82657117e-02f,+3.25383479e-03f,-3.79554749e-01f,
+1.45753056e-01f,+6.00785799e-02f,+1.39149413e-01f,+9.44857150e-02f,-1.98596548e-02f,
+1.61408529e-01f,+5.79509735e-02f,-8.98431167e-02f,+9.57581028e-02f,+1.26995608e-01f,
-8.26784000e-02f,-2.63277739e-02f,+8.55411775e-03f,+1.24602742e-01f,-4.22007311e-03f,
+1.12740472e-01f,+1.53154790e-01f,-1.78754982e-02f,+8.16307068e-02f,+1.68060243e-01f,
+1.48837566e-01f,+2.87965842e-04f,+1.63212493e-02f,-8.23745206e-02f,+1.35459170e-01f,
+5.15065342e-03f,-6.20627552e-02f,-5.26361763e-01f,-5.84276259e-01f,+4.94450778e-02f,
+5.58169246e-01f,-7.45895952e-02f,+7.47017562e-02f,+1.02430090e-01f,-1.36481851e-01f,
+9.62912012e-03f,-1.26093134e-01f,+1.06680812e-02f,+1.88713104e-01f,+2.54991092e-02f,
+8.81246701e-02f,+4.45623100e-02f,+1.75231293e-01f,-2.00331241e-01f,+4.31693971e-01f,
-1.03242747e-01f,+2.93252558e-01f,-9.62649062e-02f,-1.53905302e-01f,+7.94995427e-02f,
+2.30913702e-02f,+5.42616099e-02f,-6.64568171e-02f,+3.28200459e-02f,+4.77825142e-02f,
-1.55853098e-02f,+3.43201682e-02f,+7.56397843e-02f,+7.78523013e-02f,+8.97971168e-02f,
+1.78293735e-01f,-3.00872475e-02f,+5.46732135e-02f,-5.51228940e-01f,+1.18638001e-01f,
+2.33748227e-01f,+1.74643323e-01f,+4.04325202e-02f,+1.50443479e-01f,+1.07840691e-02f,
-1.74554326e-02f,+1.38014838e-01f,-6.74828365e-02f,+8.93462449e-03f,-1.24246068e-01f,
-9.11850557e-02f,+5.16294874e-02f,+2.01983482e-01f,-1.53584659e-01f,+1.59660876e-01f,
+7.71408677e-02f,+1.80842295e-01f,-4.71572541e-02f,+9.20844525e-02f,+1.61544502e-01f,
+1.23623885e-01f,+2.42734384e-02f,-1.11329947e-02f,-6.40148669e-02f,+3.31379883e-02f,
-1.02883175e-01f,-2.20363885e-01f,-3.87827009e-01f,+1.78065866e-01f,+4.42374229e-01f,
+7.91572332e-02f,-1.11158274e-01f,+8.32977667e-02f,-4.63605560e-02f,+1.40257567e-01f,
+3.89340222e-02f,+3.01682986e-02f,+8.56521279e-02f,+2.25008745e-02f,-7.31788278e-02f,
+1.38240278e-01f,+1.71679184e-01f,-9.64148790e-02f,+3.15882474e-01f,-1.65292352e-01f,
+2.13485137e-01f,-1.17855027e-01f,-1.33517176e-01f,+7.15732723e-02f,+2.12766603e-02f,
+3.81303728e-02f,-7.88296163e-02f,+8.66957679e-02f,-4.96691205e-02f,+7.27766380e-02f,
+9.57418159e-02f,+4.01060730e-02f,-6.62096217e-02f,+6.37019873e-02f,-5.72121069e-02f,
+1.25639901e-01f,+1.09323867e-01f,-3.56646478e-01f,-3.74240100e-01f,+2.76067287e-01f,
+3.88961077e-01f,+3.18954624e-02f,+1.15811303e-01f,+4.50584218e-02f,-9.81350988e-02f,
+1.72051340e-02f,-1.79381259e-02f,+7.19436929e-02f,+4.58864355e-03f,+3.73946573e-03f,
-1.16784446e-01f,+2.68845469e-01f,-1.36062428e-01f,+2.15763506e-02f,+8.34369138e-02f,
+9.85100195e-02f,+9.47111398e-02f,+9.40091684e-02f,+1.33973643e-01f,+1.88996926e-01f,
+3.92426364e-02f,+6.46271482e-02f,+1.53456377e-02f,-3.32975648e-02f,-7.44063109e-02f,
-3.92394990e-01f,-1.66429862e-01f,-9.94472131e-02f,+1.87092274e-01f,+1.80136897e-02f,
-1.20545886e-02f,+5.37136458e-02f,-1.07129313e-01f,-1.20814855e-03f,+1.30288638e-02f,
+8.58166143e-02f,+2.89226901e-02f,+4.73347902e-02f,+2.15846002e-02f,+1.74505115e-01f,
+2.60151118e-01f,-1.89546198e-01f,+3.00127834e-01f,-6.48557022e-02f,+2.84184992e-01f,
+6.65404648e-02f,-1.22335918e-01f,-3.84810790e-02f,-5.88793680e-02f,+1.43456378e-03f,
-3.71941850e-02f,+1.07906654e-01f,+5.66684715e-02f,+7.25550428e-02f,+3.48067172e-02f,
+6.68850467e-02f,+6.17287830e-02f,-1.61209784e-03f,+1.03795100e-02f,+1.13713771e-01f,
+1.68992803e-01f,-2.00040907e-01f,-1.42394826e-01f,+1.80790439e-01f,+2.25544289e-01f,
+7.58146867e-02f,+2.55393963e-02f,+9.15822759e-02f,+4.54670228e-02f,+2.08647493e-02f,
-7.08539560e-02f,-2.05813777e-02f,-7.84359351e-02f,-2.26676534e-03f,-1.48518840e-02f,
+1.61035299e-01f,-3.55128828e-03f,-2.89434288e-02f,+1.28948227e-01f,+1.47885486e-01f,
+4.60329913e-02f,-3.83226164e-02f,+3.64352129e-02f,+6.49181977e-02f,+4.14336920e-02f,
+4.55003716e-02f,-1.69009399e-02f,+1.06733032e-01f,-3.16670584e-03f,-3.48153412e-01f,
-7.11807534e-02f,-8.04663226e-02f,+1.65065512e-01f,+1.17261477e-01f,-1.23546965e-01f,
+5.06927073e-02f,-5.87170497e-02f,+6.91274852e-02f,-2.73318626e-02f,+2.43355371e-02f,
+2.70192958e-02f,+5.10074645e-02f,-2.29820330e-02f,+7.30522797e-02f,+1.78400993e-01f,
-1.50670528e-01f,+2.05924630e-01f,-1.11981295e-01f,+3.32498580e-01f,-5.11785150e-02f,
+4.88527231e-02f,-3.41900960e-02f,-1.30875424e-01f,-2.76495740e-02f,+1.80239957e-02f,
+1.07581668e-01f,+4.66406047e-02f,-1.93822030e-02f,+5.71186580e-02f,+3.39453630e-02f,
+1.84882358e-02f,-9.10269842e-02f,-1.86716169e-02f,+7.54156783e-02f,+1.05493926e-01f,
-3.13810915e-01f,-8.90484303e-02f,+7.74387419e-02f,+1.59688056e-01f,+1.03266530e-01f,
+2.23980509e-02f,+7.18949884e-02f,-4.06877659e-02f,+1.08503737e-01f,+1.28318807e-02f,
+5.33827953e-02f,-1.48829408e-02f,+6.21963590e-02f,-6.89076334e-02f,+1.01219766e-01f,
-3.35613266e-02f,+5.74703105e-02f,+1.19546615e-01f,+1.76491067e-01f,+8.74260962e-02f,
+6.43195584e-02f,+1.92724317e-02f,+7.06068203e-02f,+5.39630949e-02f,+5.03974780e-02f,
+2.43174396e-02f,+9.43198055e-03f,+5.27058216e-03f,-3.68859738e-01f,+7.59572983e-02f,
-1.36258841e-01f,+6.59277216e-02f,+1.26193777e-01f,+2.01174011e-03f,+4.65682261e-02f,
-4.33303043e-02f,+5.05624479e-03f,+9.29389708e-03f,+9.63668246e-03f,+1.34460395e-02f,
+5.90952039e-02f,-8.46141577e-02f,+5.59543706e-02f,+1.52064502e-01f,-1.78254738e-01f,
+2.63876110e-01f,+4.57743823e-04f,+4.13417697e-01f,+6.76350575e-03f,+5.23315743e-02f,
+3.46965417e-02f,-2.02176541e-01f,+5.85984364e-02f,-9.15938914e-02f,+1.10232674e-01f,
-3.93131822e-02f,-7.66554177e-02f,-3.59468311e-02f,+1.01759627e-01f,+4.29528914e-02f,
+1.98758636e-02f,+1.22727938e-02f,+8.13000649e-02f,+9.64956135e-02f,-3.46447021e-01f,
+1.15754373e-01f,+1.69816494e-01f,+1.58591658e-01f,+1.74188048e-01f,+5.92291951e-02f,
+1.35338515e-01f,-2.74368692e-02f,+1.32325403e-02f,-5.65905534e-02f,+1.12322703e-01f,
+5.23907803e-02f,+3.70340608e-02f,-1.68475628e-01f,+9.60032716e-02f,+5.53578287e-02f,
+5.80484979e-02f,+1.10512320e-02f,+1.68402120e-01f,+1.02518372e-01f,+8.61602798e-02f,
+8.62394497e-02f,+7.38655180e-02f,+4.83675599e-02f,+9.89991352e-02f,+1.04934657e-02f,
-2.62329988e-02f,-3.67126688e-02f,-4.61173058e-01f,-3.63636650e-02f,-1.63287148e-01f,
+9.66414660e-02f,-1.69235095e-02f,-4.49622124e-02f,+1.07278310e-01f,-5.84290549e-03f,
-1.60272177e-02f,-6.79334104e-02f,-3.49429995e-02f,+1.52667552e-01f,-6.40010610e-02f,
+8.96028504e-02f,+7.85815641e-02f,+2.64627367e-01f,-2.07598820e-01f,+1.68277070e-01f,
-7.10926130e-02f,+3.51519465e-01f,-6.38205558e-02f,-7.56296739e-02f,-3.52267036e-03f,
-1.25723302e-01f,+1.43729504e-02f,-5.72210290e-02f,+5.00380918e-02f,-4.89866408e-03f,
-4.21673544e-02f,+5.33124432e-02f,+6.07834049e-02f,+9.46415141e-02f,+2.87309792e-02f,
-4.99882400e-02f,+1.50657864e-02f,+1.15452465e-02f,-3.78351927e-01f,+1.61223531e-01f,
+1.44013718e-01f,+1.24218091e-01f,+9.93957967e-02f,+7.71357343e-02f,+1.41366884e-01f,
+1.42613975e-02f,+4.69947457e-02f,-3.52847502e-02f,+5.61504588e-02f,-7.93871935e-03f,
-4.37425226e-02f,-7.06506968e-02f,+1.33835986e-01f,-1.94005179e-03f,-2.57871933e-02f,
+2.40389425e-02f,+1.53565869e-01f,+1.23587355e-01f,+5.89172691e-02f,+1.17688589e-01f,
+1.45697430e-01f,+4.72931564e-02f,+7.34075084e-02f,+1.69421006e-02f,+1.19481020e-01f,
-3.02116815e-02f,-4.23371345e-01f,-1.50297463e-01f,+3.62519994e-02f,+2.36489713e-01f,
+8.18368196e-02f,-2.26180418e-05f,+5.03749512e-02f,-1.01084165e-01f,+8.86849500e-03f,
-1.29555836e-01f,-2.96847615e-02f,+1.40056953e-01f,+2.20060665e-02f,+5.78434020e-02f,
+9.53796506e-03f,+2.62410045e-01f,-1.73254445e-01f,+2.31034338e-01f,-7.14867935e-02f,
+3.80396247e-01f,-1.26822039e-01f,-1.95831712e-02f,+7.84064382e-02f,-3.67196649e-02f,
-1.76008779e-03f,-3.86475362e-02f,+2.49473620e-02f,-8.33204612e-02f,-9.67646092e-02f,
+5.41225970e-02f,+7.43319243e-02f,+4.76859622e-02f,-4.06085327e-02f,+1.20955981e-01f,
-2.37587336e-02f,+4.12262306e-02f,-4.33255374e-01f,+2.37239361e-01f,+1.62452400e-01f,
+4.64292839e-02f,+7.01435283e-02f,+5.54471724e-02f,+1.62168860e-01f,-7.88742118e-03f,
-8.29876885e-02f,+5.11477590e-02f,+7.03247786e-02f,-4.85265888e-02f,+1.36201009e-02f,
-6.62043095e-02f,+4.52544764e-02f,-7.60182291e-02f,+5.55404611e-02f,+7.28443265e-02f,
+3.16682793e-02f,+7.77711868e-02f,+1.42942011e-01f,+5.41225411e-02f,+7.43832514e-02f,
-2.36655045e-02f,+1.53581193e-03f,+9.11652818e-02f,+4.82716113e-02f,-1.02289706e-01f,
-5.94969332e-01f,-3.74542117e-01f,+1.94575250e-01f,+3.23820829e-01f,-1.10674277e-01f,
+9.23376381e-02f,+3.39350139e-04f,-1.48914158e-01f,-3.56937535e-02f,-1.14462860e-01f,
+1.84699497e-03f,+2.37615481e-01f,+7.34349042e-02f,+1.63405672e-01f,+7.16396701e-03f,
+7.07294121e-02f,-2.10806280e-01f,+2.86486924e-01f,+2.91981781e-03f,+2.94900090e-01f,
-1.06608875e-01f,-6.96694553e-02f,+1.33783400e-01f,-1.68075394e-02f,+6.16740026e-02f,
+8.86965822e-03f,+1.39594331e-01f,+7.39334077e-02f,-7.71634281e-02f,-3.48273665e-02f,
+1.56166017e-01f,+1.37609486e-02f,+5.82242310e-02f,+7.39281476e-02f,-6.12783842e-02f,
+6.59511387e-02f,-4.06229198e-01f,+1.93146110e-01f,+2.46629417e-01f,+8.06961507e-02f,
+9.30310860e-02f,+1.37099370e-01f,+3.85109112e-02f,+7.92843327e-02f,+1.33420736e-01f,
-4.33635265e-02f,-6.01311475e-02f,-1.18322931e-01f,-5.44452295e-02f,+2.34689917e-02f,
+1.45755753e-01f,-1.14147983e-01f,+5.83678894e-02f,+6.16997741e-02f,+6.81630000e-02f,
-4.78218170e-03f,+2.30624061e-02f,+1.08456083e-01f,+7.32835829e-02f,+5.26031032e-02f,
+1.88159151e-03f,+7.92184696e-02f,+1.00926809e-01f,-7.50067830e-02f,-3.24239373e-01f,
-2.91821420e-01f,+1.91049963e-01f,+2.16883838e-01f,+2.94336323e-02f,-7.25204945e-02f,
-4.63819988e-02f,-8.83729011e-02f,+2.07115058e-02f,+4.15743217e-02f,-8.56040344e-02f,
+5.35276048e-02f,+1.12934731e-01f,+4.22923230e-02f,+9.23698768e-02f,+2.36505851e-01f,
+4.42467572e-04f,+2.09317356e-01f,-2.01436058e-02f,+2.31798202e-01f,-1.18991815e-01f,
-4.09442298e-02f,-6.64957315e-02f,+5.04006036e-02f,+2.30766386e-02f,-3.91898490e-02f,
+8.96679088e-02f,+1.95569564e-02f,+6.17974438e-02f,+1.18955344e-01f,+2.77611893e-02f,
+4.56426144e-02f,+3.28761563e-02f,-1.43328756e-01f,+3.78921404e-02f,+1.97569251e-01f,
-3.84999990e-01f,-3.12307686e-01f,+2.52793521e-01f,+4.03322101e-01f,+5.62103949e-02f,
+6.05310686e-02f,+8.44740942e-02f,-2.19978690e-02f,+9.46980044e-02f,-7.06254095e-02f,
+9.77862626e-02f,-5.01765572e-02f,-2.19465699e-03f,-1.03226915e-01f,+2.32072547e-01f,
-1.58043161e-01f,+5.15194535e-02f,+1.31690919e-01f,+1.59233809e-01f,+3.58733945e-02f,
+1.81563534e-02f,+1.08802207e-01f,+9.68998596e-02f,+4.49550450e-02f,+3.49441320e-02f,
+4.77860793e-02f,+1.07032105e-01f,-7.10174516e-02f,-3.40460688e-01f,-4.67306897e-02f,
-6.39114082e-02f,+2.28921771e-02f,+2.20185611e-02f,+2.40560398e-02f,-5.84301390e-02f,
-1.55410403e-02f,-4.75413278e-02f,+8.62508360e-03f,+2.56920867e-02f,+9.39174965e-02f,
+3.93491089e-02f,-5.96953258e-02f,-1.14426417e-02f,+2.17313275e-01f,-1.47838160e-01f,
+1.04941376e-01f,-1.05807893e-01f,+2.98401475e-01f,+3.12681645e-02f,+2.43423115e-02f,
-1.74327567e-02f,+1.41930496e-02f,+9.15269274e-03f,+1.96178984e-02f,+7.47517031e-03f,
-7.19113927e-03f,+9.85157490e-02f,+4.17110231e-03f,+3.39607820e-02f,+5.35485111e-02f,
-5.20454794e-02f,-1.40247688e-01f,+2.23516878e-02f,+2.02528358e-01f,-3.79023612e-01f,
-7.73728499e-03f,+1.50712460e-01f,+2.66771734e-01f,+1.00931115e-01f,+2.54055932e-02f,
+5.75795397e-02f,+2.27570394e-03f,-1.03269378e-02f,-3.20661627e-02f,+3.05537134e-02f,
-7.41226301e-02f,+3.98918428e-02f,-9.80763882e-02f,+1.69008732e-01f,-6.83967769e-02f,
-2.48348583e-02f,-1.35166030e-02f,+3.99257019e-02f,+4.54203226e-02f,+9.02650580e-02f,
+5.22450879e-02f,+4.22992706e-02f,+8.97601396e-02f,-1.35528939e-02f,-4.46532061e-03f,
+2.72328779e-02f,-9.92413983e-03f,-3.35504144e-01f,+3.17844562e-02f,-1.63734347e-01f,
-6.43493012e-02f,+1.42549604e-01f,-5.37297539e-02f,-1.94269959e-02f,-5.51530439e-03f,
+3.81697938e-02f,-1.00726016e-01f,+4.24039754e-04f,+4.75462936e-02f,-6.40676543e-02f,
+3.24815628e-03f,-9.19312146e-03f,+1.89012304e-01f,-1.12425663e-01f,+1.47783726e-01f,
-4.97045694e-03f,+3.27895015e-01f,+4.01148424e-02f,-6.66254684e-02f,-1.28893524e-01f,
-1.11465253e-01f,-5.03787352e-03f,-1.04836859e-01f,-3.61430878e-03f,-2.15300992e-02f,
-3.74261886e-02f,-5.23136370e-02f,+3.25006992e-02f,+4.33406085e-02f,-2.62283962e-02f,
-1.39704704e-01f,+5.41265532e-02f,+6.01685531e-02f,-3.27760816e-01f,+1.48029095e-02f,
+6.32598028e-02f,+1.98622182e-01f,+2.01025546e-01f,+9.08182003e-03f,+1.41247362e-01f,
-1.70249417e-02f,+7.27314204e-02f,-5.31926826e-02f,+4.20263074e-02f,-6.54907972e-02f,
-1.40724555e-02f,-6.87457249e-02f,+1.89866111e-01f,-7.48392493e-02f,+5.33559918e-02f,
+5.22394339e-03f,+3.93117815e-02f,+2.56977230e-02f,+8.65183696e-02f,+1.52485296e-01f,
+1.54932320e-01f,+5.81257530e-02f,-7.39782443e-03f,+1.56299863e-03f,+8.65967050e-02f,
+8.37610215e-02f,-3.47165197e-01f,+1.96808964e-01f,-1.93167984e-01f,-1.09953038e-01f,
+3.02784182e-02f,-5.21026962e-02f,+3.21207121e-02f,+2.89603462e-03f,-2.59535350e-02f,
+2.20522992e-02f,+3.30879651e-02f,+1.11996256e-01f,+6.53559789e-02f,+9.45334211e-02f,
-2.06073113e-02f,+1.69335499e-01f,-1.66287184e-01f,+1.17482513e-01f,-6.41533658e-02f,
+3.00115973e-01f,+4.56713419e-03f,-2.26111896e-02f,-4.95148972e-02f,-1.16750397e-01f,
-6.35938719e-02f,-1.79245602e-02f,+6.71034530e-02f,+5.03392443e-02f,-4.89901006e-03f,
-8.05987716e-02f,+8.38489681e-02f,-1.64229013e-02f,-4.27163355e-02f,-1.24845222e-01f,
-5.05522192e-02f,+4.50049825e-02f,-2.14741021e-01f,+1.26445487e-01f,+1.72914952e-01f,
+1.50042502e-02f,+1.66379526e-01f,-2.18526050e-02f,+5.06675169e-02f,-1.70706529e-02f,
+1.15120292e-01f,+2.40770392e-02f,+3.31503451e-02f,+4.54701260e-02f,-6.54652193e-02f,
-1.65173456e-01f,+1.17968433e-01f,-6.19437806e-02f,-2.38103997e-02f,+9.48130265e-02f,
+1.33399442e-01f,+9.67591852e-02f,+7.79440925e-02f,+1.05604544e-01f,+1.22739978e-01f,
+6.75742179e-02f,-4.53840039e-04f,+5.07688187e-02f,+5.22316396e-02f,-1.06333606e-02f,
-2.49064147e-01f,+1.60962924e-01f,-1.75171778e-01f,-1.41410649e-01f,+5.42117050e-03f,
-1.08503602e-01f,-1.51100010e-02f,-1.63611583e-02f,-1.94586683e-02f,-9.88005772e-02f,
-1.51012354e-02f,+1.41774952e-01f,-2.61813626e-02f,+1.59191843e-02f,+2.98638828e-02f,
+1.26196593e-01f,-8.46656635e-02f,+7.72677660e-02f,-1.20527558e-02f,+2.73653299e-01f,
-6.99959025e-02f,-3.07219122e-02f,-4.23342921e-02f,-1.71656907e-01f,-5.74625842e-02f,
-6.55988529e-02f,+5.45322411e-02f,+3.21776718e-02f,+2.88008582e-02f,+2.52284929e-02f,
+9.31976289e-02f,+4.55935560e-02f,+7.51092955e-02f,-4.32831049e-03f,-6.75791129e-02f,
+1.13674626e-01f,-2.76552945e-01f,+2.71041572e-01f,+9.56933293e-03f,+1.14737195e-03f,
+9.44938734e-02f,+1.05681896e-01f,+1.13367990e-01f,+3.59258614e-03f,+5.24129346e-02f,
-2.16423832e-02f,-1.66041683e-02f,-1.93154160e-02f,-2.99271923e-02f,-1.39621258e-01f,
+5.44312373e-02f,-6.81966022e-02f,-1.99920312e-02f,+1.02056257e-01f,+2.10918896e-02f,
+2.48515308e-02f,+8.85865018e-02f,+1.12528779e-01f,+1.33200243e-01f,+1.11392438e-01f,
+8.61032531e-02f,+5.46768792e-02f,+1.19893208e-01f,-1.23797311e-02f,-3.85062695e-01f,
-1.18358925e-01f,+7.42634311e-02f,+7.25558624e-02f,+6.27238527e-02f,+4.03169990e-02f,
-3.15012075e-02f,-2.43471134e-02f,+3.57420035e-02f,-8.78628418e-02f,+7.25222751e-02f,
+6.70707449e-02f,-4.52644713e-02f,+8.57625995e-03f,-6.92642108e-02f,+9.57652032e-02f,
-9.86094475e-02f,+9.84458476e-02f,-9.24932025e-03f,+2.40466908e-01f,-7.69892037e-02f,
-5.91802672e-02f,-2.42256839e-02f,-3.50133777e-02f,+5.47767282e-02f,-4.29761223e-02f,
-1.76106524e-02f,+5.19218147e-02f,-1.13507118e-02f,+1.29802153e-02f,+5.09867407e-02f,
+5.44197969e-02f,-6.64702877e-02f,-6.11776039e-02f,+6.41620234e-02f,+1.04126073e-01f,
-2.82001108e-01f,+3.90985817e-01f,+7.31742010e-02f,+3.53400521e-02f,+9.46395621e-02f,
+4.59188446e-02f,+3.35785523e-02f,+9.23367888e-02f,-5.17367013e-02f,-2.02985406e-02f,
-9.45880823e-03f,-3.48795801e-02f,-1.39216185e-01f,-1.23666920e-01f,+6.37016073e-02f,
-6.21297099e-02f,+1.01934537e-01f,+4.97202240e-02f,+8.92305598e-02f,+7.92653039e-02f,
+5.00066392e-02f,+6.38804063e-02f,-2.61594951e-02f,+5.24768606e-02f,+8.72702524e-02f,
+3.99887934e-02f,-1.13178780e-02f,-6.69265389e-02f,-4.66422260e-01f,-2.23726988e-01f,
+1.45279482e-01f,+2.29140073e-01f,-1.85248982e-02f,+9.87175032e-02f,+1.74614936e-02f,
-6.82853460e-02f,-3.98830213e-02f,-1.33123368e-01f,+7.80052468e-02f,+2.60667175e-01f,
+1.25277508e-02f,+6.99692965e-02f,+1.09972805e-02f,+5.68043999e-02f,-4.35368642e-02f,
+1.19152322e-01f,-1.33019835e-02f,+2.44073406e-01f,-2.10885197e-01f,+3.86609025e-02f,
+1.92686487e-02f,-6.59800246e-02f,+4.91694584e-02f,-1.14105850e-01f,-4.19882126e-03f,
-2.45134179e-02f,+2.99479254e-02f,+4.43572998e-02f,+2.21622512e-02f,+1.18870541e-01f,
-2.72461548e-02f,+2.27537230e-02f,-4.13592868e-02f,+7.82972798e-02f,-4.32968706e-01f,
+3.60745966e-01f,+7.90676102e-02f,+5.88437803e-02f,-1.51286768e-02f,+1.13763593e-01f,
+3.70779969e-02f,-6.72555491e-02f,+1.42640591e-01f,+8.58602449e-02f,-3.16031673e-03f,
-1.11302175e-01f,-6.84515908e-02f,-3.47262956e-02f,+2.05039486e-01f,-1.83031455e-01f,
+1.72915205e-01f,+5.49858026e-02f,+5.35971187e-02f,+2.99087223e-02f,+7.94165879e-02f,
+2.48869151e-01f,+3.76474112e-02f,-9.66887400e-02f,+7.83536956e-02f,+9.73275602e-02f,
+9.94849652e-02f,-3.02578229e-02f,-4.47268397e-01f,-2.42964596e-01f,+1.72949553e-01f,
+1.95355386e-01f,+2.76684314e-02f,-2.05000583e-02f,+3.68817970e-02f,+5.25801294e-02f,
+1.26543805e-01f,+3.52090970e-02f,-1.39670372e-01f,-4.76995073e-02f,+7.98053741e-02f,
+4.37827297e-02f,+4.32003997e-02f,+1.22218058e-01f,-5.56937270e-02f,+1.14700511e-01f,
-9.29335728e-02f,+7.87035376e-02f,-4.18691710e-02f,-7.07633868e-02f,-1.42476261e-01f,
+1.82562351e-01f,+3.76199000e-02f,+6.82004690e-02f,-3.75979878e-02f,+4.39539328e-02f,
+9.58826914e-02f,+1.09078750e-01f,+4.93897609e-02f,-2.94345096e-02f,+8.02284479e-02f,
-1.23323947e-01f,-5.16413152e-02f,+2.13530302e-01f,-3.86155158e-01f,-2.85600156e-01f,
+1.83518618e-01f,+4.09351498e-01f,+9.71314460e-02f,+5.52886948e-02f,+2.16391087e-02f,
-1.04652114e-01f,+1.02612145e-01f,+2.65246164e-03f,+2.76073962e-02f,-1.69341601e-02f,
-4.77235168e-02f,-6.97758570e-02f,+2.23003432e-01f,-1.50114521e-01f,+1.13787279e-01f,
+3.59345153e-02f,+1.48824118e-02f,+8.50155801e-02f,+1.49994850e-01f,+1.05566293e-01f,
-4.03542966e-02f,-7.52417883e-03f,-2.34358963e-02f,-7.95910507e-02f,+1.21013865e-01f,
+6.27056835e-03f,-2.28001207e-01f,-6.93572536e-02f,-2.45006308e-02f,-7.29785487e-02f,
-1.11283846e-02f,+3.69563550e-02f,+8.51615146e-03f,+5.28598437e-03f,+3.08451951e-02f,
+3.28561626e-02f,-1.12276159e-01f,+6.09396286e-02f,+8.22251588e-02f,+5.41200256e-03f,
+1.69982202e-02f,+1.27324760e-01f,-1.08288102e-01f,+9.14813280e-02f,+3.95975895e-02f,
+1.21168032e-01f,+8.41485560e-02f,+2.50806101e-03f,-1.08706519e-01f,+1.90221164e-02f,
+8.13331082e-02f,+4.64729778e-02f,-7.18699172e-02f,+7.98434243e-02f,+4.76618558e-02f,
-9.48079105e-04f,+3.54424715e-02f,+4.76499833e-02f,+8.46665651e-02f,-1.58267573e-01f,
-2.10384354e-02f,+9.14723426e-02f,-3.93077344e-01f,+1.37940161e-02f,+9.66913626e-02f,
+2.03572214e-01f,+1.44312941e-02f,+1.05600849e-01f,+2.82038171e-02f,-2.42328681e-02f,
-2.38870662e-02f,+2.62911357e-02f,+6.76826164e-02f,-7.99450353e-02f,-2.02290285e-02f,
-7.83804134e-02f,+9.39156339e-02f,-2.54385336e-03f,+4.46890621e-03f,+1.13294013e-01f,
+1.19664572e-01f,+1.03177719e-01f,+4.64095026e-02f,+1.21469446e-01f,+1.00050882e-01f,
+1.62311476e-02f,-5.34092709e-02f,+1.66587457e-02f,-1.93865057e-02f,+3.47153358e-02f,
-2.29629442e-01f,+1.59002274e-01f,-1.15202837e-01f,-1.98551014e-01f,-4.36715549e-03f,
+3.75336222e-02f,+2.90500280e-02f,-9.71942991e-02f,-5.32742962e-02f,-1.89479776e-02f,
-9.27965045e-02f,+1.11037433e-01f,+4.21644486e-02f,-2.30559334e-02f,+1.91535223e-02f,
+1.49920300e-01f,-1.49826869e-01f,+7.90222082e-03f,-7.84774795e-02f,+1.79394275e-01f,
+8.07932485e-03f,+1.16728591e-02f,-1.92656472e-01f,-8.65491778e-02f,+2.17747428e-02f,
-3.68787497e-02f,+2.70908382e-02f,+4.26867604e-02f,-3.12271230e-02f,-6.74370723e-03f,
+3.89610007e-02f,+8.90323445e-02f,+6.01396374e-02f,-1.06734701e-01f,-2.67075538e-03f,
+6.84594214e-02f,-3.38111341e-01f,+1.18999206e-01f,+2.63937674e-02f,+1.35344997e-01f,
+3.69701125e-02f,+3.94266918e-02f,+1.82183623e-01f,+1.12381786e-01f,-3.64566520e-02f,
-4.91581336e-02f,+1.25630811e-01f,-3.62918042e-02f,-1.54098216e-02f,-1.99402124e-03f,
+1.08990036e-01f,-3.47114876e-02f,+1.30099326e-03f,+5.19124754e-02f,+6.56970814e-02f,
+1.30968750e-01f,+4.01361585e-02f,+9.60513204e-02f,+5.72597235e-02f,+1.13214530e-01f,
-2.95647066e-02f,-4.08614166e-02f,+8.04218557e-03f,+9.96036176e-03f,-1.10886142e-01f,
+1.53508097e-01f,-1.90968454e-01f,-2.71776259e-01f,-3.18545997e-02f,-7.63460696e-02f,
-3.80203016e-02f,-8.89955387e-02f,+8.73155706e-03f,-2.08990201e-02f,+2.11341609e-03f,
+4.61312942e-02f,-2.94846483e-02f,+1.11552067e-01f,+3.89304869e-02f,+1.94288895e-01f,
-3.52148674e-02f,+1.67820565e-02f,-1.05087571e-01f,+1.91997290e-01f,+1.02181166e-01f,
-2.24290192e-02f,-1.12589620e-01f,-4.73487154e-02f,+9.53091159e-02f,-1.13551810e-01f,
+5.31668626e-02f,-6.26296997e-02f,-2.72938050e-02f,+2.65521035e-02f,+6.32775277e-02f,
-3.19404565e-02f,+7.64292032e-02f,-3.04281805e-02f,+3.02235223e-02f,+1.58928573e-01f,
-2.85130322e-01f,+2.00727656e-01f,+1.13835009e-02f,+3.12820300e-02f,+7.91472346e-02f,
-1.34926029e-02f,+1.22564569e-01f,+5.28191142e-02f,+1.01740032e-01f,+4.32331227e-02f,
+7.83090815e-02f,-4.24797945e-02f,-3.65891121e-02f,-1.69974133e-01f,+1.90215722e-01f,
-1.01170558e-02f,+4.65154201e-02f,+6.06849454e-02f,+5.44792693e-03f,+5.91355711e-02f,
+9.04971063e-02f,+1.05917580e-01f,+7.64998943e-02f,+5.10138310e-02f,+4.36614640e-03f,
-5.06859049e-02f,-6.95644179e-03f,-4.38776202e-02f,-1.63692340e-01f,+1.45437717e-01f,
-1.95671767e-01f,-2.86189049e-01f,+1.10739954e-02f,-6.81879148e-02f,+5.20090200e-03f,
-5.18165976e-02f,+6.50917366e-02f,-1.22508079e-01f,-1.05639502e-01f,+7.29734600e-02f,
+5.69976196e-02f,+1.02220759e-01f,-3.69440466e-02f,+1.49002939e-01f,-1.49743676e-01f,
+6.10486344e-02f,-1.38622606e-02f,+2.72201508e-01f,+2.25594416e-02f,+4.61361855e-02f,
-9.22173411e-02f,-4.22573835e-02f,+8.51315260e-02f,-9.99438316e-02f,+5.14107794e-02f,
+3.53605449e-02f,+8.36858302e-02f,-5.01172282e-02f,+4.26502191e-02f,+2.28251301e-05f,
+8.01982284e-02f,-1.51517943e-01f,+1.59531422e-02f,+1.54930249e-01f,-2.15357155e-01f,
+3.53623986e-01f,+4.49699946e-02f,+2.59506609e-02f,+1.36128366e-01f,+1.21285170e-01f,
+5.66213243e-02f,+9.54267904e-02f,+1.30167045e-02f,-4.47569303e-02f,+3.88236996e-03f,
-2.16997731e-02f,-9.68793556e-02f,-1.44760698e-01f,+1.31003439e-01f,+5.80374785e-02f,
+7.12940842e-03f,-2.79656649e-02f,+4.05605026e-02f,-1.38491634e-02f,+1.01831242e-01f,
+9.75507125e-02f,-2.86595169e-02f,-3.74854472e-03f,-1.14159398e-02f,+8.29608813e-02f,
+2.95840390e-02f,-3.72550637e-02f,-2.85719275e-01f,+4.39590774e-03f,-4.81710657e-02f,
-7.19450861e-02f,-6.32944107e-02f,-6.88653663e-02f,+8.23861882e-02f,-7.23480880e-02f,
-4.82441038e-02f,-6.04636930e-02f,-5.37536740e-02f,+1.94004893e-01f,+6.97880089e-02f,
+2.03454178e-02f,-9.61268321e-02f,+6.65659010e-02f,-6.65910393e-02f,+1.50481835e-01f,
-1.35907680e-01f,+1.19628049e-01f,-9.79032293e-02f,+9.07065347e-03f,-1.23721600e-01f,
-1.05280932e-02f,+9.56768245e-02f,-1.18202968e-02f,-6.90893456e-03f,-3.41523462e-03f,
+5.34127317e-02f,+7.69163892e-02f,+2.33702827e-03f,+6.93534091e-02f,+2.09103450e-02f,
-1.52695328e-01f,-1.06826708e-01f,+9.73687172e-02f,-3.35068882e-01f,+3.80855024e-01f,
+6.74096271e-02f,-3.91143700e-03f,+4.87746485e-02f,+4.62896898e-02f,+1.10949799e-01f,
+8.19358006e-02f,+2.44079903e-03f,+9.56356227e-02f,+1.05441615e-01f,-8.36575106e-02f,
-6.16109781e-02f,-4.67765443e-02f,+1.75221503e-01f,+4.88638412e-03f,+1.02643721e-01f,
+4.26451378e-02f,+7.11457506e-02f,+1.19659901e-01f,+2.29666814e-01f,+1.40827760e-01f,
-1.75603945e-02f,+4.19030301e-02f,-6.48226682e-03f,+7.10311756e-02f,-1.72936823e-02f,
+1.27334530e-02f,-4.12080854e-01f,-1.64619327e-01f,+1.56810239e-01f,+1.50058046e-01f,
-9.31510106e-02f,+6.95165768e-02f,-7.51020061e-03f,-8.68539065e-02f,-8.89139324e-02f,
-8.91216472e-02f,+2.65846914e-03f,+1.95662111e-01f,+1.55794725e-01f,+1.37732312e-01f,
-6.68383613e-02f,+9.76517946e-02f,-1.58813521e-02f,+1.02746911e-01f,-9.80279744e-02f,
+2.14826539e-01f,-1.41400501e-01f,+4.01804596e-02f,-3.00483685e-02f,-5.26361819e-03f,
-2.44287364e-02f,-1.12167560e-01f,-1.70839317e-02f,-4.26256806e-02f,+4.91442205e-03f,
-3.88417132e-02f,-1.44474190e-02f,+1.74305972e-03f,+2.39168890e-02f,-1.11322299e-01f,
-7.48013780e-02f,+1.79043666e-01f,-4.15093899e-01f,+4.08725679e-01f,+1.31772891e-01f,
+4.51763682e-02f,+4.09095585e-02f,+1.83303386e-01f,+8.61777514e-02f,-1.64093785e-02f,
+7.41509199e-02f,+5.88680133e-02f,+1.12553000e-01f,-4.87724170e-02f,-1.43378824e-02f,
-3.49951908e-03f,+1.94474682e-01f,-1.67996302e-01f,+1.79626241e-01f,+1.38474479e-01f,
+7.43457749e-02f,-8.80838037e-02f,+1.41050205e-01f,+2.07316682e-01f,-1.70586407e-02f,
-1.08154602e-01f,-3.26282121e-02f,+1.15472034e-01f,+3.87998819e-02f,-6.61784112e-02f,
-3.63910973e-01f,-2.25049928e-01f,+1.21510988e-02f,+2.68434793e-01f,-6.15347959e-02f,
+2.67923102e-02f,+9.26521793e-02f,+1.09600034e-02f,+1.08584844e-01f,+1.99926756e-02f,
-1.81112766e-01f,+7.49277174e-02f,+1.20412856e-01f,+2.66969949e-02f,-3.49187618e-03f,
+8.75819102e-03f,+5.86338341e-03f,+8.31653327e-02f,-3.72513533e-02f,-2.76396796e-03f,
-8.19874257e-02f,+1.91055909e-02f,-2.07785055e-01f,+1.53415263e-01f,+1.12360477e-01f,
+1.98100936e-02f,-1.08213395e-01f,-1.32516595e-02f,+1.65745527e-01f,+4.34952118e-02f,
-8.34685564e-02f,+3.64243193e-03f,+9.58960354e-02f,-1.28815755e-01f,-4.64274064e-02f,
+9.47894081e-02f,-3.39533895e-01f,-2.55480349e-01f,+3.87245268e-02f,+4.75890279e-01f,
-4.00910415e-02f,+2.01875523e-01f,+1.06075384e-01f,-7.71234259e-02f,-4.62145396e-02f,
-1.42341712e-02f,+1.31768793e-01f,-1.15408421e-01f,-3.99665609e-02f,+6.96763955e-03f,
+1.90365121e-01f,-1.00415677e-01f,+1.34740487e-01f,+5.05254567e-02f,+4.39568684e-02f,
-2.48915460e-02f,+1.78603098e-01f,+1.74002007e-01f,-8.15927330e-03f,-6.81333020e-02f,
-5.37165143e-02f,+3.79673354e-02f,+3.36972461e-03f,+1.75187569e-02f,-1.50211498e-01f,
-8.83469582e-02f,-1.20252706e-01f,-7.12526590e-02f,-5.83245978e-02f,-7.00429305e-02f,
-2.53872108e-02f,-4.51593809e-02f,+5.96762560e-02f,-9.04666707e-02f,-1.68220580e-01f,
+9.42439064e-02f,+1.37267977e-01f,+7.14099482e-02f,-9.84213054e-02f,+2.29451992e-02f,
-4.17938158e-02f,+4.93664406e-02f,-3.71507229e-03f,+8.01471844e-02f,+9.86446738e-02f,
+6.26349151e-02f,-3.01729590e-01f,-5.45811746e-03f,+1.33473083e-01f,-9.47609823e-03f,
-1.15633935e-01f,+6.51581362e-02f,+1.32455721e-01f,+7.40482882e-02f,-8.98627117e-02f,
-3.69393043e-02f,+8.31376836e-02f,-1.15376808e-01f,-2.05892324e-02f,+6.45508617e-02f,
-3.90516430e-01f,+2.32326724e-02f,+6.82882816e-02f,+2.79513717e-01f,-3.31805535e-02f,
+9.84997302e-02f,+1.47920087e-01f,+6.37021586e-02f,-7.07829446e-02f,-4.45955247e-03f,
+1.06814526e-01f,+3.15569267e-02f,+5.36782965e-02f,+9.94724501e-03f,+1.64995700e-01f,
-7.77452588e-02f,+1.22120686e-01f,+6.97512776e-02f,-1.66469421e-02f,+6.86981678e-02f,
+1.51674896e-01f,+1.53077289e-01f,-5.00695407e-03f,-1.07509717e-02f,-9.62849930e-02f,
+6.74239025e-02f,+1.44270742e-02f,-4.34874929e-02f,-1.05350234e-01f,+7.35043734e-02f,
-2.41326302e-01f,-1.37057036e-01f,-1.80934872e-02f,+2.69282795e-02f,-3.81291956e-02f,
-7.51350522e-02f,+2.67034560e-03f,-1.14882104e-01f,-1.35614768e-01f,-3.77535401e-03f,
+8.20352063e-02f,-3.61822620e-02f,-1.05567381e-01f,+2.56580431e-02f,-9.84075069e-02f,
+4.16676924e-02f,+7.66848624e-02f,+1.56636000e-01f,+1.64784521e-01f,-1.29610803e-02f,
-2.21740708e-01f,-7.19601568e-03f,+1.59755200e-02f,-1.59250777e-02f,-9.71203521e-02f,
-4.53022942e-02f,+1.00905532e-02f,-3.40559036e-02f,+1.11466888e-02f,-4.14906107e-02f,
+7.06095174e-02f,-2.23867550e-01f,-2.57494766e-02f,+3.69640999e-02f,-3.35560769e-01f,
+2.23851860e-01f,-9.76942293e-03f,+1.59907997e-01f,+6.53923973e-02f,+1.42513916e-01f,
+8.19107667e-02f,+1.32170871e-01f,+4.58132774e-02f,+2.52066236e-02f,+1.34682208e-01f,
+7.07959197e-03f,-9.22236964e-02f,-7.29854451e-03f,+1.27784297e-01f,+1.33388108e-02f,
+1.44342661e-01f,+6.11739345e-02f,+3.77276391e-02f,+6.86764866e-02f,+7.49409571e-02f,
+5.48519157e-02f,-4.28404519e-03f,-4.88908868e-03f,+2.22370159e-02f,-3.88912708e-02f,
+1.15221635e-01f,+1.31116519e-02f,+3.71539257e-02f,+1.35959819e-01f,-2.93843240e-01f,
-3.06480438e-01f,-7.93598145e-02f,-4.54689413e-02f,+6.48234561e-02f,-8.68307874e-02f,
+4.09689844e-02f,-8.94619152e-02f,-1.12866357e-01f,+9.87848938e-02f,+1.56957313e-01f,
+9.43961963e-02f,-1.24212988e-01f,+2.68801991e-02f,-1.13966547e-01f,+9.16431025e-02f,
+3.10445316e-02f,+1.24833174e-01f,+8.02855715e-02f,+4.65800092e-02f,-2.53969759e-01f,
-6.97415993e-02f,+3.63105983e-02f,-4.36392613e-02f,-6.00802265e-02f,-6.10035472e-02f,
+1.38673428e-02f,+4.38868366e-02f,+3.12674907e-03f,-5.36559075e-02f,+1.24270387e-01f,
-9.03473347e-02f,-8.44060630e-02f,-2.16357806e-03f,-2.81095833e-01f,+1.77567020e-01f,
+3.34326699e-02f,+5.26796989e-02f,-3.64947841e-02f,+3.47429961e-02f,+1.50417328e-01f,
+9.76756439e-02f,+3.73856351e-02f,+5.18156402e-02f,+2.85798497e-03f,+1.70968715e-02f,
-3.76038440e-02f,-7.30870888e-02f,+1.87465921e-01f,+6.48923144e-02f,+7.88128003e-02f,
+6.80686161e-02f,+7.22210854e-02f,+5.21267913e-02f,+1.03953674e-01f,+8.17935690e-02f,
-1.98900905e-02f,+2.25136485e-02f,+3.64152119e-02f,+5.28961346e-02f,+9.53380987e-02f,
-2.92722788e-02f,-7.02885985e-02f,+8.41547921e-02f,-1.46608710e-01f,-2.17203155e-01f,
-2.75601316e-02f,+7.73990825e-02f,+1.08584501e-01f,-3.65429781e-02f,+9.19652730e-02f,
-1.16385529e-02f,-8.08231905e-02f,+4.85446081e-02f,+9.94860306e-02f,+9.57505256e-02f,
+8.80557206e-03f,-3.47366706e-02f,-1.16312556e-01f,+1.42083451e-01f,-1.45341614e-02f,
+1.53538093e-01f,+1.29630685e-01f,+1.17924083e-02f,-1.95415333e-01f,-5.86176664e-02f,
-8.27725977e-03f,-3.18110697e-02f,-5.42429276e-02f,-1.02225421e-02f,+3.70062366e-02f,
-7.67941028e-02f,-1.06638364e-01f,-4.09297422e-02f,+1.10708937e-01f,-7.16599077e-02f,
-1.33090302e-01f,+1.27133682e-01f,-2.50789762e-01f,+3.98855418e-01f,-2.18812898e-02f,
+3.76177430e-02f,+3.44333909e-02f,+3.69496569e-02f,+1.98684067e-01f,+1.40278101e-01f,
-2.05325689e-02f,+7.60193691e-02f,+2.04683580e-02f,-2.74928194e-02f,-1.20119326e-01f,
-1.09389514e-01f,+1.15535945e-01f,-3.20195593e-02f,+1.45895869e-01f,+6.40222728e-02f,
+8.01867768e-02f,-2.64987666e-02f,+1.76526710e-01f,+1.32073924e-01f,+4.99172136e-02f,
-4.44043986e-02f,-7.61007592e-02f,+3.31293233e-02f,+1.08144917e-01f,+3.33073810e-02f,
-3.55724096e-02f,-8.23796317e-02f,-1.65112332e-01f,-1.18177712e-01f,+1.87547654e-02f,
-9.81971435e-03f,+1.26628533e-01f,+1.39025869e-02f,-1.75521728e-02f,-7.53608122e-02f,
-1.82539344e-01f,+1.10587172e-01f,+1.05255142e-01f,+1.03001930e-01f,-1.09641798e-01f,
+3.53706703e-02f,-9.29108560e-02f,+6.35026116e-03f,-5.18115461e-02f,+5.53881451e-02f,
-1.77822299e-02f,+2.03123000e-02f,-1.99130565e-01f,-3.28821912e-02f,+1.22898847e-01f,
-1.15257837e-01f,+3.27715389e-02f,-3.01548094e-02f,+1.57535970e-02f,-5.36236763e-02f,
-5.67812212e-02f,-6.07183017e-02f,+8.17692280e-02f,-1.29868910e-01f,-9.87086445e-02f,
-2.68791243e-03f,-2.90897459e-01f,+4.29281294e-01f,-8.03736746e-02f,-2.45247316e-02f,
+4.90299426e-02f,+9.59373415e-02f,+1.39885977e-01f,+1.30558982e-01f,-1.07634269e-01f,
+1.29757524e-01f,+1.45631418e-01f,-7.95900300e-02f,-1.06467634e-01f,-9.12221670e-02f,
+1.16029501e-01f,+2.97180396e-02f,+2.19595253e-01f,+5.25888391e-02f,+4.34298031e-02f,
-1.07810590e-02f,+2.43477494e-01f,+3.33967386e-03f,+2.53691636e-02f,-5.95523929e-03f,
-1.12794928e-01f,+4.98898253e-02f,+1.02491481e-02f,+1.68645065e-02f,-1.93154901e-01f,
-2.84027606e-01f,+1.15933558e-02f,+3.32922786e-02f,-1.14024775e-02f,+9.64749455e-02f,
+7.88078681e-02f,-1.30811423e-01f,+7.44939223e-03f,-1.08377948e-01f,-1.25521779e-01f,
+1.33701086e-01f,+9.98812690e-02f,+1.97232649e-01f,-8.55633318e-02f,-7.58342221e-02f,
-2.06134692e-02f,+6.92435727e-02f,-6.28108233e-02f,+2.77361590e-02f,-6.67516515e-02f,
+4.15768996e-02f,-1.10184908e-01f,-2.08784379e-02f,+3.03851794e-02f,-1.89685989e-02f,
-8.69705677e-02f,-1.51221929e-02f,+1.10325135e-01f,-2.18783170e-02f,-6.30944669e-02f,
+5.60861938e-02f,+3.26693319e-02f,-1.51868626e-01f,-1.73321694e-01f,+5.81991784e-02f,
-2.97445148e-01f,+4.09203649e-01f,-2.37852801e-02f,+8.79890919e-02f,+1.25724580e-02f,
+8.57971683e-02f,+1.32720768e-01f,+2.56875977e-02f,+1.49183003e-02f,+7.92609230e-02f,
+5.28888218e-02f,-1.72377944e-01f,-5.80813028e-02f,+3.93931344e-02f,+1.75490201e-01f,
-8.27023163e-02f,+2.38761157e-01f,+9.64984447e-02f,-8.72357488e-02f,-1.71288311e-01f,
+2.41060361e-01f,+1.10897020e-01f,-9.96843502e-02f,-1.16923980e-01f,-2.65771020e-02f,
+2.46879961e-02f,+9.29319113e-02f,-8.40104744e-02f,-9.08850953e-02f,-2.74221003e-01f,
-1.10014819e-01f,+2.23989442e-01f,-8.80000889e-02f,+7.39125758e-02f,-5.25751105e-03f,
-1.32686384e-02f,+1.70181513e-01f,+7.51411170e-02f,-1.77984387e-01f,-4.09602486e-02f,
+2.37552494e-01f,+6.04474964e-03f,+1.59379151e-02f,-1.94208279e-01f,+1.30118519e-01f,
+1.84311584e-01f,+4.13853973e-02f,-1.47652477e-01f,-1.92116108e-03f,-1.12570904e-01f,
-3.06391805e-01f,+1.55846149e-01f,+1.72271118e-01f,-3.80358251e-04f,-4.71498892e-02f,
+1.79465618e-02f,+1.97767869e-01f,-7.06874207e-02f,-1.21888861e-01f,-1.86753228e-01f,
+1.99836567e-01f,-2.27610797e-01f,-6.87767565e-02f,+9.74956304e-02f,-4.24715638e-01f,
-1.19290493e-01f,-5.31246774e-02f,+4.33426291e-01f,+3.85845499e-03f,+1.45597398e-01f,
+1.84213892e-01f,-7.64765367e-02f,-6.07049204e-02f,+3.58737111e-02f,+1.04818620e-01f,
-1.27851844e-01f,-2.63526682e-02f,-3.38975340e-02f,+1.64160669e-01f,+5.29325521e-03f,
+2.13469788e-01f,+8.34729429e-03f,-2.58941692e-03f,-3.96371149e-02f,+2.01609984e-01f,
+8.02763700e-02f,-1.45130858e-01f,-2.10038275e-01f,-7.72660738e-03f,+1.02705233e-01f,
+7.65176043e-02f,-2.48964652e-02f,-8.46747402e-03f,+8.39998107e-03f,-2.60695785e-01f,
+4.32547815e-02f,-1.88586965e-01f,+1.02212973e-01f,+1.23602189e-01f,+1.00769885e-01f,
+1.52865604e-01f,-6.63775653e-02f,-1.12880148e-01f,+4.87185409e-03f,+2.65658945e-01f,
-5.30394800e-02f,-1.52523338e-03f,-1.84067100e-01f,+6.51271567e-02f,-9.14978329e-03f,
+1.42360672e-01f,-6.26168400e-02f,+8.40630829e-02f,+3.40981185e-02f,-2.55665392e-01f,
+5.93163483e-02f,+9.00310278e-02f,-3.39448787e-02f,-1.42475009e-01f,-7.22614825e-02f,
+1.12816378e-01f,-3.11391372e-02f,-1.06795147e-01f,-1.18216552e-01f,+2.14908332e-01f,
-1.22930065e-01f,-3.43816839e-02f,+5.36048375e-02f,-3.64324510e-01f,+2.70364657e-02f,
-1.66154400e-01f,+3.08654636e-01f,-1.36874259e-01f,+6.64427876e-02f,+1.91243500e-01f,
+1.12585463e-01f,-1.04937973e-02f,+1.09997988e-01f,+3.24793644e-02f,-5.57856709e-02f,
-3.34069096e-02f,-1.14669211e-01f,+1.18747093e-01f,-7.07083521e-03f,+2.40377814e-01f,
-3.60842608e-02f,-5.02299778e-02f,-9.00238082e-02f,+2.43775129e-01f,+6.63205236e-02f,
-9.66161937e-02f,-3.76397334e-02f,-1.18169501e-01f,+1.11454420e-01f,+1.16866790e-01f,
+4.85513136e-02f,+1.22065268e-01f,+1.09334178e-02f,-2.60033876e-01f,-2.09708229e-01f,
-1.14680387e-01f,+7.27409869e-02f,+3.05528902e-02f,-4.58672568e-02f,+2.04643458e-01f,
-8.20037723e-02f,-1.20115966e-01f,-1.53642120e-02f,+2.22500443e-01f,-2.85655614e-02f,
+1.15853045e-02f,-1.01947494e-01f,+3.20464447e-02f,+6.45436496e-02f,+9.39105377e-02f,
+3.82331833e-02f,+1.65954098e-01f,+7.56164268e-02f,-3.39018673e-01f,-4.77040792e-03f,
+6.66253343e-02f,-1.04285777e-01f,-4.08419929e-02f,+6.54550875e-03f,+1.89888686e-01f,
-8.72023329e-02f,-4.38622423e-02f,-7.90203586e-02f,+2.30493948e-01f,-2.43891969e-01f,
-1.72961488e-01f,+6.66012689e-02f,-3.14734668e-01f,+1.49743363e-01f,-1.98035851e-01f,
+2.57323831e-01f,-8.78739804e-02f,+1.09609433e-01f,+1.50352001e-01f,+1.08683929e-01f,
-3.31378402e-03f,+5.56880087e-02f,+9.70218852e-02f,+5.34889698e-02f,-7.37278312e-02f,
-9.30504277e-02f,+1.74810007e-01f,+8.92064162e-03f,+1.33238763e-01f,+6.59038452e-03f,
-7.55523592e-02f,-2.86337640e-02f,+2.47388974e-01f,-1.04161697e-02f,+7.91106652e-03f,
-5.80539517e-02f,-6.80517852e-02f,+1.15075469e-01f,+1.85203522e-01f,+4.37138379e-02f,
+1.07684888e-01f,+5.94588481e-02f,-4.00722891e-01f,-2.07053944e-01f,-1.26388550e-01f,
+2.36871671e-02f,+1.19382188e-01f,+2.16628667e-02f,+1.47538871e-01f,-3.93796116e-02f,
-1.69482350e-01f,+8.00612494e-02f,+2.64332294e-01f,+9.04806480e-02f,+1.58353187e-02f,
-1.96005434e-01f,-7.17132241e-02f,+1.24767564e-01f,+8.67162570e-02f,+5.62061463e-03f,
+2.07621157e-01f,+1.37823269e-01f,-3.88959348e-01f,-4.27756794e-02f,+1.42318800e-01f,
-1.31769786e-02f,+5.85955707e-03f,-1.12442575e-01f,+9.78793576e-02f,-4.31551486e-02f,
-9.08690691e-02f,-1.73664205e-02f,+1.29972875e-01f,-1.73043832e-01f,-1.84404671e-01f,
-5.30349128e-02f,-2.02890605e-01f,+2.36511052e-01f,-5.24266288e-02f,+1.06144786e-01f,
+3.93759971e-03f,+1.25348791e-01f,+1.32212445e-01f,+3.18834670e-02f,-3.61114591e-02f,
+2.36255936e-02f,+4.86737788e-02f,-8.58449265e-02f,-1.29691646e-01f,-7.43723437e-02f,
+2.12250680e-01f,+1.06550239e-01f,+1.22847512e-01f,-1.05404779e-01f,+4.19604704e-02f,
+2.20442563e-02f,+2.85514265e-01f,+9.31997374e-02f,+1.19049158e-02f,-1.23946175e-01f,
-1.16973028e-01f,-1.05349896e-02f,+1.89358234e-01f,-3.40548530e-02f,+2.59782851e-01f,
+5.72624169e-02f,-4.30577040e-01f,-1.79400563e-01f,-1.52017638e-01f,+9.73465517e-02f,
+1.06044421e-02f,-7.41966115e-03f,+1.01861037e-01f,-1.36717960e-01f,-2.03114703e-01f,
+7.47350082e-02f,+2.75510728e-01f,+1.16800917e-02f,-4.50160205e-02f,-1.32077813e-01f,
-2.32436825e-02f,+1.05962604e-01f,+1.85190346e-02f,+7.43236914e-02f,+1.32940784e-01f,
+1.02338955e-01f,-2.60951459e-01f,-8.44406113e-02f,+1.94148302e-01f,-2.16595465e-04f,
-1.08600795e-01f,+1.32921236e-02f,+9.63445157e-02f,-1.38053939e-01f,-2.87016518e-02f,
-1.10342138e-01f,+2.03596681e-01f,-1.07217789e-01f,-1.26148477e-01f,-3.88068557e-02f,
-2.19061852e-01f,+2.95445979e-01f,-1.86573818e-01f,+1.53608128e-01f,-1.62655879e-02f,
+3.86030786e-02f,+9.22644511e-02f,+9.03995708e-02f,-7.53392503e-02f,+1.21322885e-01f,
+1.99887186e-01f,-3.05760442e-03f,-4.81118336e-02f,+1.68138780e-02f,+8.33767653e-02f,
+4.56346087e-02f,+1.65902376e-01f,+2.49731001e-02f,-2.10916195e-02f,-8.32813904e-02f,
+3.58943909e-01f,+7.65193626e-02f,+3.45124453e-02f,-8.50639641e-02f,-4.09867838e-02f,
+6.38928935e-02f,+1.85986072e-01f,-3.16242278e-02f,+1.34480163e-01f,-7.33827353e-02f,
-2.39877924e-01f,-1.21344186e-01f,-1.80677548e-01f,+1.65963005e-02f,+7.14583024e-02f,
+7.81043097e-02f,+4.65103015e-02f,-1.31697029e-01f,-1.92773655e-01f,+8.61865357e-02f,
+2.37254441e-01f,+1.22533530e-01f,-6.56249896e-02f,-6.20488040e-02f,-5.07106371e-02f,
+9.55818221e-02f,-1.68428048e-02f,+3.08204303e-03f,+1.11012660e-01f,+1.52334189e-02f,
-3.60232145e-01f,-1.12748303e-01f,+8.84329230e-02f,-3.49327363e-02f,-5.98063925e-03f,
+5.68784494e-03f,+2.02257112e-01f,-2.90343612e-02f,-1.12115644e-01f,-6.13169260e-02f,
+1.57350808e-01f,-1.71412513e-01f,-1.97797611e-01f,-7.59841036e-03f,-2.24697635e-01f,
+3.63181770e-01f,-9.61388201e-02f,+5.74071705e-02f,-1.14199907e-01f,+8.73119012e-02f,
+1.18478112e-01f,+7.15039000e-02f,-1.52701885e-01f,+1.22961380e-01f,+6.98397979e-02f,
-1.84290372e-02f,-4.39405218e-02f,-7.60548040e-02f,+1.03404760e-01f,+7.86062628e-02f,
+1.72444969e-01f,-1.94017235e-02f,+4.35371138e-02f,-9.32687297e-02f,+3.00395429e-01f,
-6.76083006e-03f,-1.43223777e-02f,-3.22116613e-02f,-1.02792852e-01f,+7.57091343e-02f,
+7.64535591e-02f,-1.18363604e-01f,+2.93566994e-02f,-2.22329751e-01f,-2.15626851e-01f,
+8.59789848e-02f,-1.45473897e-01f,+6.14650659e-02f,+9.88434702e-02f,+2.50895042e-02f,
+1.05713651e-01f,-1.10164635e-01f,-1.25935212e-01f,+1.77846327e-01f,+2.44103983e-01f,
+1.34109840e-01f,+2.42262054e-02f,-2.51329809e-01f,+4.20612209e-02f,+1.09351754e-01f,
+9.73633118e-03f,+4.18567061e-02f,-6.94011226e-02f,-3.59890908e-02f,-2.11003795e-01f,
-2.14913990e-02f,+1.48247987e-01f,-3.13030668e-02f,-6.55033961e-02f,-1.60295367e-02f,
+1.50956646e-01f,-6.56375960e-02f,-3.91626135e-02f,-7.43770227e-02f,+1.09093264e-01f,
-5.23148105e-02f,-1.21721819e-01f,-1.92828327e-02f,-3.56071591e-01f,+3.06856543e-01f,
-1.66331068e-01f,+6.78130612e-02f,-1.13374561e-01f,+2.20446214e-01f,+1.64710343e-01f,
+8.84006247e-02f,}; 
k2c_tensor CONV_4_kernel = {&CONV_4_kernel_array[0],4,3136,{ 7, 7,16, 4, 1}}; 
float CONV_4_bias_array[4] = {0}; 
k2c_tensor CONV_4_bias = {&CONV_4_bias_array[0],1,4,{4,1,1,1,1}}; 

 
float GAVGPOOL_0_output_array[4] = {0}; 
k2c_tensor GAVGPOOL_0_output = {&GAVGPOOL_0_output_array[0],1,4,{4,1,1,1,1}}; 


float FC_END_kernel_array[40] = {
+1.84059665e-01f,+9.05660927e-01f,-1.56432152e-01f,-1.96918383e-01f,-1.25881597e-01f,
-3.64440769e-01f,+4.74810600e-01f,-1.56606987e-01f,+5.79637647e-01f,+7.63100684e-01f,
-9.77016389e-02f,+5.28637826e-01f,-3.05860907e-01f,+6.82023287e-01f,-1.63786128e-01f,
+4.71375555e-01f,+2.69915685e-02f,+6.67548239e-01f,-6.87367618e-01f,+2.42942795e-02f,
-2.15680838e-01f,-8.87625515e-01f,+5.51695943e-01f,+1.89633984e-02f,+6.07517898e-01f,
+1.54301241e-01f,+6.90851808e-01f,-7.42966086e-02f,+4.59756851e-02f,-1.03746049e-01f,
+6.13834679e-01f,-1.70191452e-01f,+4.01412219e-01f,-1.08072996e-01f,+1.39666855e-01f,
+1.26289219e-01f,-8.09438586e-01f,+3.12775970e-02f,+5.06621242e-01f,-1.10666327e-01f,
}; 
k2c_tensor FC_END_kernel = {&FC_END_kernel_array[0],2,40,{ 4,10, 1, 1, 1}}; 
float FC_END_bias_array[10] = {0}; 
k2c_tensor FC_END_bias = {&FC_END_bias_array[0],1,10,{10, 1, 1, 1, 1}}; 
float FC_END_fwork[44] = {0}; 

 
k2c_conv2d(&CONV_0_output,INPUT_input,&CONV_0_kernel, 
	&CONV_0_bias,CONV_0_stride,CONV_0_dilation,k2c_relu); 
k2c_conv2d(&CONV_1_output,&CONV_0_output,&CONV_1_kernel, 
	&CONV_1_bias,CONV_1_stride,CONV_1_dilation,k2c_relu); 
k2c_conv2d(&CONV_2_output,&CONV_1_output,&CONV_2_kernel, 
	&CONV_2_bias,CONV_2_stride,CONV_2_dilation,k2c_relu); 
k2c_conv2d(&CONV_3_output,&CONV_2_output,&CONV_3_kernel, 
	&CONV_3_bias,CONV_3_stride,CONV_3_dilation,k2c_relu); 
k2c_conv2d(&CONV_4_output,&CONV_3_output,&CONV_4_kernel, 
	&CONV_4_bias,CONV_4_stride,CONV_4_dilation,k2c_relu); 
k2c_global_avg_pooling(&GAVGPOOL_0_output,&CONV_4_output); 
k2c_dense(FC_END_output,&GAVGPOOL_0_output,&FC_END_kernel, 
	&FC_END_bias,k2c_softmax,FC_END_fwork); 

 } 

void iNAS_0309_initialize() { 

} 

void iNAS_0309_terminate() { 

} 

